tree
version=v4
num_class=1
num_tree_per_iteration=1
label_index=0
max_feature_idx=174
objective=regression
feature_names=Column_0 Column_1 Column_2 Column_3 Column_4 Column_5 Column_6 Column_7 Column_8 Column_9 Column_10 Column_11 Column_12 Column_13 Column_14 Column_15 Column_16 Column_17 Column_18 Column_19 Column_20 Column_21 Column_22 Column_23 Column_24 Column_25 Column_26 Column_27 Column_28 Column_29 Column_30 Column_31 Column_32 Column_33 Column_34 Column_35 Column_36 Column_37 Column_38 Column_39 Column_40 Column_41 Column_42 Column_43 Column_44 Column_45 Column_46 Column_47 Column_48 Column_49 Column_50 Column_51 Column_52 Column_53 Column_54 Column_55 Column_56 Column_57 Column_58 Column_59 Column_60 Column_61 Column_62 Column_63 Column_64 Column_65 Column_66 Column_67 Column_68 Column_69 Column_70 Column_71 Column_72 Column_73 Column_74 Column_75 Column_76 Column_77 Column_78 Column_79 Column_80 Column_81 Column_82 Column_83 Column_84 Column_85 Column_86 Column_87 Column_88 Column_89 Column_90 Column_91 Column_92 Column_93 Column_94 Column_95 Column_96 Column_97 Column_98 Column_99 Column_100 Column_101 Column_102 Column_103 Column_104 Column_105 Column_106 Column_107 Column_108 Column_109 Column_110 Column_111 Column_112 Column_113 Column_114 Column_115 Column_116 Column_117 Column_118 Column_119 Column_120 Column_121 Column_122 Column_123 Column_124 Column_125 Column_126 Column_127 Column_128 Column_129 Column_130 Column_131 Column_132 Column_133 Column_134 Column_135 Column_136 Column_137 Column_138 Column_139 Column_140 Column_141 Column_142 Column_143 Column_144 Column_145 Column_146 Column_147 Column_148 Column_149 Column_150 Column_151 Column_152 Column_153 Column_154 Column_155 Column_156 Column_157 Column_158 Column_159 Column_160 Column_161 Column_162 Column_163 Column_164 Column_165 Column_166 Column_167 Column_168 Column_169 Column_170 Column_171 Column_172 Column_173 Column_174
feature_infos=[1:5] none none none none [34833:47848] [3550086:11573296] [0.14025844253173758:4.2001922388176816] [0.13620071684587814:3] [10:647.55657142857137] [373:5529] [997860:997999.5] [0.1355481727574751:2.0060079041232699] [0.13135043417506737:1] [0.13648892690808859:3.0205949656750573] [67:7030] [997088:997996.75] [0.13133732534930137:0.15286624203821655] [0.1277445109780439:0.15037593984962405] [0.13135043417506737:1.0068649885583525] [67:7967] [997177.5:997998.25] [0.13133732534930137:0.14025844253173755] [0.1277445109780439:0.13701204407619372] [0.1313373253493014:0.15080789946140036] [67:7968] [997868.25:997992] [0.13023565659089018:0.14025844253173755] [0.12186379928315412:0.1369886412161585] [0.1313373253493014:0.14025844253173755] [67:7968] [997864:997993.75] [0.13023565659089018:0.14025844253173755] [0.12186379928315412:0.13644524236983843] [0.13023565659089018:0.14025844253173755] [66:7968] [997860:997998.25] [0.13023565659089018:0.14025844253173755] [0.12186379928315412:0.13636363636363635] [0.13023565659089018:0.14025844253173755] [16:7968] [997873.5:997995.75] none [0.096902566787061037:0.097720577445255155] [0.13023565659089018:0.14025844253173755] [6995:34512] [21185426:28787626.25] [33:4533] [155192:3976697] [411128:3998108] [0:3.2782554209369659] [98:60624] [0:2.015748031496063] [20:495.52547770700636] [39.333333333333336:800] [253.16666666666666:923] [118.86044571494571:829.8536015466824] [2:10] [9:2094] [0.40572488163359249:2.4594017300070616] [0.14025738077214231:1.0104335297274747] [1.0169824894117305:4.2001996750397019] [77.777777777777786:81.25] [-3.3966935965720535:-2.1967906456026864] [378:448] [9.8128291205140762e+20:9.9733810384971851e+20] none [93.697538318625178:243.85882551254767] [0.12493809638990384:0.37802825206303975] [-6760:2715] [-7369882:2453362] [-0.15768797757922726:0.077943329601240174] [0:4] [1:5] [0:3] none none [-4:1] [-0.80000000000000004:1] none none none none none none [0.47570170555952662:28.518998272884286] [-560.66666666666663:200] [-346.83333333333337:323] [0.42194444444444446:1.5383333333333333] [0.102782:0.99952700000000005] [0.014999999999999999:3.4900000000000002] [0:2.1751394568732514] [0.87672510863958819:4.05994229426756] [0:2.7800633463590869] [0:1.8531416620850534] [-2.7755575615628914e-17:0.015099389653849132] [-2.7755575615628914e-17:0.0064775051328031796] [-2.7755575615628914e-17:0.0051233073966024112] [-2.7755575615628914e-17:0.0050002475937314939] [28170715.25:35773436.25] [34768:47858] none [-1:0] [-0.70710678118654791:1] none none none none [1:4.666666666666667] [0:2.3094010767585038] [1:4.333333333333333] [0:1.9748417658131499] [1.5333333333333334:3.3999999999999999] [0.59361683970466395:1.4638501094227998] [1.6666666666666667:2.9333333333333331] [0.67891055392436317:1.2689936278745479] [-1.5719488868720242:2.478225980419273] none none [1:3.3333333333333335] [0:1.5491933384829668] [1:2.0666666666666669] [0:1.2227992865708155] [1:1.8333333333333333] [0:1.0954451150103321] [-0.76774402915877049:3.454761084309574] none none none none none none none none none [35979.333333333336:47447] [37146.666666666664:46763.166666666664] [36954.066666666666:45788.800000000003] [35903.26666666667:44987.833333333336] [1:5] [1:5] [1:5] [1:5] [1:5] none none none none none none none none none none [34833:47848] [34833:47848] [34833:47848] [34833:47848] [34833:47848] [0.12493809638990384:0.37802825206303975] [0.12493809638990384:0.37802825206303975] [0.12493809638990384:0.37802825206303975] [0.12493809638990384:0.37802825206303975] [0.12493809638990384:0.37802825206303975] [0:4] [0:4] [0:4] [0:4] [0:4] [0.70452917500000001:3.8268621249999999] [102782:999527] [28.172325217639948:299.59656360063047] [132.492412322359:1497.1506053264839] [0.066721180331470412:22.532042641677371] [-0.096909363512414526:0.76541422263280046]
tree_sizes=240 405 404 405 405 405 406 406 471 406 470 470 493 410 473 495 495 468 469 489 410 409 406 494 409 493 475 410 409 410 389 410 389 410 494 390 390 477 478 498 496 391 478

Tree=0
num_leaves=1
num_cat=0
split_feature=
split_gain=
threshold=
decision_type=
left_child=
right_child=
leaf_value=1.1792496512917912
leaf_weight=
leaf_count=17
internal_value=
internal_weight=
internal_count=
is_linear=0
shrinkage=1


Tree=1
num_leaves=3
num_cat=0
split_feature=64 49
split_gain=18.9674 3.04164
threshold=442.50000000000006 3993978.0000000005
decision_type=2 2
left_child=1 -1
right_child=-2 -3
leaf_value=-0.046302392345208394 0.005071304875451166 -0.016620367625355719
leaf_weight=49 34 22
leaf_count=49 34 22
internal_value=-0.0244037 -0.0386923
internal_weight=105 71
internal_count=105 71
is_linear=0
shrinkage=0.05


Tree=2
num_leaves=3
num_cat=0
split_feature=113 9
split_gain=17.5241 2.70092
threshold=1.1233433444525263 104.76694047865864
decision_type=2 2
left_child=1 -1
right_child=-2 -3
leaf_value=-0.042008278970013968 0.011113360705120224 -0.016555225315593902
leaf_weight=52 25 28
leaf_count=52 25 28
internal_value=-0.0232638 -0.034502
internal_weight=105 80
internal_count=105 80
is_linear=0
shrinkage=0.05


Tree=3
num_leaves=3
num_cat=0
split_feature=113 9
split_gain=15.9869 2.38702
threshold=1.1233433444525263 104.76694047865864
decision_type=2 2
left_child=1 -1
right_child=-2 -3
leaf_value=-0.040022432963956495 0.010617227421275209 -0.015807570295949137
leaf_weight=52 25 28
leaf_count=52 25 28
internal_value=-0.0221665 -0.0329068
internal_weight=105 80
internal_count=105 80
is_linear=0
shrinkage=0.05


Tree=4
num_leaves=3
num_cat=0
split_feature=62 49
split_gain=14.6263 2.39896
threshold=78.050595238095255 3993978.0000000005
decision_type=2 2
left_child=-1 -2
right_child=1 -3
leaf_value=0.0046319965132184939 -0.040446959042635108 -0.013968429216742517
leaf_weight=34 49 22
leaf_count=34 49 22
internal_value=-0.021121 -0.0336818
internal_weight=105 71
internal_count=105 71
is_linear=0
shrinkage=0.05


Tree=5
num_leaves=3
num_cat=0
split_feature=62 49
split_gain=13.3433 2.11346
threshold=78.050595238095255 3993978.0000000005
decision_type=2 2
left_child=-1 -2
right_child=1 -3
leaf_value=0.0044191750682689053 -0.038541285850179317 -0.013353818678855899
leaf_weight=34 49 22
leaf_count=34 49 22
internal_value=-0.0201341 -0.032135
internal_weight=105 71
internal_count=105 71
is_linear=0
shrinkage=0.05


Tree=6
num_leaves=3
num_cat=0
split_feature=113 9
split_gain=12.5745 1.61192
threshold=1.1233433444525263 104.76694047865864
decision_type=2 2
left_child=1 -1
right_child=-2 -3
leaf_value=-0.034791390774602242 0.0097391738370060932 -0.013937110689378555
leaf_weight=52 25 28
leaf_count=52 25 28
internal_value=-0.0191933 -0.0287419
internal_weight=105 80
internal_count=105 80
is_linear=0
shrinkage=0.05


Tree=7
num_leaves=3
num_cat=0
split_feature=62 49
split_gain=11.1918 1.76017
threshold=78.050595238095255 3993978.0000000005
decision_type=2 2
left_child=-1 -2
right_child=1 -3
leaf_value=0.0041129738253516124 -0.035166396176299228 -0.011944474840164185
leaf_weight=34 49 22
leaf_count=34 49 22
internal_value=-0.0182878 -0.0292874
internal_weight=105 71
internal_count=105 71
is_linear=0
shrinkage=0.05


Tree=8
num_leaves=4
num_cat=0
split_feature=113 63 52
split_gain=10.6671 1.51864 3.38018
threshold=1.1233433444525263 -3.2024136893941231 0.58108108108108125
decision_type=2 2 2
left_child=1 2 -1
right_child=-2 -3 -4
leaf_value=0 0.0091207750620586527 -0.035564635944993872 -0.027609720701085666
leaf_weight=20 25 35 25
leaf_count=20 25 35 25
internal_value=-0.0174331 -0.0262429 -0.0163897
internal_weight=105 80 45
internal_count=105 80 45
is_linear=0
shrinkage=0.05


Tree=9
num_leaves=3
num_cat=0
split_feature=62 47
split_gain=9.29846 1.88876
threshold=78.050595238095255 3640.0000000000005
decision_type=2 2
left_child=-1 -2
right_child=1 -3
leaf_value=0.0036904863570187546 -0.032094931447947471 -0.008732710124357888
leaf_weight=34 51 20
leaf_count=34 51 20
internal_value=-0.0166429 -0.0266754
internal_weight=105 71
internal_count=105 71
is_linear=0
shrinkage=0.05


Tree=10
num_leaves=4
num_cat=0
split_feature=113 63 136
split_gain=9.0816 1.26721 3.16773
threshold=1.1233433444525263 -3.2024136893941231 43550.083333333336
decision_type=2 2 2
left_child=1 2 -1
right_child=-2 -3 -4
leaf_value=0 0.0085488442544426248 -0.032602434032841736 -0.026196069126879731
leaf_weight=21 25 35 24
leaf_count=21 25 35 24
internal_value=-0.0158623 -0.024006 -0.0148668
internal_weight=105 80 45
internal_count=105 80 45
is_linear=0
shrinkage=0.05


Tree=11
num_leaves=4
num_cat=0
split_feature=113 64 136
split_gain=8.31335 1.10944 2.88922
threshold=1.1233433444525263 431.50000000000006 43550.083333333336
decision_type=2 2 2
left_child=1 -1 -3
right_child=-2 2 -4
leaf_value=-0.031101006363567552 0.0081671989070517675 0 -0.02503179967955307
leaf_weight=35 25 21 24
leaf_count=35 25 21 24
internal_value=-0.0151419 -0.0229399 -0.0142119
internal_weight=105 80 45
internal_count=105 80 45
is_linear=0
shrinkage=0.05


Tree=12
num_leaves=4
num_cat=0
split_feature=113 47 62
split_gain=7.61151 1.09279 0.0449744
threshold=1.1233433444525263 3640.0000000000005 78.249007936507951
decision_type=2 2 2
left_child=1 2 -1
right_child=-2 -3 -4
leaf_value=-0.014889673856752259 0.0078025920263358533 -0.0071037736859010624 -0.030506452071039299
leaf_weight=25 25 20 35
leaf_count=25 25 20 35
internal_value=-0.0144544 -0.0219222 -0.0256533
internal_weight=105 80 60
internal_count=105 80 60
is_linear=0
shrinkage=0.05


Tree=13
num_leaves=3
num_cat=0
split_feature=113 51
split_gain=6.97897 0.997069
threshold=1.1233433444525263 147.00000000000003
decision_type=2 2
left_child=1 -1
right_child=-2 -3
leaf_value=-0.0080956618211887512 0.0074542614178998131 -0.025116233802953011
leaf_weight=24 25 56
leaf_count=24 25 56
internal_value=-0.0138122 -0.0209692
internal_weight=105 80
internal_count=105 80
is_linear=0
shrinkage=0.05


Tree=14
num_leaves=4
num_cat=0
split_feature=113 63 136
split_gain=6.37576 0.981747 2.54183
threshold=1.1233433444525263 -3.2024136893941231 43550.083333333336
decision_type=2 2 2
left_child=1 2 -1
right_child=-2 -3 -4
leaf_value=0 0.0071214818209409713 -0.027529863166181664 -0.022131766345765858
leaf_weight=21 25 35 24
leaf_count=21 25 35 24
internal_value=-0.0131574 -0.0200048 -0.0119639
internal_weight=105 80 45
internal_count=105 80 45
is_linear=0
shrinkage=0.05


Tree=15
num_leaves=4
num_cat=0
split_feature=113 47 95
split_gain=5.83395 0.880781 1.07614
threshold=1.1233433444525263 3640.0000000000005 0.0037978097858337866
decision_type=2 2 2
left_child=1 2 -1
right_child=-2 -3 -4
leaf_value=-0.027920880218346912 0.0068035590542214266 -0.005718121897915136 -0.0083946349425241366
leaf_weight=39 25 20 21
leaf_count=39 25 20 21
internal_value=-0.0125478 -0.0191044 -0.0224468
internal_weight=105 80 60
internal_count=105 80 60
is_linear=0
shrinkage=0.05


Tree=16
num_leaves=4
num_cat=0
split_feature=113 51 95
split_gain=5.3509 0.840026 0.0770706
threshold=1.1233433444525263 147.00000000000003 0.0037978097858337866
decision_type=2 2 2
left_child=1 -1 -3
right_child=-2 2 -4
leaf_value=-0.0065264046136979713 0.006499828738825663 -0.025874767200304911 -0.010928608673098295
leaf_weight=24 25 36 20
leaf_count=24 25 36 20
internal_value=-0.0119879 -0.0182733 -0.0220419
internal_weight=105 80 56
internal_count=105 80 56
is_linear=0
shrinkage=0.05


Tree=17
num_leaves=4
num_cat=0
split_feature=113 63 85
split_gain=4.9116 0.802818 2.376
threshold=1.1233433444525263 -3.2024136893941231 1.0588911132729499
decision_type=2 2 2
left_child=1 2 -1
right_child=-2 -3 -4
leaf_value=-0.02089016433954239 0.0062096578947135389 -0.024287565107408322 0
leaf_weight=22 25 35 23
leaf_count=22 25 35 23
internal_value=-0.0114582 -0.0174862 -0.0101755
internal_weight=105 80 45
internal_count=105 80 45
is_linear=0
shrinkage=0.05


Tree=18
num_leaves=4
num_cat=0
split_feature=88 47 58
split_gain=4.60072 2.09604 1.12156
threshold=1.181527777777778 3293.0000000000005 552.00000000000011
decision_type=2 2 2
left_child=1 -1 -3
right_child=-2 2 -4
leaf_value=-0.024513445635174595 0.0084703160628028552 -0.013789497883274006 0
leaf_weight=40 20 23 22
leaf_count=40 20 23 22
internal_value=-0.0109237 -0.0160748 -0.00667709
internal_weight=105 85 45
internal_count=105 85 45
is_linear=0
shrinkage=0.05


Tree=19
num_leaves=4
num_cat=0
split_feature=55 47 92
split_gain=4.21052 1.8896 1.08667
threshold=708.91666666666674 3293.0000000000005 2.1294627395191177
decision_type=2 2 2
left_child=1 -1 -3
right_child=-2 2 -4
leaf_value=-0.023373285261697546 0.008102041897566423 0.00039785764490564662 -0.013118184417900112
leaf_weight=40 20 21 24
leaf_count=40 20 21 24
internal_value=-0.0104014 -0.0153374 -0.00634672
internal_weight=105 85 45
internal_count=105 85 45
is_linear=0
shrinkage=0.05


Tree=20
num_leaves=3
num_cat=0
split_feature=113 51
split_gain=3.99887 0.68998
threshold=1.1233433444525263 147.00000000000003
decision_type=2 2
left_child=1 -1
right_child=-2 -3
leaf_value=-0.0048330285427746955 0.0059320725181273059 -0.018728548606257823
leaf_weight=24 25 56
leaf_count=24 25 56
internal_value=-0.00990165 -0.0153672
internal_weight=105 80
internal_count=105 80
is_linear=0
shrinkage=0.05


Tree=21
num_leaves=3
num_cat=0
split_feature=87 51
split_gain=3.73211 1.52953
threshold=108.91666666666664 147.00000000000003
decision_type=2 2
left_child=1 -1
right_child=-2 -3
leaf_value=-0.0018547478626514302 0.0079207432270050043 -0.018499081137800407
leaf_weight=26 20 59
leaf_count=26 20 59
internal_value=-0.00943105 -0.0140992
internal_weight=105 85
internal_count=105 85
is_linear=0
shrinkage=0.05


Tree=22
num_leaves=3
num_cat=0
split_feature=62 49
split_gain=3.56261 1.1079
threshold=78.100198412698418 3993978.0000000005
decision_type=2 2
left_child=-1 -2
right_child=1 -3
leaf_value=0.0025150327789597218 -0.02012400728707411 -0.003360634469985962
leaf_weight=37 46 22
leaf_count=37 46 22
internal_value=-0.00897677 -0.0156351
internal_weight=105 68
internal_count=105 68
is_linear=0
shrinkage=0.05


Tree=23
num_leaves=4
num_cat=0
split_feature=113 85 136
split_gain=3.31048 0.640102 3.27695
threshold=1.1233433444525263 1.4459945830523016 40252.500000000007
decision_type=2 2 2
left_child=1 -1 -3
right_child=-2 2 -4
leaf_value=-0.019274997000510875 0.0057552386820316319 -0.018976255114431736 0.0060337086467315325
leaf_weight=36 25 24 20
leaf_count=36 25 24 20
internal_value=-0.00855705 -0.0135579 -0.00709752
internal_weight=105 80 44
internal_count=105 80 44
is_linear=0
shrinkage=0.05


Tree=24
num_leaves=3
num_cat=0
split_feature=87 51
split_gain=3.17422 1.33409
threshold=108.91666666666664 147.00000000000003
decision_type=2 2
left_child=1 -1
right_child=-2 -3
leaf_value=-0.0010854890069057199 0.0077702672844347752 -0.016567097568824407
leaf_weight=26 20 59
leaf_count=26 20 59
internal_value=-0.00814744 -0.0124845
internal_weight=105 85
internal_count=105 85
is_linear=0
shrinkage=0.05


Tree=25
num_leaves=4
num_cat=0
split_feature=113 58 43
split_gain=2.93341 0.61084 0.208155
threshold=1.1233433444525263 804.00000000000011 0.0973746569814712
decision_type=2 2 2
left_child=1 2 -1
right_child=-2 -3 -4
leaf_value=-0.018492569988820609 0.0056611047472272602 -0.0024735335126519205 -0.0059081070708191918
leaf_weight=38 25 22 20
leaf_count=38 25 22 20
internal_value=-0.00775379 -0.012481 -0.0153128
internal_weight=105 80 58
internal_count=105 80 58
is_linear=0
shrinkage=0.05


Tree=26
num_leaves=4
num_cat=0
split_feature=55 7 65
split_gain=2.83438 0.997364 0.921149
threshold=708.91666666666674 2.0109519373604399 9.8297272283900818e+20
decision_type=2 2 2
left_child=1 2 -1
right_child=-2 -3 -4
leaf_value=-0.002892119555423657 0.0075715348383654721 0 -0.018823869183011679
leaf_weight=21 20 21 43
leaf_count=21 20 21 43
internal_value=-0.00741408 -0.0115326 -0.0145568
internal_weight=105 85 64
internal_count=105 85 64
is_linear=0
shrinkage=0.05


Tree=27
num_leaves=3
num_cat=0
split_feature=55 51
split_gain=2.60508 1.24724
threshold=708.91666666666674 147.00000000000003
decision_type=2 2
left_child=1 -1
right_child=-2 -3
leaf_value=-0.00017439910050096177 0.0072423380613327029 -0.014940329781402984
leaf_weight=26 20 59
leaf_count=26 20 59
internal_value=-0.00708134 -0.0110382
internal_weight=105 85
internal_count=105 85
is_linear=0
shrinkage=0.05


Tree=28
num_leaves=3
num_cat=0
split_feature=62 89
split_gain=2.5419 0.727752
threshold=78.050595238095255 0.99849450000000017
decision_type=2 2
left_child=-1 -2
right_child=1 -3
leaf_value=0.0034362304811617617 -0.015536966100335121 -0.0018777672290802004
leaf_weight=34 49 22
leaf_count=34 49 22
internal_value=-0.0067382 -0.0120928
internal_weight=105 71
internal_count=105 71
is_linear=0
shrinkage=0.05


Tree=29
num_leaves=3
num_cat=0
split_feature=62 49
split_gain=2.32716 0.642257
threshold=78.050595238095255 3993978.0000000005
decision_type=2 2
left_child=-1 -2
right_child=1 -3
leaf_value=0.0032783499595432268 -0.014804936011250203 -0.0017951455950736999
leaf_weight=34 49 22
leaf_count=34 49 22
internal_value=-0.00642071 -0.0115505
internal_weight=105 71
internal_count=105 71
is_linear=0
shrinkage=0.05


Tree=30
num_leaves=3
num_cat=0
split_feature=87 51
split_gain=2.26034 1.13174
threshold=108.91666666666664 147.00000000000003
decision_type=2 2
left_child=1 -1
right_child=-2 -3
leaf_value=0 0.0071640237129252902 -0.013525630944378433
leaf_weight=26 20 59
leaf_count=26 20 59
internal_value=-0.00611817 -0.00983563
internal_weight=105 85
internal_count=105 85
is_linear=0
shrinkage=0.05


Tree=31
num_leaves=3
num_cat=0
split_feature=64 49
split_gain=2.09938 0.552677
threshold=442.50000000000006 3993978.0000000005
decision_type=2 2
left_child=1 -1
right_child=-2 -3
leaf_value=-0.013732553413854195 0.0033588295227319413 -0.0015284051239490509
leaf_weight=49 34 22
leaf_count=49 34 22
internal_value=-0.00581506 -0.0107068
internal_weight=105 71
internal_count=105 71
is_linear=0
shrinkage=0.05


Tree=32
num_leaves=3
num_cat=0
split_feature=55 51
split_gain=2.01476 1.02151
threshold=708.91666666666674 147.00000000000003
decision_type=2 2
left_child=1 -1
right_child=-2 -3
leaf_value=0 0.0069506883880366454 -0.012569289452517445
leaf_weight=26 20 59
leaf_count=26 20 59
internal_value=-0.00554084 -0.00907132
internal_weight=105 85
internal_count=105 85
is_linear=0
shrinkage=0.05


Tree=33
num_leaves=3
num_cat=0
split_feature=64 49
split_gain=1.89357 0.474891
threshold=442.50000000000006 3993978.0000000005
decision_type=2 2
left_child=1 -1
right_child=-2 -3
leaf_value=-0.012738891559151503 0.003414516094065196 -0.0012878494203090668
leaf_weight=49 34 22
leaf_count=49 34 22
internal_value=-0.00526187 -0.00992728
internal_weight=105 71
internal_count=105 71
is_linear=0
shrinkage=0.05


Tree=34
num_leaves=4
num_cat=0
split_feature=113 58 10
split_gain=1.7524 0.560212 0.134469
threshold=1.1233433444525263 678.00000000000011 3766.5000000000005
decision_type=2 2 2
left_child=1 2 -1
right_child=-2 -3 -4
leaf_value=-0.015081879356593797 0.0051610810362866955 -0.0009435223878050844 -0.0046139177164206142
leaf_weight=30 25 27 23
leaf_count=30 25 27 23
internal_value=-0.00501351 -0.00874662 -0.011744
internal_weight=105 80 53
internal_count=105 80 53
is_linear=0
shrinkage=0.05


Tree=35
num_leaves=3
num_cat=0
split_feature=87 51
split_gain=1.74857 0.927543
threshold=108.91666666666664 147.00000000000003
decision_type=2 2
left_child=1 -1
right_child=-2 -3
leaf_value=0 0.0067825768564058397 -0.011446563722866197
leaf_weight=26 20 59
leaf_count=26 20 59
internal_value=-0.00480285 -0.00812167
internal_weight=105 85
internal_count=105 85
is_linear=0
shrinkage=0.05


Tree=36
num_leaves=3
num_cat=0
split_feature=55 51
split_gain=1.59934 0.839898
threshold=708.91666666666674 147.00000000000003
decision_type=2 2
left_child=1 -1
right_child=-2 -3
leaf_value=0 0.0064876824876536499 -0.010901928776274286
leaf_weight=26 20 59
leaf_count=26 20 59
internal_value=-0.00455299 -0.00773795
internal_weight=105 85
internal_count=105 85
is_linear=0
shrinkage=0.05


Tree=37
num_leaves=4
num_cat=0
split_feature=113 91 12
split_gain=1.57829 0.665774 0.610433
threshold=0.93831276057869106 0.14823862326636289 0.15374494897609758
decision_type=2 2 2
left_child=1 -1 -2
right_child=2 -3 -4
leaf_value=0 -0.001993478811953379 -0.012478820928867826 0.0086905430694637093
leaf_weight=21 20 44 20
leaf_count=21 20 44 20
internal_value=-0.00431528 -0.00911886 0.00265192
internal_weight=105 65 40
internal_count=105 65 40
is_linear=0
shrinkage=0.05


Tree=38
num_leaves=4
num_cat=0
split_feature=113 91 12
split_gain=1.43871 0.593961 0.562007
threshold=0.93831276057869106 0.14823862326636289 0.15374494897609758
decision_type=2 2 2
left_child=1 -1 -2
right_child=2 -3 -4
leaf_value=0 -0.0019068058758326201 -0.011894706015257125 0.0083126937602039271
leaf_weight=21 20 44 20
leaf_count=21 20 44 20
internal_value=-0.00412309 -0.00871514 0.00249617
internal_weight=105 65 40
internal_count=105 65 40
is_linear=0
shrinkage=0.05


Tree=39
num_leaves=4
num_cat=0
split_feature=87 92 172
split_gain=1.39391 0.659964 0.0243858
threshold=108.91666666666664 2.1294627395191177 220.48353750000106
decision_type=2 2 2
left_child=1 -1 -3
right_child=-2 2 -4
leaf_value=-4.7787461015913163e-05 0.0063231966029042783 -0.0038869208152755167 -0.012822309526450493
leaf_weight=33 20 21 31
leaf_count=33 20 21 31
internal_value=-0.00394011 -0.00694278 -0.0103499
internal_weight=105 85 52
internal_count=105 85 52
is_linear=0
shrinkage=0.05


Tree=40
num_leaves=4
num_cat=0
split_feature=113 26 49
split_gain=1.30761 0.4877 0.475626
threshold=0.93831276057869106 997945.00000000012 3993978.0000000005
decision_type=2 2 2
left_child=2 -2 -1
right_child=1 -3 -4
leaf_value=-0.011158811281556668 0.0079085079716194589 -0.0014847818575799464 -9.0413087606429967e-05
leaf_weight=43 20 20 22
leaf_count=43 20 20 22
internal_value=-0.00377611 0.00250571 -0.00817008
internal_weight=105 40 65
internal_count=105 40 65
is_linear=0
shrinkage=0.05


Tree=41
num_leaves=3
num_cat=0
split_feature=55 51
split_gain=1.24584 0.707704
threshold=708.91666666666674 147.00000000000003
decision_type=2 2
left_child=1 -1
right_child=-2 -3
leaf_value=0 0.0060485593261926079 -0.0093772635305480606
leaf_weight=26 20 59
leaf_count=26 20 59
internal_value=-0.00361253 -0.00646897
internal_weight=105 85
internal_count=105 85
is_linear=0
shrinkage=0.05


Tree=42
num_leaves=4
num_cat=0
split_feature=113 91 12
split_gain=1.18015 0.533999 0.485199
threshold=0.93831276057869106 0.14823862326636289 0.15374494897609758
decision_type=2 2 2
left_child=1 -1 -2
right_child=2 -3 -4
leaf_value=0 -0.0014478412715961102 -0.010587506975899351 0.0079105857573449605
leaf_weight=21 20 44 20
leaf_count=21 20 44 20
internal_value=-0.00341239 -0.00760561 0.00252658
internal_weight=105 65 40
internal_count=105 65 40
is_linear=0
shrinkage=0.05


end of trees

feature_importances:
Column_113=20
Column_51=11
Column_49=9
Column_62=8
Column_55=6
Column_47=5
Column_87=5
Column_63=4
Column_64=4
Column_136=4
Column_9=3
Column_12=3
Column_58=3
Column_91=3
Column_85=2
Column_92=2
Column_95=2
Column_7=1
Column_10=1
Column_26=1
Column_43=1
Column_52=1
Column_65=1
Column_88=1
Column_89=1
Column_172=1

parameters:
[boosting: gbdt]
[objective: regression]
[metric: l2]
[tree_learner: serial]
[device_type: cpu]
[data_sample_strategy: bagging]
[data: ]
[valid: ]
[num_iterations: 100]
[learning_rate: 0.05]
[num_leaves: 15]
[num_threads: 6]
[seed: 42]
[deterministic: 0]
[force_col_wise: 0]
[force_row_wise: 0]
[histogram_pool_size: -1]
[max_depth: 4]
[min_data_in_leaf: 20]
[min_sum_hessian_in_leaf: 10]
[bagging_fraction: 0.8]
[pos_bagging_fraction: 1]
[neg_bagging_fraction: 1]
[bagging_freq: 0]
[bagging_seed: 400]
[bagging_by_query: 0]
[feature_fraction: 0.7]
[feature_fraction_bynode: 1]
[feature_fraction_seed: 30056]
[extra_trees: 0]
[extra_seed: 12879]
[early_stopping_round: 0]
[early_stopping_min_delta: 0]
[first_metric_only: 0]
[max_delta_step: 0]
[lambda_l1: 0.8]
[lambda_l2: 3]
[linear_lambda: 0]
[min_gain_to_split: 0]
[drop_rate: 0.1]
[max_drop: 50]
[skip_drop: 0.5]
[xgboost_dart_mode: 0]
[uniform_drop: 0]
[drop_seed: 17869]
[top_rate: 0.2]
[other_rate: 0.1]
[min_data_per_group: 100]
[max_cat_threshold: 32]
[cat_l2: 10]
[cat_smooth: 10]
[max_cat_to_onehot: 4]
[top_k: 20]
[monotone_constraints: ]
[monotone_constraints_method: basic]
[monotone_penalty: 0]
[feature_contri: ]
[forcedsplits_filename: ]
[refit_decay_rate: 0.9]
[cegb_tradeoff: 1]
[cegb_penalty_split: 0]
[cegb_penalty_feature_lazy: ]
[cegb_penalty_feature_coupled: ]
[path_smooth: 0]
[interaction_constraints: ]
[verbosity: -1]
[saved_feature_importance_type: 0]
[use_quantized_grad: 0]
[num_grad_quant_bins: 4]
[quant_train_renew_leaf: 0]
[stochastic_rounding: 1]
[linear_tree: 0]
[max_bin: 255]
[max_bin_by_feature: ]
[min_data_in_bin: 3]
[bin_construct_sample_cnt: 200000]
[data_random_seed: 175]
[is_enable_sparse: 1]
[enable_bundle: 1]
[use_missing: 1]
[zero_as_missing: 0]
[feature_pre_filter: 1]
[pre_partition: 0]
[two_round: 0]
[header: 0]
[label_column: ]
[weight_column: ]
[group_column: ]
[ignore_column: ]
[categorical_feature: ]
[forcedbins_filename: ]
[precise_float_parser: 0]
[parser_config_file: ]
[objective_seed: 16083]
[num_class: 1]
[is_unbalance: 0]
[scale_pos_weight: 1]
[sigmoid: 1]
[boost_from_average: 1]
[reg_sqrt: 0]
[alpha: 0.9]
[fair_c: 1]
[poisson_max_delta_step: 0.7]
[tweedie_variance_power: 1.5]
[lambdarank_truncation_level: 30]
[lambdarank_norm: 1]
[label_gain: ]
[lambdarank_position_bias_regularization: 0]
[eval_at: ]
[multi_error_top_k: 1]
[auc_mu_weights: ]
[num_machines: 1]
[local_listen_port: 12400]
[time_out: 120]
[machine_list_filename: ]
[machines: ]
[gpu_platform_id: -1]
[gpu_device_id: -1]
[gpu_use_dp: 0]
[num_gpu: 1]

end of parameters

pandas_categorical:null
