{"learner":{"attributes":{"best_iteration":"0","best_score":"8.727673361701441","scikit_learn":"{\"_estimator_type\": \"regressor\"}"},"feature_names":[],"feature_types":[],"gradient_booster":{"model":{"cats":{"enc":[],"feature_segments":[],"sorted_idx":[]},"gbtree_model_param":{"num_parallel_tree":"1","num_trees":"31"},"iteration_indptr":[0,1,2,3,4,5,6,7,8,9,10,11,12,13,14,15,16,17,18,19,20,21,22,23,24,25,26,27,28,29,30,31],"tree_info":[0,0,0,0,0,0,0,0,0,0,0,0,0,0,0,0,0,0,0,0,0,0,0,0,0,0,0,0,0,0,0],"trees":[{"base_weights":[-1.2424431E-1,-5.206147E-1,5.5450873E0,-2.2469056E0,7.113282E-1,3.679025E-1,3.6932066E-1,-2.8876753E0,1.8907877E0,8.510759E0,3.790579E-2,1.7937614E-1,-1.2067932E-1,1.0174052E0,-3.3035314E0,2.9080468E-1,-2.5630963E0,3.9871994E-1,4.6219938E-2,-6.759752E-1,5.021278E0,-6.919529E-2,1.23661846E-1,3.380127E-2,-3.7186983E0,-6.238665E-4,-1.2253006E-1,3.8894937E0,-1.8294678E0,8.130775E0,-1.0348101E-1,-6.169156E-3,-4.088653E0,3.4580126E-1,4.1714754E-2,-2.998394E0,-2.7329814E-1,-4.9095806E-3,3.5928538E-1,1.2233276E-2,-4.393752E0,1.4746994E-1,-2.3692245E0,-3.6007552E0,9.3661845E-2,-3.2438395E0,3.2932153E0,-1.4334846E-1,-2.319873E-2,-1.1319873E-1,-0E0,-5.4657646E-2,-1.3047467E-1,3.7947558E-2,-1.2800354E-1,2.8932068E-1,-6.6097006E-3],"categories":[],"categories_nodes":[],"categories_segments":[],"categories_sizes":[],"default_left":[0,0,0,0,0,0,0,0,0,0,0,0,0,0,0,0,0,0,0,0,0,0,0,0,0,0,0,0,0,0,0,0,0,0,0,0,0,0,0,0,0,0,0,0,0,0,0,0,0,0,0,0,0,0,0,0,0],"id":0,"left_children":[1,3,5,7,9,11,-1,13,15,17,19,-1,-1,21,23,-1,25,-1,-1,27,29,-1,-1,-1,31,-1,-1,33,35,37,-1,-1,39,-1,41,43,45,-1,-1,-1,47,-1,49,51,-1,53,55,-1,-1,-1,-1,-1,-1,-1,-1,-1,-1],"loss_changes":[7.2235114E2,6.440986E2,7.201647E2,3.4548328E2,9.247397E2,3.9399625E2,0E0,1.8649988E2,6.7879785E2,4.1806085E2,5.9595447E2,0E0,0E0,1.437583E2,1.9360461E2,0E0,4.8054375E1,0E0,0E0,7.820716E2,6.1156116E2,0E0,0E0,0E0,1.1574133E2,0E0,0E0,8.748436E2,2.1137286E2,5.2015295E2,0E0,0E0,1.19440186E2,0E0,2.830834E2,2.6973352E2,5.8284784E2,0E0,0E0,0E0,9.842395E1,0E0,5.2565643E1,6.36062E1,0E0,1.5066159E2,5.6680664E2,0E0,0E0,0E0,0E0,0E0,0E0,0E0,0E0,0E0,0E0],"parents":[2147483647,0,0,1,1,2,2,3,3,4,4,5,5,7,7,8,8,9,9,10,10,13,13,14,14,16,16,19,19,20,20,24,24,27,27,28,28,29,29,32,32,34,34,35,35,36,36,40,40,42,42,43,43,45,45,46,46],"right_children":[2,4,6,8,10,12,-1,14,16,18,20,-1,-1,22,24,-1,26,-1,-1,28,30,-1,-1,-1,32,-1,-1,34,36,38,-1,-1,40,-1,42,44,46,-1,-1,-1,48,-1,50,52,-1,54,56,-1,-1,-1,-1,-1,-1,-1,-1,-1,-1],"split_conditions":[2.1E1,5.558603E2,1.2E1,8.0590664E4,-9.506173E-1,2.3681E4,3.6932066E-1,1.3273868E2,7.5289E4,7.5251724E1,5.96E2,1.7937614E-1,-1.2067932E-1,3.7554405E1,1.5999973E-2,2.9080468E-1,1.38E2,3.9871994E-1,4.6219938E-2,2.399997E-2,1.540573E6,-6.919529E-2,1.23661846E-1,3.380127E-2,5.02824E4,-6.238665E-4,-1.2253006E-1,3.999999E-2,-3.4396192E-1,4.1802668E4,-1.0348101E-1,-6.169156E-3,3.1952756E2,3.4580126E-1,5.0248E4,9.5882E4,1.454258E6,-4.9095806E-3,3.5928538E-1,1.2233276E-2,9.687E4,1.4746994E-1,6.5303332E4,7.199996E-2,9.3661845E-2,3.2E1,9.24487E1,-1.4334846E-1,-2.319873E-2,-1.1319873E-1,-0E0,-5.4657646E-2,-1.3047467E-1,3.7947558E-2,-1.2800354E-1,2.8932068E-1,-6.6097006E-3],"split_indices":[74,54,141,135,82,155,0,172,155,56,58,0,0,109,160,0,58,0,0,159,48,0,0,0,138,0,0,163,125,135,0,0,54,0,5,155,48,0,0,0,156,0,137,159,0,0,56,0,0,0,0,0,0,0,0,0,0],"split_type":[0,0,0,0,0,0,0,0,0,0,0,0,0,0,0,0,0,0,0,0,0,0,0,0,0,0,0,0,0,0,0,0,0,0,0,0,0,0,0,0,0,0,0,0,0,0,0,0,0,0,0,0,0,0,0,0,0],"sum_hessian":[3.18E2,2.99E2,1.9E1,1.24E2,1.75E2,1.2E1,7E0,1.08E2,1.6E1,1.2E1,1.63E2,5E0,7E0,1E1,9.8E1,5E0,1.1E1,6E0,6E0,1.44E2,1.9E1,5E0,5E0,8E0,9E1,5E0,6E0,2.8E1,1.16E2,1.4E1,5E0,9E0,8.1E1,8E0,2E1,6.5E1,5.1E1,5E0,9E0,5E0,7.6E1,6E0,1.4E1,6E1,5E0,2.8E1,2.3E1,6.8E1,8E0,8E0,6E0,2E1,4E1,5E0,2.3E1,7E0,1.6E1],"tree_param":{"num_deleted":"0","num_feature":"175","num_nodes":"57","size_leaf_vector":"1"}},{"base_weights":[1.010363E-1,3.4403343E0,-6.7345446E-1,-1.9136122E-1,9.588309E0,2.2867191E-1,-1.0072415E0,-2.7592127E0,2.327175E-1,1.2776431E1,-2.4670811E-2,-1.9112622E0,2.1193025E0,-3.894674E0,2.4788626E-2,1.4081018E-1,4.8859078E-1,-2.3132024E0,1.5232825E-1,2.835107E-1,4.9327847E-1,-1.3381585E-1,-3.5237756E-2,-2.5922654E0,1.08075626E-1,-1.2574066E-1,3.6001494E0,-3.0134697E0,7.7980983E-1,3.3458963E-1,-1.3751799E-1,-2.7804914E-1,-3.8480902E0,-1.989451E0,2.0874524E-1,-1.8111104E0,1.16843484E-1,-5.9291407E-2,1.7300083E-1,-1.265326E-1,-6.503826E-2,1.2644301E-2,-1.0710909E-1,-9.023281E-2,2.0589642E-2],"categories":[],"categories_nodes":[],"categories_segments":[],"categories_sizes":[],"default_left":[0,0,0,0,0,0,0,0,0,0,0,0,0,0,0,0,0,0,0,0,0,0,0,0,0,0,0,0,0,0,0,0,0,0,0,0,0,0,0,0,0,0,0,0,0],"id":1,"left_children":[1,3,5,7,9,-1,11,13,-1,15,-1,17,19,21,-1,-1,-1,23,-1,-1,25,-1,-1,27,-1,-1,29,31,33,-1,35,37,39,41,-1,43,-1,-1,-1,-1,-1,-1,-1,-1,-1],"loss_changes":[8.1034265E2,1.3256948E3,7.153856E2,8.363321E2,7.571815E2,0E0,7.033064E2,1.3417757E2,0E0,3.1891235E2,0E0,5.614576E2,6.532513E2,2.364389E1,0E0,0E0,0E0,3.2027966E2,0E0,0E0,7.2850195E2,0E0,0E0,2.5579517E2,0E0,0E0,8.554751E2,3.542339E2,3.8946985E2,0E0,1.6153134E2,4.212723E2,5.3050293E1,6.556514E1,0E0,5.609468E1,0E0,0E0,0E0,0E0,0E0,0E0,0E0,0E0,0E0],"parents":[2147483647,0,0,1,1,2,2,3,3,4,4,6,6,7,7,9,9,11,11,12,12,13,13,17,17,20,20,23,23,26,26,27,27,28,28,30,30,31,31,32,32,33,33,35,35],"right_children":[2,4,6,8,10,-1,12,14,-1,16,-1,18,20,22,-1,-1,-1,24,-1,-1,26,-1,-1,28,-1,-1,30,32,34,-1,36,38,40,42,-1,44,-1,-1,-1,-1,-1,-1,-1,-1,-1],"split_conditions":[2E0,1.5999978E-2,2.5733334E1,9.6288E4,6.3145266E4,2.2867191E-1,6.4963465E4,3.5E1,2.327175E-1,6.2142E4,-2.4670811E-2,6.65E2,-9.5187163E-1,1.5404995E7,2.4788626E-2,1.4081018E-1,4.8859078E-1,1.43E2,1.5232825E-1,2.835107E-1,-2.777778E-1,-1.3381585E-1,-3.5237756E-2,1.34E2,1.08075626E-1,-1.2574066E-1,5.5609E4,2.0490648E1,7.1906E4,3.3458963E-1,5.3077393E1,1.6923077E0,4.0535E4,5.119E4,2.0874524E-1,1.8193E4,1.16843484E-1,-5.9291407E-2,1.7300083E-1,-1.265326E-1,-6.503826E-2,1.2644301E-2,-1.0710909E-1,-9.023281E-2,2.0589642E-2],"split_indices":[168,163,114,155,138,0,138,72,0,154,0,58,80,6,0,0,0,77,0,0,78,0,0,145,0,0,155,129,156,0,131,78,69,155,0,69,0,0,0,0,0,0,0,0,0],"split_type":[0,0,0,0,0,0,0,0,0,0,0,0,0,0,0,0,0,0,0,0,0,0,0,0,0,0,0,0,0,0,0,0,0,0,0,0,0,0,0,0,0,0,0,0,0],"sum_hessian":[3.09E2,5.7E1,2.52E2,3.7E1,2E1,8E0,2.44E2,2.9E1,8E0,1.5E1,5E0,1.9E2,5.4E1,2.2E1,7E0,6E0,9E0,1.81E2,9E0,8E0,4.6E1,1.7E1,5E0,1.74E2,7E0,1.8E1,2.8E1,1.55E2,1.9E1,8E0,2E1,3.7E1,1.18E2,1.4E1,5E0,1.5E1,5E0,3E1,7E0,9.4E1,2.4E1,6E0,8E0,1E1,5E0],"tree_param":{"num_deleted":"0","num_feature":"175","num_nodes":"45","size_leaf_vector":"1"}},{"base_weights":[-2.4555595E-1,-6.992412E-1,7.5199456E0,3.9273994E0,-1.0900347E0,2.8264051E-2,3.9305907E-1,-3.4854136E-2,7.400717E0,2.4556236E0,-1.539144E0,6.230617E-2,2.9523978E-1,5.9028616E0,-2.5378594E0,-1.9539233E0,2.9684415E0,1.1342806E-2,2.9420027E-1,-1.2225565E-1,-9.106972E-3,-2.2494597E0,3.551206E0,7.7409635E0,-8.196624E-2,-1.0684172E0,-3.4505727E0,2.6363584E-1,-7.8859545E-2,6.1154034E-2,3.348098E-1,-2.0445309E0,3.2393532E0,-1.5906948E-1,-3.911797E0,1.2467788E-2,-9.3095854E-2,-2.3448516E-2,2.1247041E-1,-9.719111E-2,1.2647569E-1,-1.294353E-1,-1.499547E-2],"categories":[],"categories_nodes":[],"categories_segments":[],"categories_sizes":[],"default_left":[0,0,0,0,0,0,0,0,0,0,0,0,0,0,0,0,0,0,0,0,0,0,0,0,0,0,0,0,0,0,0,0,0,0,0,0,0,0,0,0,0,0,0],"id":2,"left_children":[1,3,5,7,9,-1,-1,-1,11,13,15,-1,-1,17,19,21,23,-1,-1,-1,-1,25,27,29,-1,31,33,-1,-1,-1,-1,35,37,39,41,-1,-1,-1,-1,-1,-1,-1,-1],"loss_changes":[1.085173E3,5.332891E2,5.9248785E2,4.2687354E2,4.370457E2,0E0,0E0,0E0,1.3507043E2,5.6526917E2,4.6167926E2,0E0,0E0,3.9727765E2,4.3424263E1,3.7651215E2,6.1614026E2,0E0,0E0,0E0,0E0,2.9110315E2,4.3762152E2,1.8188745E2,0E0,4.751846E2,1.5460461E2,0E0,0E0,0E0,0E0,2.4092764E2,3.3872565E2,2.2899136E2,1.1831702E2,0E0,0E0,0E0,0E0,0E0,0E0,0E0,0E0],"parents":[2147483647,0,0,1,1,2,2,3,3,4,4,8,8,9,9,10,10,13,13,14,14,15,15,16,16,21,21,22,22,23,23,25,25,26,26,31,31,32,32,33,33,34,34],"right_children":[2,4,6,8,10,-1,-1,-1,12,14,16,-1,-1,18,20,22,24,-1,-1,-1,-1,26,28,30,-1,32,34,-1,-1,-1,-1,36,38,40,42,-1,-1,-1,-1,-1,-1,-1,-1],"split_conditions":[2.1E1,1.4933888E2,6E0,1.0004717E2,2E0,2.8264051E-2,3.9305907E-1,-3.4854136E-2,3.37E1,-5.172728E-1,1.01181E5,6.230617E-2,2.9523978E-1,-6.2288135E-1,3.040324E2,2.6E0,1.4E1,1.1342806E-2,2.9420027E-1,-1.2225565E-1,-9.106972E-3,4.8012737E1,6.2142E4,1.006993E0,-8.196624E-2,4.921885E1,2.3414E4,2.6363584E-1,-7.8859545E-2,6.1154034E-2,3.348098E-1,4.5729E4,6E0,5.3897832E4,4.7131E4,1.2467788E-2,-9.3095854E-2,-2.3448516E-2,2.1247041E-1,-9.719111E-2,1.2647569E-1,-1.294353E-1,-1.499547E-2],"split_indices":[74,172,146,172,152,0,0,0,123,116,5,0,0,116,67,85,146,0,0,0,0,124,156,85,0,122,5,0,0,0,0,5,166,136,69,0,0,0,0,0,0,0,0],"split_type":[0,0,0,0,0,0,0,0,0,0,0,0,0,0,0,0,0,0,0,0,0,0,0,0,0,0,0,0,0,0,0,0,0,0,0,0,0,0,0,0,0,0,0],"sum_hessian":[3.04E2,2.89E2,1.5E1,2.1E1,2.68E2,8E0,7E0,9E0,1.2E1,2.9E1,2.39E2,5E0,7E0,1.7E1,1.2E1,2.2E2,1.9E1,8E0,9E0,6E0,6E0,2.1E2,1E1,1E1,9E0,1.08E2,1.02E2,5E0,5E0,5E0,5E0,8.9E1,1.9E1,1.3E1,8.9E1,2.7E1,6.2E1,1E1,9E0,8E0,5E0,7.9E1,1E1],"tree_param":{"num_deleted":"0","num_feature":"175","num_nodes":"43","size_leaf_vector":"1"}},{"base_weights":[1.42431E-1,-2.7458847E-1,4.2780952E0,1.3013127E0,-1.589149E0,5.815362E-1,4.2707244E-1,4.314302E0,1.2535039E-1,-2.4041495E0,2.4941857E0,-1.7565886E0,2.049945E-1,1.2401427E1,-3.529424E-1,-2.4462738E0,2.911991E0,-2.7449977E0,1.3916226E-1,2.914291E-1,-8.1388247E-1,5.838326E-2,-3.3927104E0,1.18789844E-1,4.846745E-1,-2.966962E0,1.5565258E-1,-3.8786693E0,8.201136E-2,3.0607605E-1,1.6084046E0,4.3773937E-1,-3.1042502E0,-1.0470593E-1,1.6393557E-1,-4.460523E-2,-1.2196686E-1,-2.4793286E-2,-1.0732967E-1,-4.9956333E-2,-1.23846486E-1,-1.18285865E-1,3.2039125E0,-2.740278E0,3.8371418E0,1.6588446E-1,-9.492086E-2,-3.3703153E0,4.10244E-2,2.1703877E-1,-3.1843193E-2,-0E0,-1.19773746E-1,8.284381E0,-2.039324E-2,2.1687886E-2,-3.5778346E0,3.5128313E-1,1.1171753E-1,9.749639E-2,-5.4499008E-2,-0E0,-1.1364592E-1],"categories":[],"categories_nodes":[],"categories_segments":[],"categories_sizes":[],"default_left":[0,0,0,0,0,0,0,0,0,0,0,0,0,0,0,0,0,0,0,0,0,0,0,0,0,0,0,0,0,0,0,0,0,0,0,0,0,0,0,0,0,0,0,0,0,0,0,0,0,0,0,0,0,0,0,0,0,0,0,0,0,0,0],"id":3,"left_children":[1,3,5,7,9,11,-1,13,15,17,19,21,-1,23,25,27,29,31,-1,-1,33,-1,35,-1,-1,37,-1,39,41,-1,43,45,47,-1,-1,-1,-1,-1,-1,-1,-1,-1,49,51,53,-1,-1,55,-1,-1,-1,-1,-1,57,59,-1,61,-1,-1,-1,-1,-1,-1],"loss_changes":[5.6486316E2,6.195503E2,1.0803058E3,4.785686E2,5.5439874E2,3.7735364E2,0E0,1.4490725E3,7.310991E2,3.5339594E2,6.8903284E2,1.2903165E2,0E0,3.057107E2,4.062929E2,1.9447421E2,4.2696378E2,1.5498059E2,0E0,0E0,3.9001996E2,0E0,3.087265E0,0E0,0E0,1.6721313E1,0E0,2.1349182E0,2.887661E2,0E0,4.4802917E2,3.1126276E2,1.5180188E2,0E0,0E0,0E0,0E0,0E0,0E0,0E0,0E0,0E0,2.419462E2,5.5190994E1,5.1913135E2,0E0,0E0,1.0258569E2,0E0,0E0,0E0,0E0,0E0,1.2375134E2,1.1682659E2,0E0,8.124768E1,0E0,0E0,0E0,0E0,0E0,0E0],"parents":[2147483647,0,0,1,1,2,2,3,3,4,4,5,5,7,7,8,8,9,9,10,10,11,11,13,13,14,14,15,15,16,16,17,17,20,20,22,22,25,25,27,27,28,28,30,30,31,31,32,32,42,42,43,43,44,44,47,47,53,53,54,54,56,56],"right_children":[2,4,6,8,10,12,-1,14,16,18,20,22,-1,24,26,28,30,32,-1,-1,34,-1,36,-1,-1,38,-1,40,42,-1,44,46,48,-1,-1,-1,-1,-1,-1,-1,-1,-1,50,52,54,-1,-1,56,-1,-1,-1,-1,-1,58,60,-1,62,-1,-1,-1,-1,-1,-1],"split_conditions":[1.812883E0,4.726516E1,8.263E4,4E0,6.47658E4,5.2391365E1,4.2707244E-1,2.118E3,4.313246E1,2.6E0,-9.047619E-1,2.7696E4,2.049945E-1,5.227561E2,1.5260116E0,6.233747E2,-9.506173E-1,2E0,1.3916226E-1,2.914291E-1,5.7E1,5.838326E-2,2.2184737E0,1.18789844E-1,4.846745E-1,3.930226E1,1.5565258E-1,-7.7E1,1.6E1,3.0607605E-1,8.814253E-3,2.0387492E-1,7.3418E4,-1.0470593E-1,1.6393557E-1,-4.460523E-2,-1.2196686E-1,-2.4793286E-2,-1.0732967E-1,-4.9956333E-2,-1.23846486E-1,-1.18285865E-1,5.5924E4,5.0959317E2,6.886114E1,1.6588446E-1,-9.492086E-2,4.2269675E2,4.10244E-2,2.1703877E-1,-3.1843193E-2,-0E0,-1.19773746E-1,4.4392982E1,-3.2E1,2.1687886E-2,-9.659258E-1,3.5128313E-1,1.1171753E-1,9.749639E-2,-5.4499008E-2,-0E0,-1.1364592E-1],"split_indices":[116,124,157,139,138,124,0,47,124,85,78,157,0,54,85,55,82,142,0,0,143,0,116,0,0,133,0,79,143,0,174,174,69,0,0,0,0,0,0,0,0,0,157,55,171,0,0,55,0,0,0,0,0,124,81,0,103,0,0,0,0,0,0],"split_type":[0,0,0,0,0,0,0,0,0,0,0,0,0,0,0,0,0,0,0,0,0,0,0,0,0,0,0,0,0,0,0,0,0,0,0,0,0,0,0,0,0,0,0,0,0,0,0,0,0,0,0,0,0,0,0,0,0,0,0,0,0,0,0],"sum_hessian":[3.23E2,2.95E2,2.8E1,1.34E2,1.61E2,2.2E1,6E0,3.6E1,9.8E1,1.35E2,2.6E1,1.7E1,5E0,1.2E1,2.4E1,5.1E1,4.7E1,1.3E2,5E0,7E0,1.9E1,5E0,1.2E1,5E0,7E0,1.7E1,7E0,3.2E1,1.9E1,5E0,4.2E1,1.3E1,1.17E2,1.4E1,5E0,5E0,7E0,5E0,1.2E1,5E0,2.7E1,8E0,1.1E1,1.4E1,2.8E1,5E0,8E0,1.11E2,6E0,5E0,6E0,5E0,9E0,1.2E1,1.6E1,5E0,1.06E2,5E0,7E0,5E0,1.1E1,6E0,1E2],"tree_param":{"num_deleted":"0","num_feature":"175","num_nodes":"63","size_leaf_vector":"1"}},{"base_weights":[-2.6941794E-1,-5.374166E-1,5.8207545E0,2.5985067E0,-1.0091214E0,-4.7907453E-2,3.5537207E-1,4.723842E-1,3.4361792E-1,2.0277472E0,-1.4509617E0,-2.534742E0,6.9507604E0,7.646907E0,-2.2205274E0,1.6714625E-1,-1.6465919E0,-3.3246746E0,1.463517E-2,5.649629E-2,2.988285E-1,5.9480272E-2,2.9446846E-1,5.191208E-2,-1.08466625E-1,2.838099E-1,-2.4687712E0,-1.2556371E-1,-2.4511145E-2,-1.7945757E0,3.9762132E0,-3.791372E0,-7.6137644E-1,-3.2901984E-1,-1.25185E-1,-8.1108963E-1,8.57315E0,-1.399298E0,-4.0686517E0,-1.4570937E0,1.9323874E-1,-4.956233E-2,1.19720206E-1,3.1438805E-2,-7.016675E-2,5.4017823E-2,3.563998E-1,3.8206395E-2,-1.0352137E-1,-3.7276864E-2,-1.263462E-1,-8.6589724E-2,5.2646816E-2],"categories":[],"categories_nodes":[],"categories_segments":[],"categories_sizes":[],"default_left":[0,0,0,0,0,0,0,0,0,0,0,0,0,0,0,0,0,0,0,0,0,0,0,0,0,0,0,0,0,0,0,0,0,0,0,0,0,0,0,0,0,0,0,0,0,0,0,0,0,0,0,0,0],"id":4,"left_children":[1,3,5,7,9,-1,-1,11,-1,13,15,17,19,21,23,-1,25,27,-1,-1,-1,-1,-1,-1,-1,29,31,-1,-1,33,35,37,39,41,-1,43,45,47,49,51,-1,-1,-1,-1,-1,-1,-1,-1,-1,-1,-1,-1,-1],"loss_changes":[5.422268E2,4.748449E2,6.686361E2,7.739796E2,3.7861942E2,0E0,0E0,7.387714E2,0E0,8.960559E2,3.5159613E2,6.674074E1,1.3961237E2,1.5172351E2,1.3471167E2,0E0,3.8181946E2,3.5988556E1,0E0,0E0,0E0,0E0,0E0,0E0,0E0,5.755814E2,3.7132812E2,0E0,0E0,1.6230574E2,6.1197534E2,4.8227295E1,3.9711652E2,1.9490306E2,0E0,4.8151497E1,2.6391858E2,8.1158325E1,2.0323486E1,3.3663373E2,0E0,0E0,0E0,0E0,0E0,0E0,0E0,0E0,0E0,0E0,0E0,0E0,0E0],"parents":[2147483647,0,0,1,1,2,2,3,3,4,4,7,7,9,9,10,10,11,11,12,12,13,13,14,14,16,16,17,17,25,25,26,26,29,29,30,30,31,31,32,32,33,33,35,35,36,36,37,37,38,38,39,39],"right_children":[2,4,6,8,10,-1,-1,12,-1,14,16,18,20,22,24,-1,26,28,-1,-1,-1,-1,-1,-1,-1,30,32,-1,-1,34,36,38,40,42,-1,44,46,48,50,52,-1,-1,-1,-1,-1,-1,-1,-1,-1,-1,-1,-1,-1],"split_conditions":[8.800836E2,3.7347713E1,4.7585712E1,4.751038E0,1.7178679E1,-4.7907453E-2,3.5537207E-1,3.546604E1,3.4361792E-1,-1.6585E4,1.3172E4,5.267827E1,1.5E1,5.608569E-1,6.056336E2,1.6714625E-1,3.35E1,1.691535E6,1.463517E-2,5.649629E-2,2.988285E-1,5.9480272E-2,2.9446846E-1,5.191208E-2,-1.08466625E-1,5.3694195E1,2.538E3,-1.2556371E-1,-2.4511145E-2,2.764E3,6.4383675E1,2.9306658E1,1.01062E5,1.591836E6,-1.25185E-1,6.116438E2,2.9633333E1,6E0,3.43E1,9.659258E-1,1.9323874E-1,-4.956233E-2,1.19720206E-1,3.1438805E-2,-7.016675E-2,5.4017823E-2,3.563998E-1,3.8206395E-2,-1.0352137E-1,-3.7276864E-2,-1.263462E-1,-8.6589724E-2,5.2646816E-2],"split_indices":[54,133,113,169,171,0,0,133,0,69,154,118,148,169,55,0,123,48,0,0,0,0,0,0,0,129,47,0,0,47,171,171,157,48,0,55,123,147,123,102,0,0,0,0,0,0,0,0,0,0,0,0,0],"split_type":[0,0,0,0,0,0,0,0,0,0,0,0,0,0,0,0,0,0,0,0,0,0,0,0,0,0,0,0,0,0,0,0,0,0,0,0,0,0,0,0,0,0,0,0,0,0,0,0,0,0,0,0,0],"sum_hessian":[3.28E2,3.16E2,1.2E1,4E1,2.76E2,6E0,6E0,3.4E1,6E0,3.4E1,2.42E2,2.4E1,1E1,1.4E1,2E1,5E0,2.37E2,1.9E1,5E0,5E0,5E0,5E0,9E0,5E0,1.5E1,7.1E1,1.66E2,1.3E1,6E0,4.6E1,2.5E1,9.2E1,7.4E1,3E1,1.6E1,1.3E1,1.2E1,1.1E1,8.1E1,6.9E1,5E0,2.4E1,6E0,6E0,7E0,5E0,7E0,5E0,6E0,5E0,7.6E1,4.8E1,2.1E1],"tree_param":{"num_deleted":"0","num_feature":"175","num_nodes":"53","size_leaf_vector":"1"}},{"base_weights":[-5.2065406E-2,-4.5969015E-1,5.6737437E0,4.7736192E-1,-2.9172993E0,1.87236E-1,3.6510316E-1,-6.679317E-1,3.2816474E0,-3.4121978E0,1.0714408E-1,1.6606972E-1,-1.1876099E-1,2.4032839E-1,-1.2260675E0,-1.8993084E0,5.0255256E0,-3.6809268E0,-0E0,5.10145E0,-1.8853627E0,-1.14370145E-1,6.374078E-2,-2.8494975E-1,7.332012E0,-1.7841368E0,-4.343229E0,-5.804606E-2,3.0833563E-1,-2.2063198E0,1.4452858E-1,-2.3041635E0,9.559635E-2,-6.139931E-2,9.430813E0,-2.934748E0,7.4582202E-3,-1.3851108E-1,-6.495213E-2,-3.7193902E0,-7.093006E-1,-1.02196615E-2,-1.0613731E-1,1.1894366E1,3.7725076E-2,-1.1164798E-1,-2.7022395E-2,-1.6521038E-2,-1.2550418E-1,1.2326644E-1,-4.6479695E-2,4.1792166E-1,1.0437327E-1],"categories":[],"categories_nodes":[],"categories_segments":[],"categories_sizes":[],"default_left":[0,0,0,0,0,0,0,0,0,0,0,0,0,0,0,0,0,0,0,0,0,0,0,0,0,0,0,0,0,0,0,0,0,0,0,0,0,0,0,0,0,0,0,0,0,0,0,0,0,0,0,0,0],"id":5,"left_children":[1,3,5,7,9,11,-1,13,15,17,-1,-1,-1,-1,19,21,23,25,-1,27,29,-1,-1,31,33,35,37,-1,-1,39,-1,41,-1,-1,43,45,-1,-1,-1,47,49,-1,-1,51,-1,-1,-1,-1,-1,-1,-1,-1,-1],"loss_changes":[7.728232E2,7.179066E2,7.733955E2,7.315417E2,3.0046375E2,3.5505542E2,0E0,8.009784E2,6.169602E2,7.310095E1,0E0,0E0,0E0,0E0,6.600702E2,1.5560854E2,6.20129E2,7.565704E1,0E0,5.902866E2,3.2329575E2,0E0,0E0,1.3340817E2,7.3123267E2,5.659693E1,8.821899E0,0E0,0E0,3.0056238E2,0E0,2.4719967E1,0E0,0E0,5.474358E2,1.4991241E1,0E0,0E0,0E0,9.1550964E1,2.988163E2,0E0,0E0,2.713645E2,0E0,0E0,0E0,0E0,0E0,0E0,0E0,0E0,0E0],"parents":[2147483647,0,0,1,1,2,2,3,3,4,4,5,5,7,7,8,8,9,9,14,14,15,15,16,16,17,17,19,19,20,20,23,23,24,24,25,25,26,26,29,29,31,31,34,34,35,35,39,39,40,40,43,43],"right_children":[2,4,6,8,10,12,-1,14,16,18,-1,-1,-1,-1,20,22,24,26,-1,28,30,-1,-1,32,34,36,38,-1,-1,40,-1,42,-1,-1,44,46,-1,-1,-1,48,50,-1,-1,52,-1,-1,-1,-1,-1,-1,-1,-1,-1],"split_conditions":[2.1E1,3.9187045E0,1.2E1,2.6659982E0,1.0288279E0,2.3681E4,3.6510316E-1,7.999992E-3,5.0914276E2,1.44E2,1.0714408E-1,1.6606972E-1,-1.1876099E-1,2.4032839E-1,4E0,2.2E1,4.0498676E1,3.2133335E1,-0E0,1.8666666E1,8.3500496E1,-1.14370145E-1,6.374078E-2,7.6055E4,3.6291668E4,2.3E1,9.6498E4,-5.804606E-2,3.0833563E-1,3.637507E6,1.4452858E-1,6E0,9.559635E-2,-6.139931E-2,1.1412167E3,1.9666666E1,7.4582202E-3,-1.3851108E-1,-6.495213E-2,5.0343353E2,3.748047E6,-1.02196615E-2,-1.0613731E-1,3.8E1,3.7725076E-2,-1.1164798E-1,-2.7022395E-2,-1.6521038E-2,-1.2550418E-1,1.2326644E-1,-4.6479695E-2,4.1792166E-1,1.0437327E-1],"split_indices":[74,169,141,169,174,155,0,162,54,141,0,0,0,0,57,148,131,112,0,117,127,0,0,155,135,143,5,0,0,49,0,141,0,0,67,117,0,0,0,55,49,0,0,143,0,0,0,0,0,0,0,0,0],"split_type":[0,0,0,0,0,0,0,0,0,0,0,0,0,0,0,0,0,0,0,0,0,0,0,0,0,0,0,0,0,0,0,0,0,0,0,0,0,0,0,0,0,0,0,0,0,0,0,0,0,0,0,0,0],"sum_hessian":[3.28E2,3.08E2,2E1,2.24E2,8.4E1,1.2E1,8E0,1.6E2,6.4E1,7.9E1,5E0,5E0,7E0,8E0,1.52E2,1.6E1,4.8E1,7.3E1,6E0,1.3E1,1.39E2,1.1E1,5E0,1.5E1,3.3E1,2.1E1,5.2E1,6E0,7E0,1.34E2,5E0,1E1,5E0,6E0,2.7E1,1.3E1,8E0,4.4E1,8E0,6.5E1,6.9E1,5E0,5E0,2E1,7E0,8E0,5E0,9E0,5.6E1,9E0,6E1,1.5E1,5E0],"tree_param":{"num_deleted":"0","num_feature":"175","num_nodes":"53","size_leaf_vector":"1"}},{"base_weights":[9.041389E-3,-2.959266E-1,6.0795355E0,-2.0892272E0,9.752799E-1,3.008825E-1,-3.686199E-2,-2.4391654E0,1.0596494E-1,6.3342667E0,3.63116E-2,-2.8869572E0,1.2639965E0,1.5821486E0,4.0713677E-1,-2.6369026E0,1.2624227E0,6.893919E-1,-3.2790642E0,-4.4686086E-2,1.3543619E-1,-1.4544015E0,1.7411809E-1,-3.3762712E0,2.3938583E-2,4.9092927E0,-2.517591E-1,9.632727E-2,-5.8729965E-2,-3.4986453E0,-0E0,-1.0522521E-1,2.8284563E-2,-1.1922785E-1,-0E0,1.055662E1,-9.5399064E-1,-2.444855E0,1.3565894E0,-1.4150046E0,-3.93826E0,1.0711808E-1,4.1952327E-1,-1.11132756E-1,1.1886541E-1,6.187878E-2,-3.41495E0,6.628617E0,-5.1419646E-1,-1.0485659E-1,2.0637566E-2,-4.3421995E-2,-1.2839246E-1,-3.8850516E-2,-1.192335E-1,6.125605E-2,2.7750137E-1,-7.599389E-2,1.1207842E-1],"categories":[],"categories_nodes":[],"categories_segments":[],"categories_sizes":[],"default_left":[0,0,0,0,0,0,0,0,0,0,0,0,0,0,0,0,0,0,0,0,0,0,0,0,0,0,0,0,0,0,0,0,0,0,0,0,0,0,0,0,0,0,0,0,0,0,0,0,0,0,0,0,0,0,0,0,0,0,0],"id":6,"left_children":[1,3,5,7,9,-1,-1,11,-1,13,15,17,19,21,-1,23,25,27,29,-1,-1,31,-1,33,-1,35,37,-1,-1,39,-1,-1,-1,-1,-1,41,43,45,47,49,51,-1,-1,-1,-1,-1,53,55,57,-1,-1,-1,-1,-1,-1,-1,-1,-1,-1],"loss_changes":[5.8039496E2,6.816898E2,4.6204913E2,2.606098E2,8.769405E2,0E0,0E0,2.037826E2,0E0,8.436428E2,5.0089682E2,1.5446106E2,1.4026834E2,2.4981134E2,0E0,1.2857935E2,5.846132E2,9.3293594E1,6.9429565E1,0E0,0E0,6.6957184E1,0E0,8.1053406E1,0E0,1.0514114E3,2.7524942E2,0E0,0E0,6.861792E1,0E0,0E0,0E0,0E0,0E0,2.744712E2,2.5909363E2,1.5906229E2,4.5370154E2,8.9328636E1,4.684131E1,0E0,0E0,0E0,0E0,0E0,2.0282135E1,1.00865295E2,3.1865237E2,0E0,0E0,0E0,0E0,0E0,0E0,0E0,0E0,0E0,0E0],"parents":[2147483647,0,0,1,1,2,2,3,3,4,4,7,7,9,9,10,10,11,11,12,12,13,13,15,15,16,16,17,17,18,18,21,21,23,23,25,25,26,26,29,29,35,35,36,36,37,37,38,38,39,39,40,40,46,46,47,47,48,48],"right_children":[2,4,6,8,10,-1,-1,12,-1,14,16,18,20,22,-1,24,26,28,30,-1,-1,32,-1,34,-1,36,38,-1,-1,40,-1,-1,-1,-1,-1,42,44,46,48,50,52,-1,-1,-1,-1,-1,54,56,58,-1,-1,-1,-1,-1,-1,-1,-1,-1,-1],"split_conditions":[1.3E1,5.549459E2,4.6908E4,1.01882E5,1.5999984E-2,3.008825E-1,-3.686199E-2,1.492865E2,1.0596494E-1,1.65915E6,4.2499E4,1.826E3,5.92713E4,1.1038064E2,4.0713677E-1,6.4859927E-1,1.513496E6,1.68E-1,6.65E2,-4.4686086E-2,1.3543619E-1,6.5844E4,1.7411809E-1,2.946E3,2.3938583E-2,2.648E3,2.371E3,9.632727E-2,-5.8729965E-2,8.9E1,-0E0,-1.0522521E-1,2.8284563E-2,-1.1922785E-1,-0E0,8.368784E0,7.7279E4,3.916388E1,6.218282E2,1.3E1,2.3999993E-2,1.0711808E-1,4.1952327E-1,-1.11132756E-1,1.1886541E-1,6.187878E-2,9.055815E-1,1.325495E6,8.8911E4,-1.0485659E-1,2.0637566E-2,-4.3421995E-2,-1.2839246E-1,-3.8850516E-2,-1.192335E-1,6.125605E-2,2.7750137E-1,-7.599389E-2,1.1207842E-1],"split_indices":[75,54,158,5,159,0,0,56,0,48,155,47,138,56,0,116,6,160,58,0,0,158,0,47,0,47,47,0,0,58,0,0,0,0,0,67,5,122,54,58,162,0,0,0,0,0,88,48,158,0,0,0,0,0,0,0,0,0,0],"split_type":[0,0,0,0,0,0,0,0,0,0,0,0,0,0,0,0,0,0,0,0,0,0,0,0,0,0,0,0,0,0,0,0,0,0,0,0,0,0,0,0,0,0,0,0,0,0,0,0,0,0,0,0,0,0,0,0,0,0,0],"sum_hessian":[3.08E2,2.95E2,1.3E1,1.22E2,1.73E2,8E0,5E0,1.16E2,6E0,2.4E1,1.49E2,1.04E2,1.2E1,1.6E1,8E0,4.6E1,1.03E2,1E1,9.4E1,7E0,5E0,1E1,6E0,3.8E1,8E0,2.9E1,7.4E1,5E0,5E0,8.8E1,6E0,5E0,5E0,3.2E1,6E0,1.4E1,1.5E1,3.1E1,4.3E1,1.7E1,7.1E1,6E0,8E0,1E1,5E0,5E0,2.6E1,1E1,3.3E1,8E0,9E0,1E1,6.1E1,7E0,1.9E1,5E0,5E0,2.3E1,1E1],"tree_param":{"num_deleted":"0","num_feature":"175","num_nodes":"59","size_leaf_vector":"1"}},{"base_weights":[2.3728894E-1,-5.987127E-1,2.1544383E0,9.329195E-1,-1.7597446E0,9.283161E-1,7.193025E0,5.823159E0,-2.9140928E-1,-2.0716493E0,1.0356637E-1,5.299765E0,-2.8445238E-1,3.9267114E-1,1.4392075E-2,9.995193E0,-4.3247752E-2,2.0001237E-1,-1.0325438E0,5.8532214E-1,-2.6932433E0,-2.1729784E-2,3.462112E-1,-3.1190336E0,1.3651624E0,3.7427342E-1,1.2699114E-1,1.4749883E-1,-1.6051025E0,-1.0143616E0,1.5180123E-1,-2.9607959E0,5.022365E-2,-1.4428156E-2,-1.1625526E-1,2.8284448E-1,-7.125378E-1,1.3990259E-1,-2.2384787E0,-2.7416134E0,4.9512472E-2,-3.7807224E0,-9.815488E-1,8.74368E-2,-1.9748915E0,-3.4750638E0,-2.2216915E-1,-2.42605E-2,-1.1055071E-1,-2.2457674E-2,-4.101185E0,1.4465666E0,-2.923695E0,1.7598137E-2,-3.0831504E0,9.277175E-3,-1.2142905E-1,1.2964499E-1,-9.005844E-2,-1.2902306E-1,-3.869493E-2,1.0455867E-1,-3.438413E-2,-1.061539E-1,-2.6256371E-2,-1.0883606E-1,-2.8907033E-2],"categories":[],"categories_nodes":[],"categories_segments":[],"categories_sizes":[],"default_left":[0,0,0,0,0,0,0,0,0,0,0,0,0,0,0,0,0,0,0,0,0,0,0,0,0,0,0,0,0,0,0,0,0,0,0,0,0,0,0,0,0,0,0,0,0,0,0,0,0,0,0,0,0,0,0,0,0,0,0,0,0,0,0,0,0,0,0],"id":7,"left_children":[1,3,5,7,9,11,13,15,17,19,-1,21,23,-1,-1,25,-1,-1,27,29,31,-1,-1,33,35,-1,-1,-1,37,39,-1,41,-1,-1,-1,-1,43,-1,45,47,-1,49,51,-1,53,55,57,-1,-1,-1,59,61,63,-1,65,-1,-1,-1,-1,-1,-1,-1,-1,-1,-1,-1,-1],"loss_changes":[5.226454E2,4.0736505E2,5.941989E2,5.988986E2,2.2494553E2,4.402503E2,7.3270825E2,6.3927057E2,4.2868207E2,2.0899994E2,0E0,6.9881793E2,3.1800674E2,0E0,0E0,7.1840576E1,0E0,0E0,2.6959644E2,1.9124165E2,1.2857532E2,0E0,0E0,4.396382E1,7.3814984E2,0E0,0E0,0E0,2.9758875E2,1.0165003E2,0E0,1.4598932E2,0E0,0E0,0E0,0E0,1.7587454E2,0E0,1.5867429E2,1.5499214E1,0E0,5.653778E1,1.553856E2,0E0,8.435188E1,9.104382E1,3.6630676E2,0E0,0E0,0E0,1.9776306E1,8.844589E1,1.4267517E1,0E0,1.3804398E1,0E0,0E0,0E0,0E0,0E0,0E0,0E0,0E0,0E0,0E0,0E0,0E0],"parents":[2147483647,0,0,1,1,2,2,3,3,4,4,5,5,6,6,7,7,8,8,9,9,11,11,12,12,15,15,18,18,19,19,20,20,23,23,24,24,28,28,29,29,31,31,36,36,38,38,39,39,41,41,42,42,44,44,45,45,46,46,50,50,51,51,52,52,54,54],"right_children":[2,4,6,8,10,12,14,16,18,20,-1,22,24,-1,-1,26,-1,-1,28,30,32,-1,-1,34,36,-1,-1,-1,38,40,-1,42,-1,-1,-1,-1,44,-1,46,48,-1,50,52,-1,54,56,58,-1,-1,-1,60,62,64,-1,66,-1,-1,-1,-1,-1,-1,-1,-1,-1,-1,-1,-1],"split_conditions":[6.721117E2,6E0,7.968061E1,1.7178679E1,9E1,2.3999989E-2,5.558512E1,7.7311E4,2.5166666E1,2E0,1.0356637E-1,2E0,1.3E1,3.9267114E-1,1.4392075E-2,3.3666668E1,-4.3247752E-2,2.0001237E-1,-9.6875E-1,6E0,1.0556E5,-2.1729784E-2,3.462112E-1,8.749387E1,3E1,3.7427342E-1,1.2699114E-1,1.4749883E-1,9.71826E5,3.2166668E1,1.5180123E-1,5.1E1,5.022365E-2,-1.4428156E-2,-1.1625526E-1,2.8284448E-1,2.5570559E1,1.3990259E-1,-1.718799E-1,-2.2E1,4.9512472E-2,7.9999985E-3,4.9746494E1,8.74368E-2,1.8009256E1,3.7083668E4,2.8148417E1,-2.42605E-2,-1.1055071E-1,-2.2457674E-2,6.611807E1,1E0,5.7E1,1.7598137E-2,5.7166668E1,9.277175E-3,-1.2142905E-1,1.2964499E-1,-9.005844E-2,-1.2902306E-1,-3.869493E-2,1.0455867E-1,-3.438413E-2,-1.061539E-1,-2.6256371E-2,-1.0883606E-1,-2.8907033E-2],"split_indices":[54,57,109,171,167,163,115,157,132,167,0,143,168,0,0,108,0,0,82,78,157,0,0,56,143,0,0,0,48,132,0,142,0,0,0,0,67,0,134,77,0,163,115,0,109,135,118,0,0,0,129,75,143,0,110,0,0,0,0,0,0,0,0,0,0,0,0],"split_type":[0,0,0,0,0,0,0,0,0,0,0,0,0,0,0,0,0,0,0,0,0,0,0,0,0,0,0,0,0,0,0,0,0,0,0,0,0,0,0,0,0,0,0,0,0,0,0,0,0,0,0,0,0,0,0,0,0,0,0,0,0,0,0,0,0,0,0],"sum_hessian":[3.22E2,2.25E2,9.7E1,9.7E1,1.28E2,8E1,1.7E1,1.8E1,7.9E1,1.22E2,6E0,1.6E1,6.4E1,8E0,9E0,1.1E1,7E0,6E0,7.3E1,2.3E1,9.9E1,9E0,7E0,2.3E1,4.1E1,6E0,5E0,5E0,6.8E1,1.8E1,5E0,9.4E1,5E0,6E0,1.7E1,7E0,3.4E1,5E0,6.3E1,1.1E1,7E0,6.5E1,2.9E1,8E0,2.6E1,3.8E1,2.5E1,5E0,6E0,7E0,5.8E1,1.3E1,1.6E1,8E0,1.8E1,5E0,3.3E1,9E0,1.6E1,5.3E1,5E0,7E0,6E0,1.1E1,5E0,1.3E1,5E0],"tree_param":{"num_deleted":"0","num_feature":"175","num_nodes":"67","size_leaf_vector":"1"}},{"base_weights":[-3.1894994E-1,-1.7638335E0,8.5071933E-1,-2.5128036E0,7.9241073E-1,6.0112724E0,-2.8344449E-2,-2.802599E0,7.69033E-2,1.8227899E-1,-1.2814499E0,-4.7670695E-1,3.7833157E-1,-1.51894E0,2.625517E0,1.11362584E-1,-3.213282E0,-2.7279692E0,1.0058422E-1,9.203388E-2,-8.737552E-2,-2.2901473E0,2.7849174E0,3.0301493E-1,1.3144993E0,9.787096E-2,-7.976161E-2,2.3185825E-2,-3.4602084E0,-0E0,-1.1401508E-1,7.411862E-2,-2.8481908E0,-1.5682403E-2,2.177524E-1,-3.2786867E-1,2.1727522E-1,-3.7624826E0,-8.518687E-1,4.3009847E-2,-3.3177724E0,3.8252115E0,-1.9304888E0,-4.0270147E0,1.127008E-3,4.6673596E-2,-9.262684E-2,-3.5617628E0,-1.3302202E-2,-1.9528258E-3,2.0082085E-1,7.8732654E-2,-3.253621E0,-1.2724097E-1,-3.4073368E-2,-1.1252377E-1,-2.557301E-2,-1.1356137E-1,-2.1998342E-2],"categories":[],"categories_nodes":[],"categories_segments":[],"categories_sizes":[],"default_left":[0,0,0,0,0,0,0,0,0,0,0,0,0,0,0,0,0,0,0,0,0,0,0,0,0,0,0,0,0,0,0,0,0,0,0,0,0,0,0,0,0,0,0,0,0,0,0,0,0,0,0,0,0,0,0,0,0,0,0],"id":8,"left_children":[1,3,5,7,9,11,13,15,-1,-1,17,19,-1,21,23,25,27,29,-1,-1,-1,31,33,-1,35,-1,-1,-1,37,-1,-1,-1,39,-1,-1,41,-1,43,45,-1,47,49,51,53,-1,-1,-1,55,-1,-1,-1,-1,57,-1,-1,-1,-1,-1,-1],"loss_changes":[5.442691E2,2.8053778E2,8.108212E2,1.7924841E2,3.9051953E2,1.1313909E3,6.1662115E2,1.3031519E2,0E0,0E0,1.9227238E2,1.4729845E2,0E0,3.4442505E2,5.1652893E2,1.4857735E2,9.921484E1,6.0379196E1,0E0,0E0,0E0,2.4273993E2,2.4770563E2,0E0,4.9500504E2,0E0,0E0,0E0,6.1453125E1,0E0,0E0,0E0,1.6728809E2,0E0,0E0,2.8670993E2,0E0,8.1710815E1,7.496639E1,0E0,4.4632324E1,1.3811284E2,2.0422157E2,3.353772E1,0E0,0E0,0E0,2.459314E1,0E0,0E0,0E0,0E0,2.5694519E1,0E0,0E0,0E0,0E0,0E0,0E0],"parents":[2147483647,0,0,1,1,2,2,3,3,4,4,5,5,6,6,7,7,10,10,11,11,13,13,14,14,15,15,16,16,17,17,21,21,22,22,24,24,28,28,32,32,35,35,37,37,38,38,40,40,41,41,42,42,43,43,47,47,52,52],"right_children":[2,4,6,8,10,12,14,16,-1,-1,18,20,-1,22,24,26,28,30,-1,-1,-1,32,34,-1,36,-1,-1,-1,38,-1,-1,-1,40,-1,-1,42,-1,44,46,-1,48,50,52,54,-1,-1,-1,56,-1,-1,-1,-1,58,-1,-1,-1,-1,-1,-1],"split_conditions":[5.625038E2,8.3256E4,1.5999984E-2,1.94E2,2.1835518E1,1.3076923E0,6.24788E4,2E0,7.69033E-2,1.8227899E-1,7.664E4,1.1E1,3.7833157E-1,5.96E2,-9.506173E-1,4E0,2.12E1,9.3901E4,1.0058422E-1,9.203388E-2,-8.737552E-2,1.4933888E2,5.3008E4,3.0301493E-1,6.5666664E1,9.787096E-2,-7.976161E-2,2.3185825E-2,5.317246E1,-0E0,-1.1401508E-1,7.411862E-2,1.55E4,-1.5682403E-2,2.177524E-1,9E0,2.1727522E-1,1.5556412E3,5.137954E1,4.3009847E-2,8.9E1,3.2266666E1,2.9666666E1,1.0499E5,1.127008E-3,4.6673596E-2,-9.262684E-2,1.23E2,-1.3302202E-2,-1.9528258E-3,2.0082085E-1,7.8732654E-2,2E0,-1.2724097E-1,-3.4073368E-2,-1.1252377E-1,-2.557301E-2,-1.1356137E-1,-2.1998342E-2],"split_indices":[54,154,159,139,171,85,137,140,0,0,158,140,0,58,82,0,132,154,0,0,0,172,135,0,108,0,0,0,133,0,0,0,157,0,0,141,0,67,87,0,164,121,121,158,0,0,0,143,0,0,0,0,74,0,0,0,0,0,0],"split_type":[0,0,0,0,0,0,0,0,0,0,0,0,0,0,0,0,0,0,0,0,0,0,0,0,0,0,0,0,0,0,0,0,0,0,0,0,0,0,0,0,0,0,0,0,0,0,0,0,0,0,0,0,0,0,0,0,0,0,0],"sum_hessian":[3.18E2,1.42E2,1.76E2,1.1E2,3.2E1,2.4E1,1.52E2,1.05E2,5E0,8E0,2.4E1,1.3E1,1.1E1,9.8E1,5.4E1,1.3E1,9.2E1,1.9E1,5E0,5E0,8E0,8.4E1,1.4E1,6E0,4.8E1,6E0,7E0,5E0,8.7E1,6E0,1.3E1,8E0,7.6E1,9E0,5E0,3.9E1,9E0,7.7E1,1E1,7E0,6.9E1,1E1,2.9E1,7.2E1,5E0,5E0,5E0,6.3E1,6E0,5E0,5E0,6E0,2.3E1,6.6E1,6E0,5.8E1,5E0,1.8E1,5E0],"tree_param":{"num_deleted":"0","num_feature":"175","num_nodes":"59","size_leaf_vector":"1"}},{"base_weights":[-0E0,4.176873E-1,-2.6980693E0,-5.396987E-1,2.1508348E0,8.3037734E-2,-3.5536032E0,1.7922236E-1,-8.275804E-1,1.970718E-2,5.725907E0,-1.1035106E-2,-3.9857547E0,-1.202376E0,4.104791E0,2.4727302E0,-3.2633035E0,8.205604E0,-9.727031E-1,-5.4075133E-2,-1.2920961E-1,1.6801854E0,-1.962581E0,2.3596755E-1,-3.8838826E-2,1.04050174E-1,2.7813274E-1,-2.5877286E-2,-1.269712E-1,-2.1431841E-2,1.0726003E1,-9.5410936E-2,4.324335E-2,2.0581812E-1,-5.362951E-1,-3.4248612E0,-5.2064306E-1,1.9384727E-1,-1.5963645E0,6.6535845E0,4.5222765E-1,-2.6617918E0,1.0678222E-1,-4.1589136E-3,-3.801579E0,-2.248141E0,1.9158969E0,-3.8170832E-1,-1.0240418E-1,3.0762288E-1,-9.587956E-3,-1.1044375E-1,-8.30656E-3,-2.9923214E-2,-1.2215867E-1,-1.1826086E-1,-1.4529541E-2,-3.8107855E-3,2.2884576E-1,-5.407614E-2,5.3473897E-2],"categories":[],"categories_nodes":[],"categories_segments":[],"categories_sizes":[],"default_left":[0,0,0,0,0,0,0,0,0,0,0,0,0,0,0,0,0,0,0,0,0,0,0,0,0,0,0,0,0,0,0,0,0,0,0,0,0,0,0,0,0,0,0,0,0,0,0,0,0,0,0,0,0,0,0,0,0,0,0,0,0],"id":9,"left_children":[1,3,5,7,9,-1,11,-1,13,15,17,-1,19,21,23,25,27,29,31,-1,-1,33,35,-1,-1,37,-1,-1,-1,-1,39,-1,-1,-1,41,43,45,-1,47,49,-1,51,-1,-1,53,55,57,59,-1,-1,-1,-1,-1,-1,-1,-1,-1,-1,-1,-1,-1],"loss_changes":[3.700233E2,4.7602515E2,2.2582413E2,3.542263E2,7.7403284E2,0E0,4.858371E1,0E0,3.3932486E2,5.4726105E2,6.507794E2,0E0,5.263672E0,3.7488086E2,2.876308E2,6.214057E2,5.7618744E1,6.4982556E2,7.399356E1,0E0,0E0,4.2388348E2,2.7700238E2,0E0,0E0,3.5818597E2,0E0,0E0,0E0,0E0,1.7811426E2,0E0,0E0,0E0,2.5354587E2,7.868262E1,3.0341876E2,0E0,5.2882713E1,3.88127E2,0E0,4.2186523E1,0E0,0E0,3.4074463E1,1.1945259E2,3.5578195E2,6.1784496E1,0E0,0E0,0E0,0E0,0E0,0E0,0E0,0E0,0E0,0E0,0E0,0E0,0E0],"parents":[2147483647,0,0,1,1,2,2,3,3,4,4,6,6,8,8,9,9,10,10,12,12,13,13,14,14,15,15,16,16,17,17,18,18,21,21,22,22,25,25,30,30,34,34,35,35,36,36,38,38,39,39,41,41,44,44,45,45,46,46,47,47],"right_children":[2,4,6,8,10,-1,12,-1,14,16,18,-1,20,22,24,26,28,30,32,-1,-1,34,36,-1,-1,38,-1,-1,-1,-1,40,-1,-1,-1,42,44,46,-1,48,50,-1,52,-1,-1,54,56,58,60,-1,-1,-1,-1,-1,-1,-1,-1,-1,-1,-1,-1,-1],"split_conditions":[1.1807991E3,7.211169E1,4E0,1.5146E4,1.3414634E0,8.3037734E-2,1.0016653E1,1.7922236E-1,6.473227E1,1.5734549E2,1.3542801E2,-1.1035106E-2,-7.826087E-1,1.0781677E1,-9.281E3,8.4073E4,5E0,4.5340652E1,5.042355E1,-5.4075133E-2,-1.2920961E-1,-8.5E2,-3.382322E-1,2.3596755E-1,-3.8838826E-2,8.947368E-1,2.7813274E-1,-2.5877286E-2,-1.269712E-1,-2.1431841E-2,6.02314E4,-9.5410936E-2,4.324335E-2,2.0581812E-1,6.2663133E4,3.0133333E1,1.4E1,1.9384727E-1,3.77E1,5.7297934E4,4.5222765E-1,1.0480293E2,1.0678222E-1,-4.1589136E-3,2.4E1,3.999998E-2,4.29E2,3.4202163E0,-1.0240418E-1,3.0762288E-1,-9.587956E-3,-1.1044375E-1,-8.30656E-3,-2.9923214E-2,-1.2215867E-1,-1.1826086E-1,-1.4529541E-2,-3.8107855E-3,2.2884576E-1,-5.407614E-2,5.3473897E-2],"split_indices":[172,86,57,157,85,0,118,0,122,86,56,0,84,67,69,157,57,115,115,0,0,69,116,0,0,85,0,0,0,0,137,0,0,0,137,123,167,0,123,137,0,56,0,0,58,161,58,169,0,0,0,0,0,0,0,0,0,0,0,0,0],"split_type":[0,0,0,0,0,0,0,0,0,0,0,0,0,0,0,0,0,0,0,0,0,0,0,0,0,0,0,0,0,0,0,0,0,0,0,0,0,0,0,0,0,0,0,0,0,0,0,0,0,0,0,0,0,0,0,0,0,0,0,0,0],"sum_hessian":[3.25E2,2.83E2,4.2E1,1.83E2,1E2,5E0,3.7E1,6E0,1.77E2,6.4E1,3.6E1,5E0,3.2E1,1.66E2,1.1E1,3.7E1,2.7E1,2.6E1,1E1,6E0,2.6E1,3.4E1,1.32E2,6E0,5E0,2.9E1,8E0,9E0,1.8E1,6E0,2E1,5E0,5E0,9E0,2.5E1,6.4E1,6.8E1,5E0,2.4E1,1.3E1,7E0,1.7E1,8E0,7E0,5.7E1,4E1,2.8E1,1.6E1,8E0,8E0,5E0,1.1E1,6E0,6E0,5.1E1,1.9E1,2.1E1,2.2E1,6E0,1E1,6E0],"tree_param":{"num_deleted":"0","num_feature":"175","num_nodes":"61","size_leaf_vector":"1"}},{"base_weights":[6.401171E-2,2.181443E0,-7.779029E-1,4.2320848E-1,5.8246307E0,-1.5266824E0,2.4517787E0,5.0544953E0,-1.6101966E0,4.4704568E-1,1.9145766E0,3.6394854E0,-2.0578146E0,2.5403088E-1,9.2493737E-1,-1.815215E-2,7.4323316E0,2.4656472E0,-3.279261E0,-8.852415E-1,2.7115467E-1,-6.984618E-2,2.8578144E-1,1.2468149E-1,-2.2857087E0,3.8255882E0,-2.1882396E0,4.848884E-2,2.9901275E-1,-5.862547E-2,2.4439941E-1,-1.1521476E-1,-0E0,1.2443183E-1,-9.932932E-2,7.345317E-2,-2.515089E0,-1.0218916E-1,6.542593E0,3.3502623E-2,-1.04164146E-1,-3.3151119E0,-1.3493608E0,5.4675188E-2,3.223366E-1,-3.6769345E0,-3.4520578E-1,8.8210225E-2,-2.9759526E0,-1.1706308E-1,-1.2461073E-2,6.4791135E-2,-7.539603E-2,-6.644825E-2,8.6798005E-2,-1.11108966E-1,2.4526948E-2],"categories":[],"categories_nodes":[],"categories_segments":[],"categories_sizes":[],"default_left":[0,0,0,0,0,0,0,0,0,0,0,0,0,0,0,0,0,0,0,0,0,0,0,0,0,0,0,0,0,0,0,0,0,0,0,0,0,0,0,0,0,0,0,0,0,0,0,0,0,0,0,0,0,0,0,0,0],"id":10,"left_children":[1,3,5,7,9,11,13,15,17,-1,19,21,23,-1,25,-1,27,29,31,33,-1,-1,-1,-1,35,37,39,-1,-1,-1,-1,-1,-1,-1,-1,-1,41,-1,43,-1,-1,45,47,-1,-1,49,51,53,55,-1,-1,-1,-1,-1,-1,-1,-1],"loss_changes":[6.0129895E2,6.068816E2,5.898386E2,6.4895746E2,1.0347571E3,5.5473987E2,4.0216568E2,2.9501587E2,3.4311444E2,0E0,4.9877496E2,7.154108E2,2.7296222E2,0E0,3.697406E2,0E0,1.8312262E2,4.1157208E2,6.6106964E1,2.5901215E2,0E0,0E0,0E0,0E0,2.0238556E2,4.5877115E2,9.379827E1,0E0,0E0,0E0,0E0,0E0,0E0,0E0,0E0,0E0,1.4539954E2,0E0,2.7189032E2,0E0,0E0,1.0075903E2,1.7032947E2,0E0,0E0,5.8492554E1,8.163053E1,2.7157486E2,1.0135483E2,0E0,0E0,0E0,0E0,0E0,0E0,0E0,0E0],"parents":[2147483647,0,0,1,1,2,2,3,3,4,4,5,5,6,6,7,7,8,8,10,10,11,11,12,12,14,14,16,16,17,17,18,18,19,19,24,24,25,25,26,26,36,36,38,38,41,41,42,42,45,45,46,46,47,47,48,48],"right_children":[2,4,6,8,10,12,14,16,18,-1,20,22,24,-1,26,-1,28,30,32,34,-1,-1,-1,-1,36,38,40,-1,-1,-1,-1,-1,-1,-1,-1,-1,42,-1,44,-1,-1,46,48,-1,-1,50,52,54,56,-1,-1,-1,-1,-1,-1,-1,-1],"split_conditions":[2.198E3,7.211169E1,5E0,2.5547899E2,2.399997E-2,-9.5187163E-1,4.044386E1,9E0,3.31E1,4.4704568E-1,6.846167E1,6.0581133E4,1.2484E4,2.5403088E-1,6.02314E4,-1.815215E-2,7.049013E-1,6.9030336E4,5.7166668E1,4.5945E4,2.7115467E-1,-6.984618E-2,2.8578144E-1,1.2468149E-1,7.999984E-3,2.397E3,3.9666668E1,4.848884E-2,2.9901275E-1,-5.862547E-2,2.4439941E-1,-1.1521476E-1,-0E0,1.2443183E-1,-9.932932E-2,7.345317E-2,1.664E4,-1.0218916E-1,5.9724854E2,3.3502623E-2,-1.04164146E-1,7.0333336E1,1.8876793E1,5.4675188E-2,3.223366E-1,2.2083333E0,8.0333336E1,-5.977581E-1,6.742107E4,-1.1706308E-1,-1.2461073E-2,6.4791135E-2,-7.539603E-2,-6.644825E-2,8.6798005E-2,-1.11108966E-1,2.4526948E-2],"split_indices":[47,86,74,172,159,80,133,140,123,0,127,137,5,0,137,0,169,135,119,5,0,0,0,0,162,47,117,0,0,0,0,0,0,0,0,0,69,0,55,0,0,117,127,0,0,85,117,116,137,0,0,0,0,0,0,0,0],"split_type":[0,0,0,0,0,0,0,0,0,0,0,0,0,0,0,0,0,0,0,0,0,0,0,0,0,0,0,0,0,0,0,0,0,0,0,0,0,0,0,0,0,0,0,0,0,0,0,0,0,0,0,0,0,0,0,0,0],"sum_hessian":[3.33E2,9.4E1,2.39E2,6.5E1,2.9E1,1.95E2,4.4E1,1.9E1,4.6E1,7E0,2.2E1,1.7E1,1.78E2,7E0,3.7E1,6E0,1.3E1,1.3E1,3.3E1,1.7E1,5E0,9E0,8E0,5E0,1.73E2,1.9E1,1.8E1,5E0,8E0,8E0,5E0,2.8E1,5E0,5E0,1.2E1,7E0,1.66E2,5E0,1.4E1,5E0,1.3E1,9.6E1,7E1,8E0,6E0,8.5E1,1.1E1,3.8E1,3.2E1,7.9E1,6E0,5E0,6E0,2.1E1,1.7E1,2.7E1,5E0],"tree_param":{"num_deleted":"0","num_feature":"175","num_nodes":"57","size_leaf_vector":"1"}},{"base_weights":[3.446695E-2,-3.8922796E-1,6.2207813E0,-2.057784E0,6.903361E-1,8.6486584E-1,3.406117E-1,1.1728698E0,-2.852624E0,5.954323E0,-4.8197974E-2,1.5054117E-1,-1.03919506E-1,-1.0273838E-1,4.9817305E0,3.7862834E-2,-3.2754703E0,8.643831E0,-6.6214435E-2,-6.1160713E-1,6.8668814E0,8.809167E-3,2.2396252E-1,-3.5246618E0,-0E0,1.1096894E1,5.6924578E-2,-1.016036E0,2.3260841E-1,1.9087516E-2,3.319235E-1,-1.6806775E0,-3.931684E0,4.063011E-1,1.6225348E-1,1.8120393E0,-2.1932435E0,2.4197437E-2,-9.301211E-2,-1.23110026E-1,-3.935721E-2,-1.1417153E0,4.758052E0,1.0637733E-1,-2.6960425E0,9.916318E-2,-1.0595326E-1,5.899902E-3,2.7714685E-1,3.364224E-2,-9.235797E-2],"categories":[],"categories_nodes":[],"categories_segments":[],"categories_sizes":[],"default_left":[0,0,0,0,0,0,0,0,0,0,0,0,0,0,0,0,0,0,0,0,0,0,0,0,0,0,0,0,0,0,0,0,0,0,0,0,0,0,0,0,0,0,0,0,0,0,0,0,0,0,0],"id":11,"left_children":[1,3,5,7,9,11,-1,13,15,17,19,-1,-1,-1,21,-1,23,25,-1,27,29,-1,-1,31,-1,33,-1,35,-1,-1,-1,37,39,-1,-1,41,43,-1,-1,-1,-1,45,47,-1,49,-1,-1,-1,-1,-1,-1],"loss_changes":[8.1768134E2,5.277069E2,5.240839E2,3.0283447E2,6.955258E2,2.5128339E2,0E0,4.5516772E2,1.7108472E2,5.242823E2,6.20843E2,0E0,0E0,0E0,1.5474872E2,0E0,6.949603E1,2.3272705E2,0E0,5.1309143E2,2.9388788E2,0E0,0E0,4.3270874E1,0E0,1.1026489E1,0E0,4.8421918E2,0E0,0E0,0E0,6.971045E1,1.4910217E1,0E0,0E0,3.868502E2,3.130303E2,0E0,0E0,0E0,0E0,2.6792755E2,4.4123712E2,0E0,1.4662042E2,0E0,0E0,0E0,0E0,0E0,0E0],"parents":[2147483647,0,0,1,1,2,2,3,3,4,4,5,5,7,7,8,8,9,9,10,10,14,14,16,16,17,17,19,19,20,20,23,23,25,25,27,27,31,31,32,32,35,35,36,36,41,41,42,42,44,44],"right_children":[2,4,6,8,10,12,-1,14,16,18,20,-1,-1,-1,22,-1,24,26,-1,28,30,-1,-1,32,-1,34,-1,36,-1,-1,-1,38,40,-1,-1,42,44,-1,-1,-1,-1,46,48,-1,50,-1,-1,-1,-1,-1,-1],"split_conditions":[2.1E1,5.4726416E2,1.2E1,2.1835518E1,1.5999973E-2,2.3681E4,3.406117E-1,1.2E1,1E0,4.4166668E1,6.85645E4,1.5054117E-1,-1.03919506E-1,-1.0273838E-1,3.6872E4,3.7862834E-2,6.47E2,3.46E1,-6.6214435E-2,8.46E2,2.640707E1,8.809167E-3,2.2396252E-1,3.0766666E1,-0E0,3.047619E0,5.6924578E-2,6.2355664E2,2.3260841E-1,1.9087516E-2,3.319235E-1,8.9E1,6.3755E1,4.063011E-1,1.6225348E-1,-5.6272054E-1,-9.558824E-1,2.4197437E-2,-9.301211E-2,-1.23110026E-1,-3.935721E-2,1.1099315E1,9E0,1.0637733E-1,2.52E1,9.916318E-2,-1.0595326E-1,5.899902E-3,2.7714685E-1,3.364224E-2,-9.235797E-2],"split_indices":[74,54,141,171,159,155,0,165,165,119,138,0,0,0,155,0,58,123,0,58,127,0,0,123,0,73,0,54,0,0,0,58,129,0,0,125,80,0,0,0,0,67,165,0,123,0,0,0,0,0,0],"split_type":[0,0,0,0,0,0,0,0,0,0,0,0,0,0,0,0,0,0,0,0,0,0,0,0,0,0,0,0,0,0,0,0,0,0,0,0,0,0,0,0,0,0,0,0,0,0,0,0,0,0,0],"sum_hessian":[3.07E2,2.89E2,1.8E1,1.13E2,1.76E2,1E1,8E0,2.2E1,9.1E1,2E1,1.56E2,5E0,5E0,1E1,1.2E1,8E0,8.3E1,1.5E1,5E0,1.46E2,1E1,5E0,7E0,7.7E1,6E0,1E1,5E0,1.41E2,5E0,5E0,5E0,1.6E1,6.1E1,5E0,5E0,4.1E1,1E2,6E0,1E1,5.6E1,5E0,2.1E1,2E1,7E0,9.3E1,7E0,1.4E1,1.1E1,9E0,8E0,8.5E1],"tree_param":{"num_deleted":"0","num_feature":"175","num_nodes":"51","size_leaf_vector":"1"}},{"base_weights":[2.296963E-1,-5.9416287E-2,7.060325E0,-2.0638382E0,6.8720716E-1,3.461665E-1,-1.1504582E-4,2.0602381E0,-3.02734E0,2.7887673E0,-2.1707267E-1,-1.4863092E0,2.2868468E-1,2.2681747E-3,-3.4449594E0,8.899441E0,1.0117193E0,5.7200736E-1,-3.2797422E0,-9.958033E-2,2.0998716E-2,-1.0738709E-1,-3.9371267E-2,3.8718462E-2,3.718719E-1,-1.5901098E0,5.081746E0,-6.621889E-1,3.2354085E0,-2.7559124E-2,-1.1153599E-1,-2.9059494E0,8.404246E-2,-5.548267E-2,1.0203235E1,-2.944726E0,9.899015E-1,4.905154E0,-8.615501E-2,-1.1105051E-1,-2.8730711E-2,1.3155322E-1,4.1597652E-1,-9.895195E-1,-1.1586815E-1,-1.8583155E0,3.6835463E0,2.2549417E0,9.125536E0,1.902109E-2,-5.934314E-2,-7.695921E-2,2.4695288E-2,2.797153E-1,3.824801E-2,1.7896155E-1,-1.4580376E-2,3.6389387E-1,1.03276536E-1],"categories":[],"categories_nodes":[],"categories_segments":[],"categories_sizes":[],"default_left":[0,0,0,0,0,0,0,0,0,0,0,0,0,0,0,0,0,0,0,0,0,0,0,0,0,0,0,0,0,0,0,0,0,0,0,0,0,0,0,0,0,0,0,0,0,0,0,0,0,0,0,0,0,0,0,0,0,0,0],"id":12,"left_children":[1,3,5,7,9,-1,-1,11,13,15,17,19,-1,-1,21,23,25,27,29,-1,-1,-1,-1,-1,-1,31,33,35,37,-1,-1,39,-1,-1,41,43,45,47,-1,-1,-1,-1,-1,49,-1,51,53,55,57,-1,-1,-1,-1,-1,-1,-1,-1,-1,-1],"loss_changes":[6.323324E2,4.6296527E2,4.1714044E2,3.4673627E2,4.3008624E2,0E0,0E0,3.6110345E2,9.161926E1,7.154461E2,3.8935986E2,5.404653E1,0E0,0E0,5.669739E0,3.6020044E2,6.0033014E2,4.2632794E2,2.4988098E1,0E0,0E0,0E0,0E0,0E0,0E0,2.1858282E2,8.22871E2,3.424226E2,4.4728946E2,0E0,0E0,3.3988464E1,0E0,0E0,1.462948E2,5.8102203E1,4.2122348E2,3.2225665E2,0E0,0E0,0E0,0E0,0E0,2.7255764E1,0E0,5.6280838E1,3.5131418E2,2.4245175E2,1.1357684E2,0E0,0E0,0E0,0E0,0E0,0E0,0E0,0E0,0E0,0E0],"parents":[2147483647,0,0,1,1,2,2,3,3,4,4,7,7,8,8,9,9,10,10,11,11,14,14,15,15,16,16,17,17,18,18,25,25,26,26,27,27,28,28,31,31,34,34,35,35,36,36,37,37,43,43,45,45,46,46,47,47,48,48],"right_children":[2,4,6,8,10,-1,-1,12,14,16,18,20,-1,-1,22,24,26,28,30,-1,-1,-1,-1,-1,-1,32,34,36,38,-1,-1,40,-1,-1,42,44,46,48,-1,-1,-1,-1,-1,50,-1,52,54,56,58,-1,-1,-1,-1,-1,-1,-1,-1,-1,-1],"split_conditions":[1.82E2,3.8093E4,2.7585409E0,5.0365133E4,6.2059E4,3.461665E-1,-1.1504582E-4,4.1833332E1,2.3999993E-2,3E0,1.700502E6,1E0,2.2868468E-1,2.2681747E-3,8.1333336E1,1.4117647E0,1.9E1,9.1026E4,3.24E1,-9.958033E-2,2.0998716E-2,-1.0738709E-1,-3.9371267E-2,3.8718462E-2,3.718719E-1,6.7492874E1,6.3529E4,1.342303E6,4.5E1,-2.7559124E-2,-1.1153599E-1,1.609275E6,8.404246E-2,-5.548267E-2,4.1333333E-1,5.770609E2,2.1E1,5.344904E1,-8.615501E-2,-1.1105051E-1,-2.8730711E-2,1.3155322E-1,4.1597652E-1,3.8666668E1,-1.1586815E-1,3.2843E4,3E1,4.5056E4,1.4E1,1.902109E-2,-5.934314E-2,-7.695921E-2,2.4695288E-2,2.797153E-1,3.824801E-2,1.7896155E-1,-1.4580376E-2,3.6389387E-1,1.03276536E-1],"split_indices":[0,155,125,138,155,0,0,110,162,151,48,75,0,0,110,85,142,155,114,0,0,0,0,0,0,115,154,48,114,0,0,48,0,0,90,55,153,129,0,0,0,0,0,128,0,69,143,156,151,0,0,0,0,0,0,0,0,0,0],"split_type":[0,0,0,0,0,0,0,0,0,0,0,0,0,0,0,0,0,0,0,0,0,0,0,0,0,0,0,0,0,0,0,0,0,0,0,0,0,0,0,0,0,0,0,0,0,0,0,0,0,0,0,0,0,0,0,0,0,0,0],"sum_hessian":[3.16E2,3.05E2,1.1E1,8.2E1,2.23E2,6E0,5E0,1.5E1,6.7E1,6.6E1,1.57E2,1E1,5E0,8E0,5.9E1,1.3E1,5.3E1,1.26E2,3.1E1,5E0,5E0,5.4E1,5E0,5E0,8E0,3.3E1,2E1,8.7E1,3.9E1,6E0,2.5E1,2.6E1,7E0,9E0,1.1E1,3.6E1,5.1E1,3.1E1,8E0,1.7E1,9E0,6E0,5E0,1.3E1,2.3E1,2.5E1,2.6E1,2.1E1,1E1,5E0,8E0,2E1,5E0,6E0,2E1,8E0,1.3E1,5E0,5E0],"tree_param":{"num_deleted":"0","num_feature":"175","num_nodes":"59","size_leaf_vector":"1"}},{"base_weights":[3.0054557E-1,1.9315436E0,-7.056195E-1,-2.1590802E-1,4.9136634E0,-1.0606009E0,2.0195735E-1,-2.3171535E0,4.071294E0,2.8711385E-1,8.226881E0,-1.4880466E0,2.6110036E0,-2.8809602E0,2.3199355E-2,6.847658E0,-9.3925476E-2,-2.236215E0,2.0295209E-1,1.0900795E1,-2.4598136E-3,-1.8035146E0,9.890994E-2,3.076585E-1,-1.2711275E0,-6.3035274E-3,-3.3005385E0,3.376508E-1,3.0622726E-2,-2.2678688E-2,-1.0478785E-1,7.4071735E-2,4.341919E-1,6.307639E-2,-2.0692456E0,6.340113E-2,-1.03081524E-1,-3.690244E0,-1.6807828E-2,-1.0650381E0,-2.9871297E0,-1.21427745E-1,-5.5851206E-2,-1.9427222E0,2.1285574E0,-3.2958708E0,2.9115975E-2,4.6160392E-2,-7.187376E-2,2.2085285E-1,-3.711714E-2,-3.2078166E-2,-1.1091644E-1],"categories":[],"categories_nodes":[],"categories_segments":[],"categories_sizes":[],"default_left":[0,0,0,0,0,0,0,0,0,0,0,0,0,0,0,0,0,0,0,0,0,0,0,0,0,0,0,0,0,0,0,0,0,0,0,0,0,0,0,0,0,0,0,0,0,0,0,0,0,0,0,0,0],"id":13,"left_children":[1,3,5,7,9,11,-1,13,15,17,19,21,23,25,-1,27,-1,29,-1,31,-1,33,-1,-1,35,-1,37,-1,-1,-1,-1,-1,-1,-1,39,-1,-1,41,-1,43,45,-1,-1,47,49,51,-1,-1,-1,-1,-1,-1,-1],"loss_changes":[5.120653E2,7.6654175E2,5.209999E2,6.575915E2,7.5745715E2,2.991197E2,0E0,9.08884E1,5.246349E2,4.0847906E2,6.514962E2,2.647463E2,6.240855E2,4.392404E1,0E0,4.331482E2,0E0,2.6079247E1,0E0,5.82709E2,0E0,1.7372058E2,0E0,0E0,1.2509234E2,0E0,3.2184174E1,0E0,0E0,0E0,0E0,0E0,0E0,0E0,1.2987299E2,0E0,0E0,2.2305908E0,0E0,2.1840007E2,1.01645996E2,0E0,0E0,1.0244034E2,3.2071497E2,5.4051575E1,0E0,0E0,0E0,0E0,0E0,0E0,0E0],"parents":[2147483647,0,0,1,1,2,2,3,3,4,4,5,5,7,7,8,8,9,9,10,10,11,11,12,12,13,13,15,15,17,17,19,19,21,21,24,24,26,26,34,34,37,37,39,39,40,40,43,43,44,44,45,45],"right_children":[2,4,6,8,10,12,-1,14,16,18,20,22,24,26,-1,28,-1,30,-1,32,-1,34,-1,-1,36,-1,38,-1,-1,-1,-1,-1,-1,-1,40,-1,-1,42,-1,44,46,-1,-1,48,50,52,-1,-1,-1,-1,-1,-1,-1],"split_conditions":[5.1206E4,1.7678799E1,8.443025E7,2.3E1,4.6908E4,6.85645E4,2.0195735E-1,1.530105E2,3.0714285E0,7.900156E-1,3.7E1,2.5751483E2,-9E-1,4.4E1,2.3199355E-2,7.1476E4,-9.3925476E-2,1.3193889E2,2.0295209E-1,3.8093E4,-2.4598136E-3,7E0,9.890994E-2,3.076585E-1,3.9999988E-2,-6.3035274E-3,4.5056E4,3.376508E-1,3.0622726E-2,-2.2678688E-2,-1.0478785E-1,7.4071735E-2,4.341919E-1,6.307639E-2,6.046437E2,6.340113E-2,-1.03081524E-1,4.751038E0,-1.6807828E-2,5.8186145E2,8.9536E4,-1.21427745E-1,-5.5851206E-2,1.7621E4,5.888398E2,3.7850643E1,2.9115975E-2,4.6160392E-2,-7.187376E-2,2.2085285E-1,-3.711714E-2,-3.2078166E-2,-1.1091644E-1],"split_indices":[5,86,70,166,157,138,0,56,84,174,166,86,84,58,0,157,0,86,0,155,0,128,0,0,159,0,5,0,0,0,0,0,0,0,55,0,0,169,0,55,154,0,0,156,55,133,0,0,0,0,0,0,0],"split_type":[0,0,0,0,0,0,0,0,0,0,0,0,0,0,0,0,0,0,0,0,0,0,0,0,0,0,0,0,0,0,0,0,0,0,0,0,0,0,0,0,0,0,0,0,0,0,0,0,0,0,0,0,0],"sum_hessian":[3.08E2,1.17E2,1.91E2,6.9E1,4.8E1,1.84E2,7E0,4.7E1,2.2E1,2.1E1,2.7E1,1.66E2,1.8E1,4E1,7E0,1.6E1,6E0,1.6E1,5E0,2E1,7E0,1.57E2,9E0,5E0,1.3E1,6E0,3.4E1,8E0,8E0,9E0,7E0,7E0,1.3E1,9E0,1.48E2,5E0,8E0,2.9E1,5E0,7.3E1,7.5E1,2.2E1,7E0,5.8E1,1.5E1,7E1,5E0,6E0,5.2E1,5E0,1E1,1.2E1,5.8E1],"tree_param":{"num_deleted":"0","num_feature":"175","num_nodes":"53","size_leaf_vector":"1"}},{"base_weights":[4.3416526E-2,-2.1093708E-1,5.847069E0,1.0298631E0,-1.1641594E0,3.5289824E-1,-2.1866366E-2,-8.066621E-1,3.880104E0,-1.5363942E0,3.8892922E0,3.468773E0,-1.5236892E0,2.1983427E-1,6.6244583E0,3.727316E0,-2.0631726E0,2.3252635E-1,-3.0362748E-2,2.3225963E-1,-5.172275E-2,-2.863409E0,1.0968795E0,-2.8198607E0,2.1200068E-1,1.0177247E1,-2.9824503E-2,2.3499025E-1,-9.394434E-2,9.010239E-2,-2.3286858E0,-3.799531E0,5.6336716E-2,3.3896163E0,-8.910446E-2,-9.749067E-2,-3.4335155E-2,1.19204035E1,1.3559733E-1,-9.1888994E-1,-3.1444514E0,-3.092297E-2,-1.23656474E-1,5.135448E0,-1.5008148E-2,1.6450863E-1,4.2666766E-1,-1.808106E0,1.1620307E-1,-3.3332632E0,-0E0,5.1727477E-2,2.1023841E-1,-8.6468644E-2,1.5594751E-3,-1.2600082E-2,-1.05151E-1],"categories":[],"categories_nodes":[],"categories_segments":[],"categories_sizes":[],"default_left":[0,0,0,0,0,0,0,0,0,0,0,0,0,0,0,0,0,0,0,0,0,0,0,0,0,0,0,0,0,0,0,0,0,0,0,0,0,0,0,0,0,0,0,0,0,0,0,0,0,0,0,0,0,0,0,0,0],"id":14,"left_children":[1,3,5,7,9,-1,-1,11,13,15,17,19,21,23,25,27,29,-1,-1,-1,-1,31,33,35,-1,37,-1,-1,-1,-1,39,41,-1,43,-1,-1,-1,45,-1,47,49,-1,-1,51,-1,-1,-1,53,-1,55,-1,-1,-1,-1,-1,-1,-1],"loss_changes":[4.5699582E2,3.5137875E2,5.2842584E2,6.830521E2,3.2679437E2,0E0,0E0,2.548463E2,5.059641E2,4.5265192E2,2.4618398E2,2.9598746E2,2.5292284E2,5.41474E2,8.097788E2,4.7381006E2,2.0871124E2,0E0,0E0,0E0,0E0,2.2383746E2,2.534607E2,3.326416E0,0E0,8.125391E1,0E0,0E0,0E0,0E0,1.5204822E2,2.4626892E1,0E0,1.2290434E2,0E0,0E0,0E0,4.1599487E1,0E0,2.4309079E2,5.085382E1,0E0,0E0,4.811664E1,0E0,0E0,0E0,9.56243E1,0E0,3.6126892E1,0E0,0E0,0E0,0E0,0E0,0E0,0E0],"parents":[2147483647,0,0,1,1,2,2,3,3,4,4,7,7,8,8,9,9,10,10,11,11,12,12,13,13,14,14,15,15,16,16,21,21,22,22,23,23,25,25,30,30,31,31,33,33,37,37,39,39,40,40,43,43,47,47,49,49],"right_children":[2,4,6,8,10,-1,-1,12,14,16,18,20,22,24,26,28,30,-1,-1,-1,-1,32,34,36,-1,38,-1,-1,-1,-1,40,42,-1,44,-1,-1,-1,46,-1,48,50,-1,-1,52,-1,-1,-1,54,-1,56,-1,-1,-1,-1,-1,-1,-1],"split_conditions":[1.82E2,3.2366665E1,3.0004117E0,7.2774E4,2.4155843E0,3.5289824E-1,-2.1866366E-2,4.4E1,2.4333334E1,-9.5187163E-1,4.5193E4,2.7E1,4.8570812E1,5.7E1,5.0333332E1,5.3209854E1,7.999993E-3,2.3252635E-1,-3.0362748E-2,2.3225963E-1,-5.172275E-2,1.748814E6,9.2717E4,3.0952382E0,2.1200068E-1,7.1906E4,-2.9824503E-2,2.3499025E-1,-9.394434E-2,9.010239E-2,-1.6719614E1,-6.0631316E7,5.6336716E-2,6.540268E1,-8.910446E-2,-9.749067E-2,-3.4335155E-2,-4.108143E1,1.3559733E-1,8.6178E4,9.6E1,-3.092297E-2,-1.23656474E-1,6.584936E-2,-1.5008148E-2,1.6450863E-1,4.2666766E-1,3.244211E-1,1.1620307E-1,4.1657E1,-0E0,5.1727477E-2,2.1023841E-1,-8.6468644E-2,1.5594751E-3,-1.2600082E-2,-1.05151E-1],"split_indices":[0,132,116,158,85,0,0,58,108,80,155,0,113,142,110,124,160,0,0,0,0,48,157,73,0,155,0,0,0,0,87,70,0,171,0,0,0,87,0,157,126,0,0,174,0,0,0,71,0,133,0,0,0,0,0,0,0],"split_type":[0,0,0,0,0,0,0,0,0,0,0,0,0,0,0,0,0,0,0,0,0,0,0,0,0,0,0,0,0,0,0,0,0,0,0,0,0,0,0,0,0,0,0,0,0,0,0,0,0,0,0,0,0,0,0,0,0],"sum_hessian":[3.04E2,2.93E2,1.1E1,1.27E2,1.66E2,5E0,6E0,7.8E1,4.9E1,1.56E2,1E1,1E1,6.8E1,2.2E1,2.7E1,1.3E1,1.43E2,5E0,5E0,5E0,5E0,4.5E1,2.3E1,1.6E1,6E0,1.8E1,9E0,8E0,5E0,6E0,1.37E2,3.8E1,7E0,1.5E1,8E0,1.1E1,5E0,1.2E1,6E0,5.2E1,8.5E1,5E0,3.3E1,1E1,5E0,5E0,7E0,4.5E1,7E0,8E1,5E0,5E0,5E0,2.8E1,1.7E1,5E0,7.5E1],"tree_param":{"num_deleted":"0","num_feature":"175","num_nodes":"57","size_leaf_vector":"1"}},{"base_weights":[4.209405E-1,8.93376E-2,5.8546844E0,1.9627318E0,-6.4639014E-1,-2.2140543E-3,8.872894E0,4.7197967E0,-8.095235E-1,2.477431E-1,-9.3804264E-1,3.4913212E-1,1.0504528E-1,2.3950646E0,3.3005196E-1,-2.239181E0,1.5576887E-1,2.2799938E0,-1.3015019E0,3.6467203E-1,2.3695351E-1,2.8486893E-2,-3.2015631E0,-9.9721E-1,2.8976756E-1,-1.8335459E0,1.077218E0,4.6469994E0,-2.671638E0,-1.8367307E-2,-1.1007453E-1,3.1917196E-2,-1.0933328E-1,-2.1299636E0,1.4627149E0,5.5841856E0,-1.066553E0,2.3737086E-1,-0E0,-2.3508882E-3,-1.1092326E-1,6.85323E-2,-2.3238256E0,1.6084644E-1,-5.5176087E-2,2.4339832E-1,4.1645516E-2,1.17819E0,-2.648041E0,-3.4406517E-2,-9.834522E-2,-4.7521252E-2,1.1025673E-1,-3.071765E-2,-9.4639644E-2],"categories":[],"categories_nodes":[],"categories_segments":[],"categories_sizes":[],"default_left":[0,0,0,0,0,0,0,0,0,0,0,0,0,0,0,0,0,0,0,0,0,0,0,0,0,0,0,0,0,0,0,0,0,0,0,0,0,0,0,0,0,0,0,0,0,0,0,0,0,0,0,0,0,0,0],"id":15,"left_children":[1,3,5,7,9,-1,11,13,15,-1,17,-1,-1,19,-1,21,-1,23,25,27,-1,-1,29,31,-1,33,35,37,39,-1,-1,-1,-1,41,43,45,47,-1,-1,-1,-1,-1,49,-1,-1,-1,-1,51,53,-1,-1,-1,-1,-1,-1],"loss_changes":[5.635632E2,4.1530966E2,3.2779065E2,6.592761E2,5.7278876E2,0E0,8.9143555E1,5.685659E2,3.9932047E2,0E0,2.522365E2,0E0,0E0,3.7002493E2,0E0,1.207514E2,0E0,5.556041E2,2.4605493E2,3.7688464E2,0E0,0E0,2.8477783E1,1.0180129E2,0E0,1.599646E2,3.619991E2,1.7910312E2,4.275589E1,0E0,0E0,0E0,0E0,1.3472491E2,2.0171387E2,1.00068695E2,9.927561E1,0E0,0E0,0E0,0E0,0E0,1.4751788E2,0E0,0E0,0E0,0E0,9.545767E1,4.615303E0,0E0,0E0,0E0,0E0,0E0,0E0],"parents":[2147483647,0,0,1,1,2,2,3,3,4,4,6,6,7,7,8,8,10,10,13,13,15,15,17,17,18,18,19,19,22,22,23,23,25,25,26,26,27,27,28,28,33,33,34,34,35,35,36,36,42,42,47,47,48,48],"right_children":[2,4,6,8,10,-1,12,14,16,-1,18,-1,-1,20,-1,22,-1,24,26,28,-1,-1,30,32,-1,34,36,38,40,-1,-1,-1,-1,42,44,46,48,-1,-1,-1,-1,-1,50,-1,-1,-1,-1,52,54,-1,-1,-1,-1,-1,-1],"split_conditions":[2.1E1,2.198E3,5.4139328E1,3.87E1,-8.512986E-1,-2.2140543E-3,9.442387E1,2.062E3,7.7E-1,2.477431E-1,-9.5187163E-1,3.4913212E-1,1.0504528E-1,6.9030336E4,3.3005196E-1,4E0,1.5576887E-1,6.51387E4,4E0,1.4E1,2.3695351E-1,2.8486893E-2,1.3993148E0,6.4238E4,2.8976756E-1,6.040889E7,5.5471168E4,9.097341E1,5.597529E2,-1.8367307E-2,-1.1007453E-1,3.1917196E-2,-1.0933328E-1,7.999985E-3,1.27E2,-3.063E3,3.4366665E1,2.3737086E-1,-0E0,-2.3508882E-3,-1.1092326E-1,6.85323E-2,8.913582E1,1.6084644E-1,-5.5176087E-2,2.4339832E-1,4.1645516E-2,7.5228714E1,3.6637867E1,-3.4406517E-2,-9.834522E-2,-4.7521252E-2,1.1025673E-1,-3.071765E-2,-9.4639644E-2],"split_indices":[74,47,120,114,71,0,111,47,90,0,80,0,0,135,0,139,0,138,74,108,0,0,169,156,0,70,138,67,55,0,0,0,0,162,77,69,132,0,0,0,0,0,56,0,0,0,0,171,109,0,0,0,0,0,0],"split_type":[0,0,0,0,0,0,0,0,0,0,0,0,0,0,0,0,0,0,0,0,0,0,0,0,0,0,0,0,0,0,0,0,0,0,0,0,0,0,0,0,0,0,0,0,0,0,0,0,0,0,0,0,0,0,0],"sum_hessian":[3.13E2,2.97E2,1.6E1,8.3E1,2.14E2,6E0,1E1,4.1E1,4.2E1,5E0,2.09E2,5E0,5E0,3.2E1,9E0,3.5E1,7E0,2E1,1.89E2,2.5E1,7E0,8E0,2.7E1,1.5E1,5E0,1.55E2,3.4E1,1E1,1.5E1,5E0,2.2E1,9E0,6E0,1.43E2,1.2E1,1E1,2.4E1,5E0,5E0,5E0,1E1,5E0,1.38E2,5E0,7E0,5E0,5E0,1E1,1.4E1,6.4E1,7.4E1,5E0,5E0,5E0,9E0],"tree_param":{"num_deleted":"0","num_feature":"175","num_nodes":"55","size_leaf_vector":"1"}},{"base_weights":[5.2594817E-1,2.3452692E0,-1.8084843E-1,2.6895356E-1,6.247319E0,-8.989571E-1,2.6721222E0,3.3263814E0,-1.2999302E0,4.0538076E-1,2.6844556E0,-1.2060136E0,1.7249553E-1,-2.894128E0,7.5726748E0,2.424274E-1,-5.9624773E-2,-2.693052E0,8.071168E-2,-8.114098E-1,1.9119912E-1,2.5537243E0,-1.6086339E0,-5.622762E-3,-1.0916266E-1,1.0277802E1,-5.5860262E-2,-1.012207E-2,-3.233014E0,3.861854E-2,-7.522244E-2,2.3328048E-1,-4.9894962E-2,9.711926E-2,-1.8522167E0,3.872155E-1,1.0119324E-1,-1.10415116E-1,-4.0662274E-2,1.04261585E-1,-2.0905998E0,-2.3725371E0,8.104705E-1,-8.014034E-2,1.4116414E-2,-5.522625E-2,9.965096E-2],"categories":[],"categories_nodes":[],"categories_segments":[],"categories_sizes":[],"default_left":[0,0,0,0,0,0,0,0,0,0,0,0,0,0,0,0,0,0,0,0,0,0,0,0,0,0,0,0,0,0,0,0,0,0,0,0,0,0,0,0,0,0,0,0,0,0,0],"id":16,"left_children":[1,3,5,7,9,11,13,15,17,-1,19,21,-1,23,25,-1,-1,27,-1,29,-1,31,33,-1,-1,35,-1,-1,37,-1,-1,-1,-1,-1,39,-1,-1,-1,-1,-1,41,43,45,-1,-1,-1,-1],"loss_changes":[3.8641156E2,6.7393994E2,4.4849487E2,2.8307605E2,6.7003357E2,3.688699E2,1.2463907E3,5.404679E2,2.3129309E2,0E0,2.968295E2,2.6356665E2,0E0,4.106357E1,6.5501135E2,0E0,0E0,3.4191986E1,0E0,5.3337738E1,0E0,4.0329312E2,1.9307971E2,0E0,0E0,2.4973145E2,0E0,0E0,7.669876E0,0E0,0E0,0E0,0E0,0E0,2.0180048E2,0E0,0E0,0E0,0E0,0E0,1.2158923E2,1.149035E2,1.06183945E2,0E0,0E0,0E0,0E0],"parents":[2147483647,0,0,1,1,2,2,3,3,4,4,5,5,6,6,7,7,8,8,10,10,11,11,13,13,14,14,17,17,19,19,21,21,22,22,25,25,28,28,34,34,40,40,41,41,42,42],"right_children":[2,4,6,8,10,12,14,16,18,-1,20,22,-1,24,26,-1,-1,28,-1,30,-1,32,34,-1,-1,36,-1,-1,38,-1,-1,-1,-1,-1,40,-1,-1,-1,-1,-1,42,44,46,-1,-1,-1,-1],"split_conditions":[2.198E3,6.8045667E2,6.5511766E4,5.7516965E4,3E0,8.6444855E2,3.5833332E1,5.9185614E2,6.9E1,4.0538076E-1,4.626353E1,1.6861E4,1.7249553E-1,4E0,8.555E4,2.424274E-1,-5.9624773E-2,1.0781677E1,8.071168E-2,1.3333333E1,1.9119912E-1,7E0,4.2978934E4,-5.622762E-3,-1.0916266E-1,3.3E1,-5.5860262E-2,-1.012207E-2,8.9561E4,3.861854E-2,-7.522244E-2,2.3328048E-1,-4.9894962E-2,9.711926E-2,-8.503518E-1,3.872155E-1,1.0119324E-1,-1.10415116E-1,-4.0662274E-2,1.04261585E-1,6.737293E4,1.44E2,4.5469757E1,-8.014034E-2,1.4116414E-2,-5.522625E-2,9.965096E-2],"split_indices":[47,54,138,138,147,54,128,55,142,0,122,156,0,139,135,0,0,67,0,126,0,143,137,0,0,168,0,0,158,0,0,0,0,0,71,0,0,0,0,0,137,146,124,0,0,0,0],"split_type":[0,0,0,0,0,0,0,0,0,0,0,0,0,0,0,0,0,0,0,0,0,0,0,0,0,0,0,0,0,0,0,0,0,0,0,0,0,0,0,0,0,0,0,0,0,0,0],"sum_hessian":[2.97E2,8.2E1,2.15E2,5.5E1,2.7E1,1.73E2,4.2E1,1.8E1,3.7E1,7E0,2E1,1.67E2,6E0,2E1,2.2E1,9E0,9E0,2.8E1,9E0,1.1E1,9E0,1.5E1,1.52E2,5E0,1.5E1,1.7E1,5E0,6E0,2.2E1,5E0,6E0,6E0,9E0,6E0,1.46E2,1.1E1,6E0,1.6E1,6E0,5E0,1.41E2,1.29E2,1.2E1,1.17E2,1.2E1,6E0,6E0],"tree_param":{"num_deleted":"0","num_feature":"175","num_nodes":"47","size_leaf_vector":"1"}},{"base_weights":[7.784652E-2,-3.451996E-1,5.714712E0,3.1850037E-1,-2.4622355E0,5.6512314E-1,3.3648705E-1,-2.4600619E-1,3.9538703E0,-3.2341566E0,1.2033073E0,1.3579866E-1,-8.939908E-2,-1.8937088E0,9.1176695E-1,9.7233874E-1,2.8122938E-1,-5.310409E-1,-1.15806155E-1,1.2449851E-1,-4.8399966E-2,-2.6430674E0,6.851485E-1,4.44292E0,-1.5873331E-1,-4.531055E-2,2.7709715E0,-7.0096746E-2,4.8381146E-2,-3.0520937E0,3.9386325E-2,-7.7072434E-2,1.0693263E-1,2.1505664E-1,3.03709E-1,3.232878E0,-1.4138287E0,-7.694357E-3,1.4369242E-1,-8.227096E-4,-3.3377507E0,1.210431E-1,-7.66969E-2,-1.6557481E0,2.8070533E-1,1.3333671E-1,-2.1687343E0,-4.5170024E-2,-1.0648247E-1,-9.957337E-2,3.366386E-2,3.5437262E-3,-8.3048336E-2],"categories":[],"categories_nodes":[],"categories_segments":[],"categories_sizes":[],"default_left":[0,0,0,0,0,0,0,0,0,0,0,0,0,0,0,0,0,0,0,0,0,0,0,0,0,0,0,0,0,0,0,0,0,0,0,0,0,0,0,0,0,0,0,0,0,0,0,0,0,0,0,0,0],"id":17,"left_children":[1,3,5,7,9,11,-1,13,15,17,19,-1,-1,21,23,25,-1,27,-1,-1,-1,29,31,33,35,-1,37,-1,-1,39,-1,-1,-1,41,-1,43,45,-1,-1,-1,47,-1,-1,49,-1,-1,51,-1,-1,-1,-1,-1,-1],"loss_changes":[7.1725714E2,3.9465668E2,5.763744E2,4.4296802E2,1.9837595E2,2.1032216E2,0E0,3.6067776E2,4.45272E2,8.847229E1,1.2255402E2,0E0,0E0,1.5533484E2,4.2314377E2,1.0277501E2,0E0,5.8215694E1,0E0,0E0,0E0,1.0758688E2,1.9683873E2,6.149256E2,3.7857315E2,0E0,8.417623E1,0E0,0E0,4.651935E1,0E0,0E0,0E0,2.0134486E2,0E0,7.533424E2,3.0560455E2,0E0,0E0,0E0,6.561157E0,0E0,0E0,7.785675E1,0E0,0E0,8.2872314E1,0E0,0E0,0E0,0E0,0E0,0E0],"parents":[2147483647,0,0,1,1,2,2,3,3,4,4,5,5,7,7,8,8,9,9,10,10,13,13,14,14,15,15,17,17,21,21,22,22,23,23,24,24,26,26,29,29,33,33,35,35,36,36,40,40,43,43,46,46],"right_children":[2,4,6,8,10,12,-1,14,16,18,20,-1,-1,22,24,26,-1,28,-1,-1,-1,30,32,34,36,-1,38,-1,-1,40,-1,-1,-1,42,-1,44,46,-1,-1,-1,48,-1,-1,50,-1,-1,52,-1,-1,-1,-1,-1,-1],"split_conditions":[8E0,6.433679E1,1E1,5.3166138E1,6.757768E1,2.3681E4,3.3648705E-1,-7.0710677E-1,6.747279E2,1.1833333E1,5.25E1,1.3579866E-1,-8.939908E-2,1.3407347E2,-3.2E1,6.2964E4,2.8122938E-1,4.4309E4,-1.15806155E-1,1.2449851E-1,-4.8399966E-2,6.35E2,1.325495E6,-5.3E1,2.198E3,-4.531055E-2,1.04E-1,-7.0096746E-2,4.8381146E-2,3.5749298E2,3.9386325E-2,-7.7072434E-2,1.0693263E-1,-9.6428573E-1,3.03709E-1,1.953E3,5.0885133E4,-7.694357E-3,1.4369242E-1,-8.227096E-4,4.5092497E0,1.210431E-1,-7.66969E-2,2.5599998E-1,2.8070533E-1,1.3333671E-1,4.0458E4,-4.5170024E-2,-1.0648247E-1,-9.957337E-2,3.366386E-2,3.5437262E-3,-8.3048336E-2],"split_indices":[75,115,146,131,122,155,0,103,54,110,110,0,0,56,81,157,0,157,0,0,0,58,48,79,47,0,163,0,0,54,0,0,0,84,0,47,137,0,0,0,109,0,0,163,0,0,157,0,0,0,0,0,0],"split_type":[0,0,0,0,0,0,0,0,0,0,0,0,0,0,0,0,0,0,0,0,0,0,0,0,0,0,0,0,0,0,0,0,0,0,0,0,0,0,0,0,0,0,0,0,0,0,0,0,0,0,0,0,0],"sum_hessian":[2.96E2,2.77E2,1.9E1,2.12E2,6.5E1,1.1E1,8E0,1.85E2,2.7E1,5.4E1,1.1E1,5E0,6E0,7.6E1,1.09E2,1.9E1,8E0,1.1E1,4.3E1,5E0,6E0,5.9E1,1.7E1,2.4E1,8.5E1,8E0,1.1E1,6E0,5E0,5.4E1,5E0,8E0,9E0,1.5E1,9E0,2.2E1,6.3E1,5E0,6E0,5E0,4.9E1,6E0,9E0,1.3E1,9E0,6E0,5.7E1,7E0,4.2E1,8E0,5E0,1.2E1,4.5E1],"tree_param":{"num_deleted":"0","num_feature":"175","num_nodes":"53","size_leaf_vector":"1"}},{"base_weights":[1.3942418E-1,-1.285124E-1,7.1242046E0,4.4002247E0,-3.249129E-1,3.2975712E-1,3.4487676E-2,2.4907671E-1,-3.7360884E-2,-1.4083645E0,5.4660964E-1,-2.2620559E0,7.1975553E-1,-1.7231542E0,1.8114021E0,8.393723E-2,-2.603313E0,-1.1879184E0,4.9030657E0,9.434789E-2,-2.4799402E0,6.2610106E0,6.6517526E-1,8.6533594E-1,-3.1019032E0,-2.3653457E0,9.350855E-2,3.18159E-1,-3.7489705E-2,-3.6919923E0,1.1510227E-1,3.4000695E-1,2.3493435E0,2.5650868E-1,-1.8027283E-3,7.721094E-2,-3.788665E-2,-3.3541994E0,-1.7692799E-2,-8.623657E-2,-7.0791473E-3,-1.17211334E-1,-4.747837E-2,1.11466795E-1,-2.0798106E0,-4.4301122E-2,1.8386434E-1,-1.6930093E0,2.6993353E0,-1.0937419E-1,-4.706223E-2,-1.0740889E-2,-9.0117484E-2,-8.247598E-2,3.185491E-2,1.8788871E-1,-6.5494403E-3],"categories":[],"categories_nodes":[],"categories_segments":[],"categories_sizes":[],"default_left":[0,0,0,0,0,0,0,0,0,0,0,0,0,0,0,0,0,0,0,0,0,0,0,0,0,0,0,0,0,0,0,0,0,0,0,0,0,0,0,0,0,0,0,0,0,0,0,0,0,0,0,0,0,0,0,0,0],"id":18,"left_children":[1,3,5,7,9,-1,-1,-1,-1,11,13,15,17,19,21,-1,23,25,27,-1,29,31,33,35,37,39,-1,-1,-1,41,43,-1,45,-1,47,-1,-1,49,-1,-1,-1,-1,-1,-1,51,-1,-1,53,55,-1,-1,-1,-1,-1,-1,-1,-1],"loss_changes":[6.0794495E2,2.7832892E2,2.4595319E2,3.1061047E2,2.8619055E2,0E0,0E0,0E0,0E0,2.4928973E2,4.8857785E2,1.819649E2,3.327221E2,2.3999594E2,5.441359E2,0E0,1.655946E2,1.6136101E2,4.8727942E2,0E0,1.7248596E2,3.7643286E2,4.7237366E2,5.4421104E1,4.540979E1,2.3111115E1,0E0,0E0,0E0,1.672699E0,1.6642433E2,0E0,2.3733328E2,0E0,3.9236417E2,0E0,0E0,2.396167E1,0E0,0E0,0E0,0E0,0E0,0E0,1.685244E1,0E0,0E0,1.6089267E2,3.4887115E2,0E0,0E0,0E0,0E0,0E0,0E0,0E0,0E0],"parents":[2147483647,0,0,1,1,2,2,3,3,4,4,9,9,10,10,11,11,12,12,13,13,14,14,16,16,17,17,18,18,20,20,21,21,22,22,23,23,24,24,25,25,29,29,30,30,32,32,34,34,37,37,44,44,47,47,48,48],"right_children":[2,4,6,8,10,-1,-1,-1,-1,12,14,16,18,20,22,-1,24,26,28,-1,30,32,34,36,38,40,-1,-1,-1,42,44,-1,46,-1,48,-1,-1,50,-1,-1,-1,-1,-1,-1,52,-1,-1,54,56,-1,-1,-1,-1,-1,-1,-1,-1],"split_conditions":[1.82E2,1.576E3,-1.5455E4,4.637731E1,-3.75E-1,3.2975712E-1,3.4487676E-2,2.4907671E-1,-3.7360884E-2,6.8417336E4,1.356762E6,-7.0027E4,6.8535664E4,8.622754E-1,3E0,8.393723E-2,7.999994E-3,4.2428E4,8.095E4,9.434789E-2,3.7E1,2.139E3,-2.130818E6,2.65E1,4E0,3.5E1,9.350855E-2,3.18159E-1,-3.7489705E-2,4.875E0,3.2866665E1,3.4000695E-1,-2.5881904E-1,2.5650868E-1,3.047619E0,7.721094E-2,-3.788665E-2,8.9E1,-1.7692799E-2,-8.623657E-2,-7.0791473E-3,-1.17211334E-1,-4.747837E-2,1.11466795E-1,1.0367172E2,-4.4301122E-2,1.8386434E-1,2.3599E4,6.1575E4,-1.0937419E-1,-4.706223E-2,-1.0740889E-2,-9.0117484E-2,-8.247598E-2,3.185491E-2,1.8788871E-1,-6.5494403E-3],"split_indices":[0,47,69,124,80,0,0,0,0,135,48,69,137,85,147,0,160,69,135,0,151,47,70,119,74,143,0,0,0,73,130,0,103,0,73,0,0,143,0,0,0,0,0,0,56,0,0,69,155,0,0,0,0,0,0,0,0],"split_type":[0,0,0,0,0,0,0,0,0,0,0,0,0,0,0,0,0,0,0,0,0,0,0,0,0,0,0,0,0,0,0,0,0,0,0,0,0,0,0,0,0,0,0,0,0,0,0,0,0,0,0,0,0,0,0,0,0],"sum_hessian":[3.2E2,3.1E2,1E1,1.1E1,2.99E2,5E0,5E0,6E0,5E0,1.33E2,1.66E2,9.5E1,3.8E1,5.9E1,1.07E2,5E0,9E1,2.7E1,1.1E1,7E0,5.2E1,2E1,8.7E1,1.1E1,7.9E1,2.2E1,5E0,5E0,6E0,3.5E1,1.7E1,7E0,1.3E1,5E0,8.2E1,6E0,5E0,7.1E1,8E0,1.7E1,5E0,3E1,5E0,6E0,1.1E1,7E0,6E0,5.1E1,3.1E1,5.9E1,1.2E1,5E0,6E0,3.7E1,1.4E1,1.3E1,1.8E1],"tree_param":{"num_deleted":"0","num_feature":"175","num_nodes":"57","size_leaf_vector":"1"}},{"base_weights":[-9.3995094E-2,-4.0124893E-1,4.453124E0,6.613434E-1,-1.655537E0,-7.691338E-2,7.167262E0,-1.053441E0,2.207047E0,-2.0607028E0,1.1556631E-1,1.312784E-2,3.1183732E-1,-1.9566833E0,3.725337E0,6.3982697E0,9.817233E-1,7.2082914E-2,-2.3215673E0,4.442718E-2,-2.4154322E0,-3.1670425E-2,2.458921E-1,2.466501E0,3.70869E-1,6.29897E-2,1.7307143E-1,-2.5522132E0,6.4750135E-2,-3.12859E0,-3.192398E-2,-7.5913645E-2,1.7581399E-1,3.3139682E0,-1.0596546E0,4.1780263E-2,-2.7558396E0,-3.4619796E0,-1.8509876E-2,8.958151E-2,-7.469756E-2,2.0317274E-1,-1.9677372E-3,1.15521885E-1,-1.8585174E0,-2.9618616E0,1.878495E-2,-4.8400715E-2,-1.10357925E-1,3.4046967E-2,-8.740451E-2,-9.600715E-2,-2.6563987E-2],"categories":[],"categories_nodes":[],"categories_segments":[],"categories_sizes":[],"default_left":[0,0,0,0,0,0,0,0,0,0,0,0,0,0,0,0,0,0,0,0,0,0,0,0,0,0,0,0,0,0,0,0,0,0,0,0,0,0,0,0,0,0,0,0,0,0,0,0,0,0,0,0,0],"id":19,"left_children":[1,3,5,7,9,-1,11,13,15,17,-1,-1,-1,19,21,23,25,-1,27,-1,29,-1,-1,31,-1,33,-1,35,-1,37,39,-1,-1,41,43,-1,45,47,-1,-1,-1,-1,-1,-1,49,51,-1,-1,-1,-1,-1,-1,-1],"loss_changes":[4.4164038E2,3.9852753E2,4.1994925E2,4.346156E2,3.2070334E2,0E0,3.11268E2,3.50373E2,4.2540927E2,1.6131818E2,0E0,0E0,0E0,1.1327966E2,2.987672E2,3.7713696E2,2.9983826E2,0E0,1.3830634E2,0E0,1.00209076E2,0E0,0E0,2.6875723E2,0E0,2.27132E2,0E0,1.0314514E2,0E0,3.2206055E1,1.333126E2,0E0,0E0,1.9125084E2,1.9376248E2,0E0,8.3611755E1,1.5020142E0,0E0,0E0,0E0,0E0,0E0,0E0,1.3697844E2,4.5250977E1,0E0,0E0,0E0,0E0,0E0,0E0,0E0],"parents":[2147483647,0,0,1,1,2,2,3,3,4,4,6,6,7,7,8,8,9,9,13,13,14,14,15,15,16,16,18,18,20,20,23,23,25,25,27,27,29,29,30,30,33,33,34,34,36,36,37,37,44,44,45,45],"right_children":[2,4,6,8,10,-1,12,14,16,18,-1,-1,-1,20,22,24,26,-1,28,-1,30,-1,-1,32,-1,34,-1,36,-1,38,40,-1,-1,42,44,-1,46,48,-1,-1,-1,-1,-1,-1,50,52,-1,-1,-1,-1,-1,-1,-1],"split_conditions":[2.3333333E0,4.11E1,-2.1697884E7,5.6713495E2,7.3418E4,-7.691338E-2,1E1,8.0590664E4,2E0,3.398004E2,1.1556631E-1,1.312784E-2,3.1183732E-1,3.384228E2,3.933547E6,2.1666666E1,5.96E2,7.2082914E-2,1.03998E5,4.442718E-2,2.8E1,-3.1670425E-2,2.458921E-1,5.15492E5,3.70869E-1,2E0,1.7307143E-1,1.6279E4,6.4750135E-2,1.3407347E2,8.75E-1,-7.5913645E-2,1.7581399E-1,-8.660254E-1,2.3642E4,4.1780263E-2,9.6E1,1.7133333E1,-1.8509876E-2,8.958151E-2,-7.469756E-2,2.0317274E-1,-1.9677372E-3,1.15521885E-1,-2.9E1,9.7228E4,1.878495E-2,-4.8400715E-2,-1.10357925E-1,3.4046967E-2,-8.740451E-2,-9.600715E-2,-2.6563987E-2],"split_indices":[85,114,70,54,69,0,126,135,76,54,0,0,0,54,70,108,58,0,157,0,168,0,0,6,0,168,0,157,0,56,78,0,0,103,157,0,126,130,0,0,0,0,0,0,79,5,0,0,0,0,0,0,0],"split_type":[0,0,0,0,0,0,0,0,0,0,0,0,0,0,0,0,0,0,0,0,0,0,0,0,0,0,0,0,0,0,0,0,0,0,0,0,0,0,0,0,0,0,0,0,0,0,0,0,0,0,0,0,0],"sum_hessian":[3.13E2,2.95E2,1.8E1,1.6E2,1.35E2,5E0,1.3E1,7.6E1,8.4E1,1.27E2,8E0,5E0,8E0,6.5E1,1.1E1,1.7E1,6.7E1,6E0,1.21E2,7E0,5.8E1,6E0,5E0,1.2E1,5E0,5.8E1,9E0,1.16E2,5E0,4.4E1,1.4E1,5E0,7E0,1.4E1,4.4E1,5E0,1.11E2,3.8E1,6E0,6E0,8E0,6E0,8E0,5E0,3.9E1,1.05E2,6E0,6E0,3.2E1,1E1,2.9E1,9.3E1,1.2E1],"tree_param":{"num_deleted":"0","num_feature":"175","num_nodes":"53","size_leaf_vector":"1"}},{"base_weights":[5.215166E-1,-7.994741E-1,1.5694704E0,-1.312982E0,2.91319E0,6.5078336E-1,4.66251E0,3.195432E0,-1.7957462E0,-2.3837163E-1,2.4015535E-1,3.1181555E0,-7.52531E-1,3.250564E-1,2.7395875E0,7.5856955E-3,1.4726481E-1,-7.2862184E-1,-3.04742E0,6.1310835E-2,-8.549309E-2,-8.690392E-2,4.7001348E0,-1.3563873E0,2.0688362E-1,8.251137E-1,2.9450434E-1,-2.161078E0,2.1156292E0,-1.5441258E-3,-3.490218E0,3.291443E-1,2.564438E0,1.0477867E-1,-1.743342E0,-1.8148091E0,1.656122E-1,7.5273574E-3,-2.791904E0,4.989488E0,-8.2418364E-1,-1.0973305E-1,-4.3206494E-2,1.0918738E0,2.3582809E-1,-2.1318138E0,6.961424E-2,-0E0,-9.172942E-2,-9.766862E-2,-0E0,2.1988794E-2,2.324706E-1,3.261164E-2,-7.058913E-2,1.8307841E-1,-4.3974823E-1,-2.5164807E0,6.922406E-2,-6.4737E-2,5.8130573E-2,2.8022595E-2,-8.614284E-2],"categories":[],"categories_nodes":[],"categories_segments":[],"categories_sizes":[],"default_left":[0,0,0,0,0,0,0,0,0,0,0,0,0,0,0,0,0,0,0,0,0,0,0,0,0,0,0,0,0,0,0,0,0,0,0,0,0,0,0,0,0,0,0,0,0,0,0,0,0,0,0,0,0,0,0,0,0,0,0,0,0,0,0],"id":20,"left_children":[1,3,5,7,9,11,13,15,17,19,-1,21,23,-1,25,-1,-1,27,29,-1,-1,-1,31,33,-1,35,-1,37,39,-1,41,-1,43,-1,45,47,-1,-1,49,51,53,-1,-1,55,-1,57,-1,-1,-1,-1,-1,-1,-1,-1,-1,-1,59,61,-1,-1,-1,-1,-1],"loss_changes":[4.5003543E2,2.8138324E2,5.0559265E2,2.8936865E2,2.9655865E2,4.9755066E2,4.2049933E2,6.048004E1,1.4994702E2,8.9523125E1,0E0,5.229399E2,4.4085693E2,0E0,4.3915048E2,0E0,0E0,2.780683E2,6.817969E1,0E0,0E0,0E0,4.9949548E2,1.7454527E2,0E0,3.8135092E2,0E0,7.114113E1,2.0462512E2,0E0,2.715149E0,0E0,2.4353806E2,0E0,1.3925087E2,4.6319847E1,0E0,0E0,4.7960815E1,1.2535187E2,4.3732975E1,0E0,0E0,2.3076093E2,0E0,1.4149893E2,0E0,0E0,0E0,0E0,0E0,0E0,0E0,0E0,0E0,0E0,1.065078E2,9.329169E1,0E0,0E0,0E0,0E0,0E0],"parents":[2147483647,0,0,1,1,2,2,3,3,4,4,5,5,6,6,7,7,8,8,9,9,11,11,12,12,14,14,17,17,18,18,22,22,23,23,25,25,27,27,28,28,30,30,32,32,34,34,35,35,38,38,39,39,40,40,43,43,45,45,56,56,57,57],"right_children":[2,4,6,8,10,12,14,16,18,20,-1,22,24,-1,26,-1,-1,28,30,-1,-1,-1,32,34,-1,36,-1,38,40,-1,42,-1,44,-1,46,48,-1,-1,50,52,54,-1,-1,56,-1,58,-1,-1,-1,-1,-1,-1,-1,-1,-1,-1,60,62,-1,-1,-1,-1,-1],"split_conditions":[-3.2865078E1,8.0566336E4,6.9618836E4,-2.601996E2,1.0301E4,4.2701E4,5.67294E5,3.681E4,3.292922E1,4.477701E1,2.4015535E-1,-7.428705E-1,9.8388207E-1,3.250564E-1,5.3077393E1,7.5856955E-3,1.4726481E-1,1.4E1,2.7533333E1,6.1310835E-2,-8.549309E-2,-8.690392E-2,1.9125027E1,1.5999962E-2,2.0688362E-1,1.570927E6,2.9450434E-1,1.5999978E-2,6.116438E2,-1.5441258E-3,1.34E2,3.291443E-1,1.7912402E2,1.0477867E-1,2.5751483E2,5.749699E2,1.656122E-1,7.5273574E-3,9.6588E4,5.0928735E2,4.0426E4,-1.0973305E-1,-4.3206494E-2,2.109E3,2.3582809E-1,6.453733E1,6.961424E-2,-0E0,-9.172942E-2,-9.766862E-2,-0E0,2.1988794E-2,2.324706E-1,3.261164E-2,-7.058913E-2,1.8307841E-1,6.8814E4,3.4423553E1,6.922406E-2,-6.4737E-2,5.8130573E-2,2.8022595E-2,-8.614284E-2],"split_indices":[86,135,136,86,69,5,6,157,118,113,0,125,174,0,131,0,0,165,121,0,0,0,111,161,0,48,0,160,55,0,145,0,86,0,86,55,0,0,156,55,157,0,0,47,0,129,0,0,0,0,0,0,0,0,0,0,158,113,0,0,0,0,0],"split_type":[0,0,0,0,0,0,0,0,0,0,0,0,0,0,0,0,0,0,0,0,0,0,0,0,0,0,0,0,0,0,0,0,0,0,0,0,0,0,0,0,0,0,0,0,0,0,0,0,0,0,0,0,0,0,0,0,0,0,0,0,0,0,0],"sum_hessian":[3.21E2,1.42E2,1.79E2,1.26E2,1.6E1,1.4E2,3.9E1,1.1E1,1.15E2,1.1E1,5E0,5E1,9E1,7E0,3.2E1,5E0,6E0,6.4E1,5.1E1,6E0,5E0,1E1,4E1,8.5E1,5E0,2.7E1,5E0,4.3E1,2.1E1,7E0,4.4E1,8E0,3.2E1,5E0,8E1,1.8E1,9E0,9E0,3.4E1,1E1,1.1E1,3.9E1,5E0,2.7E1,5E0,7.4E1,6E0,8E0,1E1,2.9E1,5E0,5E0,5E0,5E0,6E0,5E0,2.2E1,6.9E1,5E0,1.3E1,9E0,6E0,6.3E1],"tree_param":{"num_deleted":"0","num_feature":"175","num_nodes":"63","size_leaf_vector":"1"}},{"base_weights":[3.240931E-1,6.859177E-2,5.7536087E0,-9.8377675E-2,1.887544E-1,3.189833E-1,1.8736945E-2,2.398082E0,-4.9782547E-1,7.948368E0,-1.502476E-1,-1.5748354E0,3.79299E-1,8.056715E-2,3.4861803E-1,-1.7916439E0,1.03226215E-1,8.684303E-2,-1.9195763E0,4.1168027E0,-2.5575075E-1,3.528151E-2,-2.8322659E0,-2.5840735E0,1.2708433E0,-3.8970482E-1,2.7605703E-1,1.0878044E0,-1.5164487E0,-2.906374E-2,-1.0216744E-1,-2.9036326E0,6.674176E-3,2.371022E-1,-1.9604653E0,-7.820197E-2,6.55187E-2,-1.5541093E0,3.5947957E0,-2.105205E0,1.3930928E0,-9.396324E-2,-1.7465645E-2,-9.351891E-2,5.425675E-3,9.3541406E-2,-8.1350446E-2,2.4927045E-1,9.308947E-3,1.247107E-2,-7.501725E-2,1.3289614E-1,-5.910852E-2],"categories":[],"categories_nodes":[],"categories_segments":[],"categories_sizes":[],"default_left":[0,0,0,0,0,0,0,0,0,0,0,0,0,0,0,0,0,0,0,0,0,0,0,0,0,0,0,0,0,0,0,0,0,0,0,0,0,0,0,0,0,0,0,0,0,0,0,0,0,0,0,0,0],"id":21,"left_children":[1,3,5,7,-1,-1,-1,9,11,13,15,17,19,-1,-1,21,-1,-1,23,25,27,-1,29,31,33,35,-1,37,39,-1,-1,41,-1,-1,43,-1,-1,45,47,49,51,-1,-1,-1,-1,-1,-1,-1,-1,-1,-1,-1,-1],"loss_changes":[4.318956E2,3.1813922E2,3.3144614E2,2.966103E2,0E0,0E0,0E0,5.861898E2,2.445731E2,1.8167181E2,1.8833862E2,1.8936505E2,3.434469E2,0E0,0E0,7.543132E1,0E0,0E0,2.3830716E2,4.9281485E2,2.1354688E2,0E0,9.3763275E0,8.424664E1,4.6259738E2,8.577379E1,0E0,4.1621228E2,1.17567276E2,0E0,0E0,3.79881E1,0E0,0E0,3.9753002E1,0E0,0E0,1.843662E2,4.8601678E2,5.7939438E1,1.4125198E2,0E0,0E0,0E0,0E0,0E0,0E0,0E0,0E0,0E0,0E0,0E0,0E0],"parents":[2147483647,0,0,1,1,2,2,3,3,7,7,8,8,9,9,10,10,11,11,12,12,15,15,18,18,19,19,20,20,22,22,23,23,24,24,25,25,27,27,28,28,31,31,34,34,37,37,38,38,39,39,40,40],"right_children":[2,4,6,8,-1,-1,-1,10,12,14,16,18,20,-1,-1,22,-1,-1,24,26,28,-1,30,32,34,36,-1,38,40,-1,-1,42,-1,-1,44,-1,-1,46,48,50,52,-1,-1,-1,-1,-1,-1,-1,-1,-1,-1,-1,-1],"split_conditions":[1.82E2,1.4233333E0,-1.5455E4,1.5999988E-2,1.887544E-1,3.189833E-1,1.8736945E-2,2.117E3,5.594695E2,5.6713495E2,4.6846966E1,7.999993E-3,1.7166666E1,8.056715E-2,3.4861803E-1,3E0,1.03226215E-1,8.684303E-2,8.0590664E4,1.0692677E1,6.923563E2,3.528151E-2,6E0,5E0,7.5289E4,3.574032E6,2.7605703E-1,2.7046065E0,1.8333334E0,-2.906374E-2,-1.0216744E-1,9.7E-1,6.674176E-3,2.371022E-1,9E0,-7.820197E-2,6.55187E-2,3.390231E1,3.4236898E0,8.947368E-1,8.5199135E1,-9.396324E-2,-1.7465645E-2,-9.351891E-2,5.425675E-3,9.3541406E-2,-8.1350446E-2,2.4927045E-1,9.308947E-3,1.247107E-2,-7.501725E-2,1.3289614E-1,-5.910852E-2],"split_indices":[0,90,69,162,0,0,0,47,54,54,131,160,119,0,0,149,0,0,135,118,54,0,143,74,155,49,0,169,85,0,0,90,0,0,168,0,0,111,169,85,56,0,0,0,0,0,0,0,0,0,0,0,0],"split_type":[0,0,0,0,0,0,0,0,0,0,0,0,0,0,0,0,0,0,0,0,0,0,0,0,0,0,0,0,0,0,0,0,0,0,0,0,0,0,0,0,0,0,0,0,0,0,0,0,0,0,0,0,0],"sum_hessian":[3.12E2,3E2,1.2E1,2.94E2,6E0,5E0,7E0,3.9E1,2.55E2,1.1E1,2.8E1,1.14E2,1.41E2,6E0,5E0,2E1,8E0,7E0,1.07E2,1.9E1,1.22E2,5E0,1.5E1,8.9E1,1.8E1,1.1E1,8E0,5.9E1,6.3E1,5E0,1E1,8E1,9E0,5E0,1.3E1,6E0,5E0,2.9E1,3E1,5.3E1,1E1,7.2E1,8E0,8E0,5E0,5E0,2.4E1,1.1E1,1.9E1,7E0,4.6E1,5E0,5E0],"tree_param":{"num_deleted":"0","num_feature":"175","num_nodes":"53","size_leaf_vector":"1"}},{"base_weights":[5.6929106E-1,3.882966E-1,1.7885888E-1,2.9182658E0,-0E0,-3.886009E-1,8.165071E0,4.8477572E-1,-2.040826E0,1.4581972E-1,-2.0462193E0,3.5695198E-1,4.1839235E-2,2.0405453E-1,2.0708534E-1,1.8128964E-1,-2.658042E0,-9.238816E-2,2.9299134E-2,2.5551114E0,-3.7286064E-1,9.1272466E-2,-6.915054E-2,-9.067005E-1,-1.044139E-1,-1.6736532E0,4.5834303E0,1.82198E-1,-6.8391097E-1,-7.02346E-2,2.0210572E-2,-9.041106E-2,1.9423813E-2,2.7852324E-1,1.514714E0,2.899037E0,-1.1933225E0,1.9360699E-1,-2.8761368E-2,-7.188994E-2,2.7759624E-1,-4.242427E-2,1.0572425E-1],"categories":[],"categories_nodes":[],"categories_segments":[],"categories_sizes":[],"default_left":[0,0,0,0,0,0,0,0,0,0,0,0,0,0,0,0,0,0,0,0,0,0,0,0,0,0,0,0,0,0,0,0,0,0,0,0,0,0,0,0,0,0,0],"id":22,"left_children":[1,3,-1,5,7,9,11,13,15,-1,17,-1,-1,19,-1,21,23,-1,-1,25,27,-1,-1,29,-1,31,33,-1,35,-1,-1,-1,-1,-1,37,39,41,-1,-1,-1,-1,-1,-1],"loss_changes":[2.9964862E2,3.0287964E2,0E0,7.216039E2,2.6781012E2,2.5341896E2,3.6458533E2,3.8639743E2,7.352141E1,0E0,7.5789925E1,0E0,0E0,2.8918854E2,0E0,1.06871666E2,5.054889E1,0E0,0E0,3.7704297E2,3.4847946E2,0E0,0E0,4.0259968E1,0E0,5.174172E1,3.848014E2,0E0,3.0722327E2,0E0,0E0,0E0,0E0,0E0,2.594394E2,7.543771E2,1.610019E2,0E0,0E0,0E0,0E0,0E0,0E0],"parents":[2147483647,0,0,1,1,3,3,4,4,5,5,6,6,7,7,8,8,10,10,13,13,15,15,16,16,19,19,20,20,23,23,25,25,26,26,28,28,34,34,35,35,36,36],"right_children":[2,4,-1,6,8,10,12,14,16,-1,18,-1,-1,20,-1,22,24,-1,-1,26,28,-1,-1,30,-1,32,34,-1,36,-1,-1,-1,-1,-1,38,40,42,-1,-1,-1,-1,-1,-1],"split_conditions":[7.9570636E2,1.5999984E-2,1.7885888E-1,6.664503E2,6.705365E2,3.8086727E1,5.4E1,6.8289825E1,4E0,1.4581972E-1,8.1941E4,3.5695198E-1,4.1839235E-2,2E0,2.0708534E-1,-1.6853933E-1,4.5056E4,-9.238816E-2,2.9299134E-2,5.4824168E4,3.384228E2,9.1272466E-2,-6.915054E-2,6E0,-1.044139E-1,4.7249107E1,3.523255E6,1.82198E-1,-9.5187163E-1,-7.02346E-2,2.0210572E-2,-9.041106E-2,1.9423813E-2,2.7852324E-1,5.8641396E1,-9.705882E-1,2.6422383E3,1.9360699E-1,-2.8761368E-2,-7.188994E-2,2.7759624E-1,-4.242427E-2,1.0572425E-1],"split_indices":[55,159,0,54,55,133,143,129,165,0,5,0,0,168,0,78,5,0,0,136,54,0,0,76,0,133,49,0,80,0,0,0,0,0,171,78,67,0,0,0,0,0,0],"split_type":[0,0,0,0,0,0,0,0,0,0,0,0,0,0,0,0,0,0,0,0,0,0,0,0,0,0,0,0,0,0,0,0,0,0,0,0,0,0,0,0,0,0,0],"sum_hessian":[3.13E2,3.05E2,8E0,3.9E1,2.66E2,2.5E1,1.4E1,2.16E2,5E1,5E0,2E1,8E0,6E0,2.09E2,7E0,1.1E1,3.9E1,1.5E1,5E0,4E1,1.69E2,5E0,6E0,1.4E1,2.5E1,1.3E1,2.7E1,6E0,1.63E2,7E0,7E0,8E0,5E0,9E0,1.8E1,1.9E1,1.44E2,5E0,1.3E1,1.1E1,8E0,1.39E2,5E0],"tree_param":{"num_deleted":"0","num_feature":"175","num_nodes":"43","size_leaf_vector":"1"}},{"base_weights":[2.8546223E-1,3.843447E-2,6.2077584E0,4.5668083E-1,-2.489524E0,2.8000107E-1,2.3716733E-2,-8.159531E-1,1.3285928E0,-9.5544174E-2,-5.030632E-3,1.11186266E-1,-1.2398926E0,5.210751E0,7.092594E-1,-7.3287986E-2,7.088641E-2,-1.5965934E0,8.473576E-2,9.622653E0,-2.7158085E-2,-1.5616072E0,2.2126129E0,-7.736501E-1,-2.9958844E0,3.735119E-1,1.0710562E-1,-2.5158396E0,2.473923E0,4.0386076E0,-1.1626041E0,-1.921029E0,1.7348903E0,-3.2919958E0,-2.3983207E-2,-3.087878E0,4.9364813E-2,-6.981267E-2,1.9918586E-1,5.928797E0,-1.5148518E0,-2.3262765E0,8.5424475E-2,3.236639E-2,-8.234498E-2,1.2753797E-1,-2.4578052E-2,-1.0701642E-1,-3.891222E-2,-1.0270752E-1,-3.0099098E-2,-4.5847464E-2,2.4021973E-1,-8.276556E-2,2.4041757E-2,-8.570937E-2,-1.0663542E-2],"categories":[],"categories_nodes":[],"categories_segments":[],"categories_sizes":[],"default_left":[0,0,0,0,0,0,0,0,0,0,0,0,0,0,0,0,0,0,0,0,0,0,0,0,0,0,0,0,0,0,0,0,0,0,0,0,0,0,0,0,0,0,0,0,0,0,0,0,0,0,0,0,0,0,0,0,0],"id":23,"left_children":[1,3,5,7,9,-1,-1,11,13,-1,15,-1,17,19,21,-1,-1,23,-1,25,-1,27,29,31,33,-1,-1,35,37,39,41,43,45,47,-1,49,-1,-1,-1,51,53,55,-1,-1,-1,-1,-1,-1,-1,-1,-1,-1,-1,-1,-1,-1,-1],"loss_changes":[4.7479147E2,3.3536716E2,2.002977E2,3.05352E2,7.610712E1,0E0,0E0,2.2267526E2,3.8155746E2,0E0,8.0857574E1,0E0,1.591825E2,6.1541315E2,4.9542584E2,0E0,0E0,1.051788E2,0E0,1.2558191E2,0E0,2.3581726E2,5.470209E2,1.909664E2,1.5454498E1,0E0,0E0,1.2514462E2,2.7304727E2,6.185036E2,1.6231316E2,1.1796582E2,1.4365349E2,4.7851257E0,0E0,2.1008362E1,0E0,0E0,0E0,6.941997E2,5.1503098E1,2.3556717E1,0E0,0E0,0E0,0E0,0E0,0E0,0E0,0E0,0E0,0E0,0E0,0E0,0E0,0E0,0E0],"parents":[2147483647,0,0,1,1,2,2,3,3,4,4,7,7,8,8,10,10,12,12,13,13,14,14,17,17,19,19,21,21,22,22,23,23,24,24,27,27,28,28,29,29,30,30,31,31,32,32,33,33,35,35,39,39,40,40,41,41],"right_children":[2,4,6,8,10,-1,-1,12,14,-1,16,-1,18,20,22,-1,-1,24,-1,26,-1,28,30,32,34,-1,-1,36,38,40,42,44,46,48,-1,50,-1,-1,-1,52,54,56,-1,-1,-1,-1,-1,-1,-1,-1,-1,-1,-1,-1,-1,-1,-1],"split_conditions":[1.82E2,1.1669219E3,3.0004117E0,-4.4139732E1,1.283971E2,2.8000107E-1,2.3716733E-2,-2.601996E2,1.5999984E-2,-9.5544174E-2,1.4E1,1.11186266E-1,1.01882E5,7.5341E4,4.8465E4,-7.3287986E-2,7.088641E-2,3.962743E1,8.473576E-2,7E0,-2.7158085E-2,1.08E2,3.2E1,1.6E1,6.523317E1,3.735119E-1,1.0710562E-1,7.8666664E1,7.7492E4,7.12E-1,5.2666668E1,1.5999973E-2,6.07322E4,5.57E2,-2.3983207E-2,4.26E1,4.9364813E-2,-6.981267E-2,1.9918586E-1,3.188E4,4.9802753E1,2.2E1,8.5424475E-2,3.236639E-2,-8.234498E-2,1.2753797E-1,-2.4578052E-2,-1.0701642E-1,-3.891222E-2,-1.0270752E-1,-3.0099098E-2,-4.5847464E-2,2.4021973E-1,-8.276556E-2,2.4041757E-2,-8.570937E-2,-1.0663542E-2],"split_indices":[0,172,116,86,56,0,0,86,159,0,142,0,5,156,157,0,0,109,0,50,0,141,166,140,129,0,0,126,158,163,112,160,137,58,0,130,0,0,0,156,122,1,0,0,0,0,0,0,0,0,0,0,0,0,0,0,0],"split_type":[0,0,0,0,0,0,0,0,0,0,0,0,0,0,0,0,0,0,0,0,0,0,0,0,0,0,0,0,0,0,0,0,0,0,0,0,0,0,0,0,0,0,0,0,0,0,0,0,0,0,0,0,0,0,0,0,0],"sum_hessian":[3.25E2,3.14E2,1.1E1,2.71E2,4.3E1,6E0,5E0,1.1E2,1.61E2,3.3E1,1E1,8E0,1.02E2,2E1,1.41E2,5E0,5E0,9.5E1,7E0,1.1E1,9E0,5.6E1,8.5E1,6.2E1,3.3E1,6E0,5E0,4.6E1,1E1,5.5E1,3E1,4.3E1,1.9E1,2.8E1,5E0,4.1E1,5E0,5E0,5E0,4.1E1,1.4E1,2.4E1,6E0,9E0,3.4E1,9E0,1E1,2.3E1,5E0,3.4E1,7E0,9E0,3.2E1,9E0,5E0,1.8E1,6E0],"tree_param":{"num_deleted":"0","num_feature":"175","num_nodes":"57","size_leaf_vector":"1"}},{"base_weights":[3.5260737E-1,-1.799817E-1,2.3564906E0,2.1113181E-1,-4.0786242E-1,3.4815736E0,-8.961558E-2,-6.523244E-1,1.5197022E-1,2.4209414E0,3.1337732E-1,1.9688543E0,-1.1399269E0,3.7141824E0,-1.6765418E0,6.541658E0,-1.0952483E0,-1.382605E0,1.0236431E-1,5.3115253E0,-5.0494456E-1,-7.847565E-3,-7.046829E-2,5.0016467E-2,2.972053E-1,-2.491356E0,9.405389E-2,-5.433207E-1,-2.8094976E0,2.336864E0,3.2230425E-1,7.9520345E-2,-9.607135E-2,-9.747982E-3,-1.00130685E-1,-8.4733474E-1,1.249867E-1,-3.0616407E0,-0E0,-0E0,1.9126384E-1,-4.1825436E-2,6.1680004E-2,-2.7727539E-2,-9.700127E-2,8.3213285E-2,-5.1843043E-2],"categories":[],"categories_nodes":[],"categories_segments":[],"categories_sizes":[],"default_left":[0,0,0,0,0,0,0,0,0,0,0,0,0,0,0,0,0,0,0,0,0,0,0,0,0,0,0,0,0,0,0,0,0,0,0,0,0,0,0,0,0,0,0,0,0,0,0],"id":24,"left_children":[1,3,5,-1,7,9,-1,11,-1,13,-1,15,17,19,21,23,25,27,-1,29,31,-1,-1,-1,-1,33,-1,35,37,39,-1,-1,-1,-1,-1,41,-1,43,-1,45,-1,-1,-1,-1,-1,-1,-1],"loss_changes":[3.5092603E2,4.3006793E2,4.3588095E2,0E0,3.442724E2,3.7141162E2,0E0,3.172071E2,0E0,2.9432153E2,0E0,5.6350275E2,2.381955E2,2.840824E2,1.078569E1,2.2363367E2,1.6295113E2,2.3358685E2,0E0,4.2799402E2,1.27909874E2,0E0,0E0,0E0,0E0,3.2669983E1,0E0,1.8866719E2,5.1825012E1,2.0503152E2,0E0,0E0,0E0,0E0,0E0,1.9909874E2,0E0,1.6537598E1,0E0,8.670653E1,0E0,0E0,0E0,0E0,0E0,0E0,0E0],"parents":[2147483647,0,0,1,1,2,2,4,4,5,5,7,7,9,9,11,11,12,12,13,13,14,14,15,15,16,16,17,17,19,19,20,20,25,25,27,27,28,28,29,29,35,35,37,37,39,39],"right_children":[2,4,6,-1,8,10,-1,12,-1,14,-1,16,18,20,22,24,26,28,-1,30,32,-1,-1,-1,-1,34,-1,36,38,40,-1,-1,-1,-1,-1,42,-1,44,-1,46,-1,-1,-1,-1,-1,-1,-1],"split_conditions":[8.6733E4,2.5733334E1,3.079E3,2.1113181E-1,8.800836E2,1.812883E0,-8.961558E-2,1.7963205E1,1.5197022E-1,3.7E1,3.1337732E-1,-1.3378E4,6.759117E1,7.2816E4,2.1126602E1,2.0666666E1,1.44E2,3.3E1,1.0236431E-1,6.4696985E2,5.898783E1,-7.847565E-3,-7.046829E-2,5.0016467E-2,2.972053E-1,3.8093E4,9.405389E-2,7.7405336E4,1.17333336E2,4.8482597E1,3.2230425E-1,7.9520345E-2,-9.607135E-2,-9.747982E-3,-1.00130685E-1,5.2422916E1,1.249867E-1,1.7897858E1,-0E0,6.399999E-2,1.9126384E-1,-4.1825436E-2,6.1680004E-2,-2.7727539E-2,-9.700127E-2,8.3213285E-2,-5.1843043E-2],"split_indices":[157,114,47,0,54,116,0,171,0,166,0,69,129,135,109,126,143,145,0,54,115,0,0,0,0,157,0,136,108,133,0,0,0,0,0,133,0,127,0,163,0,0,0,0,0,0,0],"split_type":[0,0,0,0,0,0,0,0,0,0,0,0,0,0,0,0,0,0,0,0,0,0,0,0,0,0,0,0,0,0,0,0,0,0,0,0,0,0,0,0,0,0,0,0,0,0,0],"sum_hessian":[3.25E2,2.58E2,6.7E1,6E0,2.52E2,5.6E1,1.1E1,2.43E2,9E0,5.1E1,5E0,3.7E1,2.06E2,3.9E1,1.2E1,1.4E1,2.3E1,1.97E2,9E0,2.8E1,1.1E1,5E0,7E0,7E0,7E0,1.8E1,5E0,1.26E2,7.1E1,2E1,8E0,5E0,6E0,6E0,1.2E1,1.2E2,6E0,6.5E1,6E0,1.4E1,6E0,1.02E2,1.8E1,6E0,5.9E1,5E0,9E0],"tree_param":{"num_deleted":"0","num_feature":"175","num_nodes":"47","size_leaf_vector":"1"}},{"base_weights":[2.2154537E-1,2.3355377E0,-1.7029718E-1,4.4430895E0,-1.0745926E0,-3.5121232E-1,1.7679146E-1,5.5026084E-1,7.022366E0,5.5613033E-2,-2.8393111E0,-5.368313E-1,1.3541058E-1,-4.403502E-2,1.0042394E-1,7.363439E-2,3.17777E-1,-1.0098161E-1,-3.8382307E-2,-1.7250905E0,2.6908675E-1,-2.299936E0,6.5613264E-1,1.6553102E-1,-1.212709E-1,-2.95937E0,-1.102604E0,-1.8464932E0,1.6679554E-1,8.311128E-1,-2.2800832E0,-3.153771E0,-3.6929134E-2,-1.9537301E0,4.9207255E-2,-8.910661E-2,-7.706357E-3,2.0207697E-1,2.6095498E-1,6.477623E-2,-2.9389825E0,-3.9284557E-2,-9.897202E-2,-1.5041131E-2,-7.789271E-2,-1.8383693E-2,1.1816182E-1,-9.450108E-2,-2.8272754E-2],"categories":[],"categories_nodes":[],"categories_segments":[],"categories_sizes":[],"default_left":[0,0,0,0,0,0,0,0,0,0,0,0,0,0,0,0,0,0,0,0,0,0,0,0,0,0,0,0,0,0,0,0,0,0,0,0,0,0,0,0,0,0,0,0,0,0,0,0,0],"id":25,"left_children":[1,3,5,7,9,11,-1,13,15,-1,17,19,-1,-1,-1,-1,-1,-1,-1,21,23,25,27,-1,29,31,33,35,-1,37,39,41,-1,43,-1,-1,-1,-1,45,-1,47,-1,-1,-1,-1,-1,-1,-1,-1],"loss_changes":[2.702642E2,3.7777164E2,3.0303006E2,3.0978723E2,1.19541985E2,2.4576944E2,0E0,9.544222E1,2.513352E2,0E0,5.6746674E-1,2.5160033E2,0E0,0E0,0E0,0E0,0E0,0E0,0E0,1.4893661E2,3.2570386E2,5.9345276E1,2.9237695E2,0E0,3.0880508E2,8.187347E0,8.5939186E1,2.544117E1,0E0,3.4311874E2,1.4763373E2,1.6500854E0,0E0,2.1049957E1,0E0,0E0,0E0,0E0,3.1819336E2,0E0,9.29306E0,0E0,0E0,0E0,0E0,0E0,0E0,0E0,0E0],"parents":[2147483647,0,0,1,1,2,2,3,3,4,4,5,5,7,7,8,8,10,10,11,11,19,19,20,20,21,21,22,22,24,24,25,25,26,26,27,27,29,29,30,30,31,31,33,33,38,38,40,40],"right_children":[2,4,6,8,10,12,-1,14,16,-1,18,20,-1,-1,-1,-1,-1,-1,-1,22,24,26,28,-1,30,32,34,36,-1,38,40,42,-1,44,-1,-1,-1,-1,46,-1,48,-1,-1,-1,-1,-1,-1,-1,-1],"split_conditions":[1.5999997E-2,2.714E3,1.04666664E2,5.503E4,6.5540576E2,2.8008362E2,1.7679146E-1,4.023187E6,4.3500957E1,5.5613033E-2,7.774E4,1.04E-1,1.3541058E-1,-4.403502E-2,1.0042394E-1,7.363439E-2,3.17777E-1,-1.0098161E-1,-3.8382307E-2,8.9765E4,4.7005266E4,6.7382E4,5.8666668E1,1.6553102E-1,3.56487E0,8.3875E4,5.8507263E1,4.28E2,1.6679554E-1,2.3414E4,1.633E3,2E0,-3.6929134E-2,2.339E3,4.9207255E-2,-8.910661E-2,-7.706357E-3,2.0207697E-1,8.9561E4,6.477623E-2,1.24E2,-3.9284557E-2,-9.897202E-2,-1.5041131E-2,-7.789271E-2,-1.8383693E-2,1.1816182E-1,-9.450108E-2,-2.8272754E-2],"split_indices":[162,47,126,156,55,86,0,49,109,0,156,162,0,0,0,0,0,0,0,157,137,155,126,0,169,154,120,58,0,5,47,139,0,47,0,0,0,0,5,0,142,0,0,0,0,0,0,0,0],"split_type":[0,0,0,0,0,0,0,0,0,0,0,0,0,0,0,0,0,0,0,0,0,0,0,0,0,0,0,0,0,0,0,0,0,0,0,0,0,0,0,0,0,0,0,0,0,0,0,0,0],"sum_hessian":[3.22E2,4.9E1,2.73E2,3E1,1.9E1,2.67E2,6E0,1.3E1,1.7E1,7E0,1.2E1,2.59E2,8E0,8E0,5E0,9E0,8E0,7E0,5E0,1.04E2,1.55E2,8.4E1,2E1,9E0,1.46E2,5.2E1,3.2E1,1.4E1,6E0,1.02E2,4.4E1,4.5E1,7E0,2.5E1,7E0,7E0,7E0,7E0,9.5E1,5E0,3.9E1,5E0,4E1,9E0,1.6E1,7.8E1,1.7E1,3.4E1,5E0],"tree_param":{"num_deleted":"0","num_feature":"175","num_nodes":"49","size_leaf_vector":"1"}},{"base_weights":[1.825587E-1,-1.3065696E-1,5.288507E0,1.9272633E-1,-3.142027E-1,-5.3095752E-3,2.6532546E-1,8.070294E-1,-1.3100142E0,1.5797885E-1,5.0165854E0,1.0962841E-1,-1.6015116E0,-1.920253E-1,1.3718773E-1,2.9936746E-1,-0E0,-1.8845111E0,6.506542E-2,-1.5327934E0,9.5224506E-1,-2.4822624E0,-5.569397E-2,-2.2652502E0,1.0309577E0,4.971536E0,-5.314239E-1,-2.6771324E0,2.6511155E-2,1.4993243E-1,-1.2093296E0,-7.927403E-2,-0E0,-3.9566804E-2,8.675514E-2,2.4648132E-2,2.8116927E-1,5.9801083E-2,-4.5757793E-2,-8.541082E-2,-0E0,7.6422706E-2,-6.4409055E-2],"categories":[],"categories_nodes":[],"categories_segments":[],"categories_sizes":[],"default_left":[0,0,0,0,0,0,0,0,0,0,0,0,0,0,0,0,0,0,0,0,0,0,0,0,0,0,0,0,0,0,0,0,0,0,0,0,0,0,0,0,0,0,0],"id":26,"left_children":[1,3,5,-1,7,-1,-1,9,11,13,15,-1,17,19,-1,-1,-1,21,-1,23,25,27,29,31,33,35,37,39,-1,-1,41,-1,-1,-1,-1,-1,-1,-1,-1,-1,-1,-1,-1],"loss_changes":[4.9813315E2,3.534956E2,3.5726743E2,0E0,3.228117E2,0E0,0E0,3.6740887E2,2.3208148E2,1.8937662E2,4.432184E2,0E0,1.6381567E2,1.765742E2,0E0,0E0,0E0,1.4821994E2,0E0,1.04813255E2,3.7722852E2,7.31886E1,2.2006755E2,3.585785E1,6.526082E1,2.8997177E2,1.23780594E2,4.3342346E1,0E0,0E0,1.19935074E2,0E0,0E0,0E0,0E0,0E0,0E0,0E0,0E0,0E0,0E0,0E0,0E0],"parents":[2147483647,0,0,1,1,2,2,4,4,7,7,8,8,9,9,10,10,12,12,13,13,17,17,19,19,20,20,21,21,22,22,23,23,24,24,25,25,26,26,27,27,30,30],"right_children":[2,4,6,-1,8,-1,-1,10,12,14,16,-1,18,20,-1,-1,-1,22,-1,24,26,28,30,32,34,36,38,40,-1,-1,42,-1,-1,-1,-1,-1,-1,-1,-1,-1,-1,-1,-1],"split_conditions":[2.3076923E0,1.2113E4,3.5276054E1,1.9272633E-1,4.8012737E1,-5.3095752E-3,2.6532546E-1,7.4942836E4,1.515E4,7.8666664E1,3.5E1,1.0962841E-1,6.287001E1,5.663427E2,1.3718773E-1,2.9936746E-1,-0E0,6.3145266E4,6.506542E-2,3.047619E0,3E0,2.136186E0,-6.3069326E-1,6.37E2,4E0,1.0144928E0,-3.2E1,5.7538E4,2.6511155E-2,1.4993243E-1,2.6780872E2,-7.927403E-2,-0E0,-3.9566804E-2,8.675514E-2,2.4648132E-2,2.8116927E-1,5.9801083E-2,-4.5757793E-2,-8.541082E-2,-0E0,7.6422706E-2,-6.4409055E-2],"split_indices":[85,156,111,0,124,0,0,136,154,117,139,0,131,54,0,0,0,138,0,73,164,125,71,58,139,85,81,69,0,0,172,0,0,0,0,0,0,0,0,0,0,0,0],"split_type":[0,0,0,0,0,0,0,0,0,0,0,0,0,0,0,0,0,0,0,0,0,0,0,0,0,0,0,0,0,0,0,0,0,0,0,0,0,0,0,0,0,0,0],"sum_hessian":[3.07E2,2.91E2,1.6E1,6E0,2.85E2,7E0,9E0,1.34E2,1.51E2,1.18E2,1.6E1,7E0,1.44E2,1.11E2,7E0,7E0,9E0,1.35E2,9E0,5.1E1,6E1,1.01E2,3.4E1,4E1,1.1E1,1.5E1,4.5E1,9.6E1,5E0,5E0,2.9E1,3.4E1,6E0,5E0,6E0,9E0,6E0,1.2E1,3.3E1,9E1,6E0,5E0,2.4E1],"tree_param":{"num_deleted":"0","num_feature":"175","num_nodes":"43","size_leaf_vector":"1"}},{"base_weights":[3.446622E-1,6.4525105E-2,5.0720453E0,1.5873666E-1,-1.0846163E-1,-2.4046511E-3,2.7779508E-1,-1.7215623E0,4.3274444E-1,-2.5848079E0,7.616814E-1,3.6268113E0,-3.4559216E-2,-9.250473E-2,-8.902458E-1,1.0657937E-1,-1.8819827E0,3.1982332E-1,8.4310037E-1,-4.281477E-1,3.5058727E0,2.8086344E-2,-6.670087E-2,-9.203575E-2,-2.609076E-3,-2.055768E0,3.884691E0,1.1671286E-1,-7.0226425E-1,2.4381968E-1,-8.8798153E-1,-1.0794298E-2,-8.889867E-2,2.3073262E-1,-2.8805668E-2,1.3433714E-1,-9.46462E-1,3.1344242E-2,-7.915472E-2,-4.2274486E-2,6.093129E-2],"categories":[],"categories_nodes":[],"categories_segments":[],"categories_sizes":[],"default_left":[0,0,0,0,0,0,0,0,0,0,0,0,0,0,0,0,0,0,0,0,0,0,0,0,0,0,0,0,0,0,0,0,0,0,0,0,0,0,0,0,0],"id":27,"left_children":[1,3,5,-1,7,-1,-1,9,11,13,15,17,19,-1,21,-1,23,-1,25,27,29,-1,-1,-1,-1,31,33,-1,35,-1,37,-1,-1,-1,-1,-1,39,-1,-1,-1,-1],"loss_changes":[4.2585532E2,2.8221713E2,3.9444836E2,0E0,2.6404037E2,0E0,0E0,1.6776645E2,3.393742E2,4.0690857E1,1.6915317E2,5.441072E2,2.7876437E2,0E0,4.376474E1,0E0,2.3432919E1,0E0,2.1968144E2,2.1813672E2,4.2417313E2,0E0,0E0,0E0,0E0,1.6214546E1,2.3943367E2,0E0,2.2428815E2,0E0,4.691067E1,0E0,0E0,0E0,0E0,0E0,2.3410373E2,0E0,0E0,0E0,0E0],"parents":[2147483647,0,0,1,1,2,2,4,4,7,7,8,8,9,9,10,10,11,11,12,12,14,14,16,16,18,18,19,19,20,20,25,25,26,26,28,28,30,30,36,36],"right_children":[2,4,6,-1,8,-1,-1,10,12,14,16,18,20,-1,22,-1,24,-1,26,28,30,-1,-1,-1,-1,32,34,-1,36,-1,38,-1,-1,-1,-1,-1,40,-1,-1,-1,-1],"split_conditions":[2.1E1,2.5733334E1,6E0,1.5873666E-1,3.5697E4,-2.4046511E-3,2.7779508E-1,8.1941E4,4.6965E4,4.38E1,6.116438E2,3E0,5.96E2,-9.250473E-2,5.3137E4,1.0657937E-1,5.9304436E1,3.1982332E-1,6.231446E2,1.576E3,1.437293E6,2.8086344E-2,-6.670087E-2,-9.203575E-2,-2.609076E-3,5.80642E4,1.4E1,1.1671286E-1,7.999987E-3,2.4381968E-1,5.480017E1,-1.0794298E-2,-8.889867E-2,2.3073262E-1,-2.8805668E-2,1.3433714E-1,6.95958E4,3.1344242E-2,-7.915472E-2,-4.2274486E-2,6.093129E-2],"split_indices":[74,114,141,0,155,0,0,154,155,121,55,1,58,0,157,0,115,0,55,47,48,0,0,0,0,138,139,0,162,0,115,0,0,0,0,0,137,0,0,0,0],"split_type":[0,0,0,0,0,0,0,0,0,0,0,0,0,0,0,0,0,0,0,0,0,0,0,0,0,0,0,0,0,0,0,0,0,0,0,0,0,0,0,0,0],"sum_hessian":[3.22E2,3.06E2,1.6E1,8E0,2.98E2,8E0,8E0,7.4E1,2.24E2,5.5E1,1.9E1,2.7E1,1.97E2,4.1E1,1.4E1,9E0,1E1,6E0,2.1E1,1.79E2,1.8E1,6E0,8E0,5E0,5E0,1.1E1,1E1,9E0,1.7E2,8E0,1E1,5E0,6E0,5E0,5E0,6E0,1.64E2,5E0,5E0,1.43E2,2.1E1],"tree_param":{"num_deleted":"0","num_feature":"175","num_nodes":"41","size_leaf_vector":"1"}},{"base_weights":[4.7195155E-2,2.5305042E0,-3.138514E-1,5.6568546E0,-1.8913524E0,9.0015864E-1,-1.0247785E0,-1.6826835E-2,7.819537E0,-1.1636299E-2,-7.610332E-2,-2.1372504E0,2.1722047E0,-2.5291507E0,-3.5582504E-1,3.186373E-1,7.805992E-2,-2.8145783E0,1.3536347E-2,3.2014E0,-9.0959646E-2,-3.0352197E0,3.0413767E-2,5.124018E0,-1.1582639E0,-9.9040225E-2,-1.6447049E-2,4.0729413E0,-4.603385E-2,-9.862297E-2,-2.7639719E-2,-4.562128E-2,2.539889E-1,1.673044E0,-1.7605675E0,6.4178233E0,1.1249615E0,4.4090605E0,-7.7856354E-2,-2.430683E0,1.653183E0,1.017984E0,9.126372E0,4.808567E0,-1.7471131E0,-2.4620095E-2,2.3835927E-1,-1.7605568E0,-9.7421624E-2,-2.7171668E-2,1.582023E-1,1.3479918E-1,-8.030287E-2,1.3405988E-1,3.3170778E-1,2.3138678E-1,1.37680955E-2,-8.997049E-2,5.7613365E-3,-6.751593E-2,6.201868E-3],"categories":[],"categories_nodes":[],"categories_segments":[],"categories_sizes":[],"default_left":[0,0,0,0,0,0,0,0,0,0,0,0,0,0,0,0,0,0,0,0,0,0,0,0,0,0,0,0,0,0,0,0,0,0,0,0,0,0,0,0,0,0,0,0,0,0,0,0,0,0,0,0,0,0,0,0,0,0,0,0,0],"id":28,"left_children":[1,3,5,7,9,11,13,-1,15,-1,-1,17,19,21,23,-1,-1,25,-1,27,-1,29,-1,31,33,-1,-1,35,-1,-1,-1,-1,-1,37,39,41,43,45,-1,47,49,51,53,55,57,-1,-1,59,-1,-1,-1,-1,-1,-1,-1,-1,-1,-1,-1,-1,-1],"loss_changes":[2.8243286E2,5.7625183E2,2.3838918E2,3.3512958E2,1.4036613E1,4.0340247E2,1.718634E2,0E0,2.0123987E2,0E0,0E0,5.8072006E1,4.104954E2,1.02192474E2,5.5074756E2,0E0,0E0,2.2034637E1,0E0,2.6967377E2,0E0,1.689618E1,0E0,3.845588E2,1.9181323E2,0E0,0E0,3.4816022E2,0E0,0E0,0E0,0E0,0E0,2.573522E2,2.1659766E2,4.0049304E2,2.934023E2,2.5702045E2,0E0,2.8203339E1,1.5995744E2,1.7904851E2,6.426514E1,1.4042758E2,4.1397587E1,0E0,0E0,4.7256638E1,0E0,0E0,0E0,0E0,0E0,0E0,0E0,0E0,0E0,0E0,0E0,0E0,0E0],"parents":[2147483647,0,0,1,1,2,2,3,3,4,4,5,5,6,6,8,8,11,11,12,12,13,13,14,14,17,17,19,19,21,21,23,23,24,24,27,27,33,33,34,34,35,35,36,36,37,37,39,39,40,40,41,41,42,42,43,43,44,44,47,47],"right_children":[2,4,6,8,10,12,14,-1,16,-1,-1,18,20,22,24,-1,-1,26,-1,28,-1,30,-1,32,34,-1,-1,36,-1,-1,-1,-1,-1,38,40,42,44,46,-1,48,50,52,54,56,58,-1,-1,60,-1,-1,-1,-1,-1,-1,-1,-1,-1,-1,-1,-1,-1],"split_conditions":[1.7200395E2,2.632E3,3.35E1,9.80847E1,4E0,3.682171E1,1.0738199E-1,-1.6826835E-2,2.3E1,-1.1636299E-2,-7.610332E-2,3.5E1,8E0,9.3901E4,2.1909842E-1,3.186373E-1,7.805992E-2,1.0057968E0,1.3536347E-2,5.7E1,-9.0959646E-2,8.9E1,3.0413767E-2,4.4309E4,2.3681E4,-9.9040225E-2,-1.6447049E-2,1.9999999E-1,-4.603385E-2,-9.862297E-2,-2.7639719E-2,-4.562128E-2,2.539889E-1,1.00256836E3,8.8202E4,2.3395868E1,-1.7280174E1,4.2781E4,-7.7856354E-2,5.601934E1,9.5846176E-1,5.0248E4,2.8633333E1,1.1052631E0,4.2666668E1,-2.4620095E-2,2.3835927E-1,5.314608E7,-9.7421624E-2,-2.7171668E-2,1.582023E-1,1.3479918E-1,-8.030287E-2,1.3405988E-1,3.3170778E-1,2.3138678E-1,1.37680955E-2,-8.997049E-2,5.7613365E-3,-6.751593E-2,6.201868E-3],"split_indices":[172,47,123,172,140,122,174,0,143,0,0,144,57,157,174,0,0,89,0,143,0,143,0,156,5,0,0,159,0,0,0,0,0,172,5,111,87,135,0,111,89,158,123,85,128,0,0,6,0,0,0,0,0,0,0,0,0,0,0,0,0],"split_type":[0,0,0,0,0,0,0,0,0,0,0,0,0,0,0,0,0,0,0,0,0,0,0,0,0,0,0,0,0,0,0,0,0,0,0,0,0,0,0,0,0,0,0,0,0,0,0,0,0,0,0,0,0,0,0,0,0,0,0,0,0],"sum_hessian":[3.1E2,3.8E1,2.72E2,2.2E1,1.6E1,1E2,1.72E2,6E0,1.6E1,6E0,1E1,2.9E1,7.1E1,5.1E1,1.21E2,9E0,7E0,2.3E1,6E0,6E1,1.1E1,4.5E1,6E0,1.4E1,1.07E2,1.8E1,5E0,5.1E1,9E0,3.9E1,6E0,5E0,9E0,1.8E1,8.9E1,2.7E1,2.4E1,1.1E1,7E0,7.5E1,1.4E1,1E1,1.7E1,1E1,1.4E1,5E0,6E0,4.5E1,3E1,9E0,5E0,5E0,5E0,7E0,1E1,5E0,5E0,8E0,6E0,3.6E1,9E0],"tree_param":{"num_deleted":"0","num_feature":"175","num_nodes":"61","size_leaf_vector":"1"}},{"base_weights":[2.8133017E-1,3.419644E-2,3.8553555E0,1.6085844E-1,-1.2367119E-1,-1.8263284E-2,7.346584E0,-4.6052852E-1,2.5340338E0,2.9522538E-1,8.0456056E-2,-6.4288104E-1,1.676083E-1,6.6702933E0,-1.8560075E0,1.3788794E-1,-8.240004E-1,9.1561E0,2.2970499E-3,4.9305293E-3,-8.805735E-2,1.4452764E0,-1.1750169E0,3.476173E-1,1.10705815E-1,1.9129385E-1,-7.329388E-1,-1.3710868E0,1.3123897E-1,-7.725945E-2,6.6065304E-2,-4.5384113E-2,9.72367E-2],"categories":[],"categories_nodes":[],"categories_segments":[],"categories_sizes":[],"default_left":[0,0,0,0,0,0,0,0,0,0,0,0,0,0,0,0,0,0,0,0,0,0,0,0,0,0,0,0,0,0,0,0,0],"id":29,"left_children":[1,3,5,-1,7,-1,9,11,13,-1,-1,15,-1,17,19,-1,21,23,-1,-1,-1,25,27,-1,-1,-1,29,31,-1,-1,-1,-1,-1],"loss_changes":[2.8661832E2,2.6299786E2,3.3960516E2,0E0,2.707727E2,0E0,8.0575195E1,3.013571E2,6.445513E2,0E0,0E0,2.5525201E2,0E0,2.8901465E2,4.1598312E1,0E0,2.0717905E2,7.959204E1,0E0,0E0,0E0,3.8811032E2,2.5314478E2,0E0,0E0,0E0,1.5212645E2,1.5078293E2,0E0,0E0,0E0,0E0,0E0],"parents":[2147483647,0,0,1,1,2,2,4,4,6,6,7,7,8,8,11,11,13,13,14,14,16,16,17,17,21,21,22,22,26,26,27,27],"right_children":[2,4,6,-1,8,-1,10,12,14,-1,-1,16,-1,18,20,-1,22,24,-1,-1,-1,26,28,-1,-1,-1,30,32,-1,-1,-1,-1,-1],"split_conditions":[2.3333333E0,2.5733334E1,4.2030373E1,1.6085844E-1,7.4942836E4,-1.8263284E-2,-4.9036E4,1.05666664E2,8.3874E4,2.9522538E-1,8.0456056E-2,-8.512986E-1,1.676083E-1,8.9561E4,7.0637336E4,1.3788794E-1,1.5999997E-2,1.606516E6,2.2970499E-3,4.9305293E-3,-8.805735E-2,2E0,8.800836E2,3.476173E-1,1.10705815E-1,1.9129385E-1,4.503073E1,1.48E2,1.3123897E-1,-7.725945E-2,6.6065304E-2,-4.5384113E-2,9.72367E-2],"split_indices":[85,114,113,0,136,0,69,126,155,0,0,71,0,158,137,0,162,48,0,0,0,76,54,0,0,0,111,167,0,0,0,0,0],"split_type":[0,0,0,0,0,0,0,0,0,0,0,0,0,0,0,0,0,0,0,0,0,0,0,0,0,0,0,0,0,0,0,0,0],"sum_hessian":[3.25E2,3.06E2,1.9E1,7E0,2.99E2,9E0,1E1,2.67E2,3.2E1,5E0,5E0,2.61E2,6E0,1.6E1,1.6E1,7E0,2.54E2,1.1E1,5E0,6E0,1E1,3.3E1,2.21E2,6E0,5E0,9E0,2.4E1,2.15E2,6E0,1.5E1,9E0,2.1E2,5E0],"tree_param":{"num_deleted":"0","num_feature":"175","num_nodes":"33","size_leaf_vector":"1"}},{"base_weights":[8.639628E-2,-1.8413928E-1,4.2419505E0,1.771264E-1,-3.2616648E-1,-8.916613E-2,2.59227E-1,-4.8550028E-1,1.4686988E-1,9.245791E-2,-9.918645E-2,2.3401215E0,-7.4442846E-1,4.8883843E0,-5.239394E-2,7.585138E-1,-1.3192241E0,1.766338E-2,2.4138379E-1,5.274144E0,-6.1312574E-1,-1.5129261E0,1.2897708E-1,3.186055E-1,1.545639E0,1.1392643E0,-2.5821817E0,-8.4829664E-1,-2.7484825E0,-6.10077E-2,1.5798011E-1,-5.8245275E-2,1.6900161E-1,-1.5432879E-2,-9.511828E-2,1.1760494E-1,-3.8370702E-2,-9.841737E-2,-3.18181E-2],"categories":[],"categories_nodes":[],"categories_segments":[],"categories_sizes":[],"default_left":[0,0,0,0,0,0,0,0,0,0,0,0,0,0,0,0,0,0,0,0,0,0,0,0,0,0,0,0,0,0,0,0,0,0,0,0,0,0,0],"id":30,"left_children":[1,3,5,-1,7,9,-1,11,-1,-1,-1,13,15,17,-1,19,21,-1,-1,23,25,27,-1,-1,29,31,33,35,37,-1,-1,-1,-1,-1,-1,-1,-1,-1,-1],"loss_changes":[3.6784012E2,2.656643E2,3.868641E2,0E0,2.5298477E2,1.4291005E2,0E0,2.1778644E2,0E0,0E0,0E0,2.789881E2,2.3639441E2,2.0344043E2,0E0,4.7952808E2,2.2601215E2,0E0,0E0,3.1987634E2,2.1363828E2,1.5120648E2,0E0,0E0,1.9614249E2,4.8061786E2,3.0180344E1,2.7160712E2,5.014618E1,0E0,0E0,0E0,0E0,0E0,0E0,0E0,0E0,0E0,0E0],"parents":[2147483647,0,0,1,1,2,2,4,4,5,5,7,7,11,11,12,12,13,13,15,15,16,16,19,19,20,20,21,21,24,24,25,25,26,26,27,27,28,28],"right_children":[2,4,6,-1,8,10,-1,12,-1,-1,-1,14,16,18,-1,20,22,-1,-1,24,26,28,-1,-1,30,32,34,36,38,-1,-1,-1,-1,-1,-1,-1,-1,-1,-1],"split_conditions":[2.1E1,2.19E1,1.2E1,1.771264E-1,5.8E1,3.0004117E0,2.59227E-1,7.999998E-3,1.4686988E-1,9.245791E-2,-9.918645E-2,1.499219E6,4E0,1.4E1,-5.239394E-2,-6.0210537E1,8.690416E1,1.766338E-2,2.4138379E-1,-5.288707E-1,5.8201234E4,4.545694E1,1.2897708E-1,3.186055E-1,8.039E4,5.4379E4,3.916388E1,-1.5E1,7.7E-1,-6.10077E-2,1.5798011E-1,-5.8245275E-2,1.6900161E-1,-1.5432879E-2,-9.511828E-2,1.1760494E-1,-3.8370702E-2,-9.841737E-2,-3.18181E-2],"split_indices":[74,123,141,0,3,116,0,68,0,0,0,48,143,141,0,87,127,0,0,71,138,109,0,0,157,137,122,83,90,0,0,0,0,0,0,0,0,0,0],"split_type":[0,0,0,0,0,0,0,0,0,0,0,0,0,0,0,0,0,0,0,0,0,0,0,0,0,0,0,0,0,0,0,0,0,0,0,0,0,0,0],"sum_hessian":[3.22E2,3.04E2,1.8E1,5E0,2.99E2,1E1,8E0,2.92E2,7E0,5E0,5E0,2.3E1,2.69E2,1.4E1,9E0,7.4E1,1.95E2,7E0,7E0,1.6E1,5.8E1,1.9E2,5E0,5E0,1.1E1,3.1E1,2.7E1,1.26E2,6.4E1,6E0,5E0,1.9E1,1.2E1,7E0,2E1,9E0,1.17E2,4.7E1,1.7E1],"tree_param":{"num_deleted":"0","num_feature":"175","num_nodes":"39","size_leaf_vector":"1"}}]},"name":"gbtree"},"learner_model_param":{"base_score":"[6.529114E0]","boost_from_average":"1","num_class":"0","num_feature":"175","num_target":"1"},"objective":{"name":"reg:squarederror","reg_loss_param":{"scale_pos_weight":"1"}}},"version":[3,2,0]}