{"learner":{"attributes":{"best_iteration":"5","best_score":"8.716195023865636","scikit_learn":"{\"_estimator_type\": \"regressor\"}"},"feature_names":[],"feature_types":[],"gradient_booster":{"model":{"cats":{"enc":[],"feature_segments":[],"sorted_idx":[]},"gbtree_model_param":{"num_parallel_tree":"1","num_trees":"36"},"iteration_indptr":[0,1,2,3,4,5,6,7,8,9,10,11,12,13,14,15,16,17,18,19,20,21,22,23,24,25,26,27,28,29,30,31,32,33,34,35,36],"tree_info":[0,0,0,0,0,0,0,0,0,0,0,0,0,0,0,0,0,0,0,0,0,0,0,0,0,0,0,0,0,0,0,0,0,0,0,0],"trees":[{"base_weights":[1.661985E-1,2.4587667E0,-8.807779E-1,4.659923E0,-2.578778E-1,-1.3039454E0,2.7964136E-1,2.6357393E0,3.7247986E-1,-2.0051632E0,1.7338894E-1,-6.262694E-1,-1.452029E-1,3.8957354E-1,2.961162E-1,8.66094E-2,-2.9365172E0,-2.4534411E0,1.0202923E0,5.8264766E0,-1.9504974E0,-5.068566E-1,-3.9270778E0,7.570253E-2,-3.0276399E0,2.5570253E-1,1.4869855E-1,-3.390598E-3,3.0518082E-1,-3.3618603E0,9.518083E-2,-7.624774E-2,4.8037972E-2,-3.168513E-2,-1.4360015E-1,-3.4689615E0,5.081487E-2,-1.4110959E0,3.8534927E0,-1.3671942E-1,1.8037973E-2,-3.9379747E0,6.7025297E-3,3.0764768E0,-2.3653307E0,9.326477E0,-4.337305E-1,-1.6851282E-3,-1.2967066E-1,-5.481917E-2,2.1518081E-1,-1.068111E-1,1.875279E-2,4.0803796E-1,6.9466546E-2,-8.0205694E-2,1.03752255E-1],"categories":[],"categories_nodes":[],"categories_segments":[],"categories_sizes":[],"default_left":[0,0,0,0,0,0,0,0,0,0,0,0,0,0,0,0,0,0,0,0,0,0,0,0,0,0,0,0,0,0,0,0,0,0,0,0,0,0,0,0,0,0,0,0,0,0,0,0,0,0,0,0,0,0,0,0,0],"id":0,"left_children":[1,3,5,7,9,11,-1,13,-1,15,-1,17,-1,19,-1,-1,21,23,25,27,29,31,33,-1,35,-1,37,-1,-1,39,-1,-1,-1,-1,-1,41,-1,43,45,-1,-1,47,-1,49,51,53,55,-1,-1,-1,-1,-1,-1,-1,-1,-1,-1],"loss_changes":[7.732049E2,6.0856006E2,9.744064E2,8.0620764E2,5.171059E2,5.0402655E2,0E0,7.509558E2,0E0,1.9012013E2,0E0,5.532793E2,0E0,5.0813113E2,0E0,0E0,7.322406E1,2.6415253E2,6.274777E2,3.1710135E2,2.2388602E2,6.008333E1,4.3727234E1,0E0,1.7725043E2,0E0,5.2640234E2,0E0,0E0,1.1642615E2,0E0,0E0,0E0,0E0,0E0,1.300365E2,0E0,2.8825885E2,6.4606213E2,0E0,0E0,9.431116E1,0E0,2.6992963E2,1.9889716E2,2.8869556E2,1.6629877E2,0E0,0E0,0E0,0E0,0E0,0E0,0E0,0E0,0E0,0E0],"parents":[2147483647,0,0,1,1,2,2,3,3,4,4,5,5,7,7,9,9,11,11,13,13,16,16,17,17,18,18,19,19,20,20,21,21,22,22,24,24,26,26,29,29,35,35,37,37,38,38,41,41,43,43,44,44,45,45,46,46],"right_children":[2,4,6,8,10,12,-1,14,-1,16,-1,18,-1,20,-1,-1,22,24,26,28,30,32,34,-1,36,-1,38,-1,-1,40,-1,-1,-1,-1,-1,42,-1,44,46,-1,-1,48,-1,50,52,54,56,-1,-1,-1,-1,-1,-1,-1,-1,-1,-1],"split_conditions":[3.0733334E1,2.589E3,1.82E2,2.9133333E1,2.1818182E0,5.63E2,2.7964136E-1,9.3971E4,3.7247986E-1,6.5563524E-1,1.7338894E-1,-3.8202247E-1,-1.452029E-1,3.4134E4,2.961162E-1,8.66094E-2,-8.703704E-1,-8.3756685E-1,1.7621E4,5.19906E4,2.471E3,5.473E4,3.9853813E1,7.570253E-2,8.8E1,2.5570253E-1,7.5341E4,-3.390598E-3,3.0518082E-1,5.661596E1,9.518083E-2,-7.624774E-2,4.8037972E-2,-3.168513E-2,-1.4360015E-1,9.3901E4,5.081487E-2,2.6788E4,1.38E2,-1.3671942E-1,1.8037973E-2,3.1766666E1,6.7025297E-3,2.6E1,7E1,6E0,6.78026E4,-1.6851282E-3,-1.2967066E-1,-5.481917E-2,2.1518081E-1,-1.068111E-1,1.875279E-2,4.0803796E-1,6.9466546E-2,-8.0205694E-2,1.03752255E-1],"split_indices":[132,47,143,132,80,58,0,155,0,169,0,78,0,158,0,0,82,125,156,137,47,155,124,0,167,0,156,0,0,129,0,0,0,0,0,158,0,155,58,0,0,132,0,77,141,143,137,0,0,0,0,0,0,0,0,0,0],"split_type":[0,0,0,0,0,0,0,0,0,0,0,0,0,0,0,0,0,0,0,0,0,0,0,0,0,0,0,0,0,0,0,0,0,0,0,0,0,0,0,0,0,0,0,0,0,0,0,0,0,0,0,0,0,0,0,0,0],"sum_hessian":[3.18E2,9.9E1,2.19E2,5.4E1,4.5E1,2.12E2,7E0,4.5E1,9E0,3.6E1,9E0,1.8E2,3.2E1,3.6E1,9E0,5E0,3.1E1,8.5E1,9.5E1,1E1,2.6E1,1E1,2.1E1,8E0,7.7E1,8E0,8.7E1,5E0,5E0,2.1E1,5E0,5E0,5E0,6E0,1.5E1,7.1E1,6E0,6.2E1,2.5E1,1.6E1,5E0,6.3E1,8E0,1E1,5.2E1,1E1,1.5E1,6E0,5.7E1,5E0,5E0,3.7E1,1.5E1,5E0,5E0,1E1,5E0],"tree_param":{"num_deleted":"0","num_feature":"175","num_nodes":"57","size_leaf_vector":"1"}},{"base_weights":[-2.3026285E-1,-5.103714E-1,2.7680388E-1,5.4425087E0,-8.370105E-1,3.0844998E-1,-5.7136968E-2,1.099896E0,-1.7362983E0,5.8761516E0,-4.4946063E-1,5.021858E0,-2.1496596E0,1.14668865E1,-1.5008824E-1,-3.509821E0,1.4220396E0,2.902728E-1,-2.9862953E-2,-2.5951233E0,2.3428133E0,1.3688512E-1,4.506976E-1,-1.01958126E-1,1.06018655E-1,-1.406907E-1,3.894809E-2,-3.273524E0,3.0991325E0,-3.0378242E0,2.4397035E0,2.2450712E-1,-9.649521E-2,-3.9737616E-2,-1.2293889E-1,7.630119E0,6.563284E-1,-3.289042E0,9.964139E-2,1.7313682E-1,-5.56706E-2,5.5972125E-2,3.3429113E-1,2.2159497E-1,-5.2195925E-2,-1.2011664E-1,-5.2583292E-2],"categories":[],"categories_nodes":[],"categories_segments":[],"categories_sizes":[],"default_left":[0,0,0,0,0,0,0,0,0,0,0,0,0,0,0,0,0,0,0,0,0,0,0,0,0,0,0,0,0,0,0,0,0,0,0,0,0,0,0,0,0,0,0,0,0,0,0],"id":1,"left_children":[1,3,-1,5,7,-1,-1,9,11,13,15,17,19,21,23,25,27,-1,-1,29,31,-1,-1,-1,-1,-1,-1,33,35,37,39,-1,-1,-1,-1,41,43,45,-1,-1,-1,-1,-1,-1,-1,-1,-1],"loss_changes":[8.2889996E2,5.979189E2,0E0,6.122112E2,5.0927026E2,0E0,0E0,6.962069E2,5.76073E2,7.839959E2,4.2340363E2,3.596498E2,3.9051898E2,1.4774963E2,1.7953313E2,1.7271439E2,3.8244818E2,0E0,0E0,4.0072546E2,5.646996E2,0E0,0E0,0E0,0E0,0E0,0E0,7.320633E0,3.7323196E2,2.7743958E2,2.3802988E2,0E0,0E0,0E0,0E0,1.9491327E2,4.3169598E2,1.5330579E2,0E0,0E0,0E0,0E0,0E0,0E0,0E0,0E0,0E0],"parents":[2147483647,0,0,1,1,3,3,4,4,7,7,8,8,9,9,10,10,11,11,12,12,13,13,14,14,15,15,16,16,19,19,20,20,27,27,28,28,29,29,30,30,35,35,36,36,37,37],"right_children":[2,4,-1,6,8,-1,-1,10,12,14,16,18,20,22,24,26,28,-1,-1,30,32,-1,-1,-1,-1,-1,-1,34,36,38,40,-1,-1,-1,-1,42,44,46,-1,-1,-1,-1,-1,-1,-1,-1,-1],"split_conditions":[1.48E2,2.5019611E1,2.7680388E-1,6.364067E2,5.251054E2,3.0844998E-1,-5.7136968E-2,9.6955985E-1,-7.5581527E-1,1.0350261E2,5.601858E2,2.1108E4,9.7228E4,6E0,1E0,8.6E1,5.3621784E1,2.902728E-1,-2.9862953E-2,1.5636302E3,-1E0,1.3688512E-1,4.506976E-1,-1.01958126E-1,1.06018655E-1,-1.406907E-1,3.894809E-2,-4.241E4,6.2066895E2,1.3823393E2,2.07E2,2.2450712E-1,-9.649521E-2,-3.9737616E-2,-1.2293889E-1,4.0066666E1,3.3333332E1,1.579168E6,9.964139E-2,1.7313682E-1,-5.56706E-2,5.5972125E-2,3.3429113E-1,2.2159497E-1,-5.2195925E-2,-1.2011664E-1,-5.2583292E-2],"split_indices":[168,131,0,55,54,0,0,169,71,56,55,155,155,141,77,142,56,0,0,67,79,0,0,0,0,0,0,69,55,171,58,0,0,0,0,112,114,48,0,0,0,0,0,0,0,0,0],"split_type":[0,0,0,0,0,0,0,0,0,0,0,0,0,0,0,0,0,0,0,0,0,0,0,0,0,0,0,0,0,0,0,0,0,0,0,0,0,0,0,0,0,0,0,0,0,0,0],"sum_hessian":[3.09E2,3.02E2,7E0,1.4E1,2.88E2,8E0,6E0,9.1E1,1.97E2,2.1E1,7E1,1E1,1.87E2,1E1,1.1E1,2.6E1,4.4E1,5E0,5E0,1.71E2,1.6E1,5E0,5E0,6E0,5E0,2.1E1,5E0,1.1E1,3.3E1,1.58E2,1.3E1,8E0,8E0,5E0,6E0,1E1,2.3E1,1.53E2,5E0,7E0,6E0,5E0,5E0,5E0,1.8E1,1.02E2,5.1E1],"tree_param":{"num_deleted":"0","num_feature":"175","num_nodes":"47","size_leaf_vector":"1"}},{"base_weights":[1.6691153E-1,-9.021224E-1,2.6024375E0,-3.030413E0,4.8878556E-1,5.725052E0,-1.9775715E-2,6.306034E-2,-3.4099898E0,3.4754586E0,-1.558783E0,3.5605147E0,4.2726818E-1,6.1248827E0,-1.9326569E0,2.2501055E-2,-3.7139924E0,-2.0245346E-1,8.8662815E0,3.148252E0,-2.6771674E0,4.1480628E-1,8.6334915E0,-2.4595078E-2,3.2198372E-1,-3.7157679E0,1.7390454E0,-0E0,-3.9827883E0,-3.0946229E0,2.5390464E-1,1.1628655E1,3.1873886E-2,2.5363952E-1,-8.406607E-2,-3.6696477E0,1.0870528E0,1.6062616E-1,-1.3304641E0,3.751176E-1,3.357258E-2,-2.0896027E-2,-1.3771152E-1,1.6080453E-1,-5.4318413E-2,-4.242373E0,-1.0889791E-2,-3.95655E0,1.2811209E-2,4.6928072E-1,1.0924341E-1,-1.3291046E-1,-2.4736626E0,1.477967E-1,-1.0324958E-1,-3.368661E0,1.0037413E-1,-4.4846177E0,-5.048807E-2,-1.4152174E-1,-2.7207626E-2,-1.1699086E-1,1.4606952E-4,-4.0628247E-2,-1.21649966E-1,-6.284248E-2,-1.4162064E-1],"categories":[],"categories_nodes":[],"categories_segments":[],"categories_sizes":[],"default_left":[0,0,0,0,0,0,0,0,0,0,0,0,0,0,0,0,0,0,0,0,0,0,0,0,0,0,0,0,0,0,0,0,0,0,0,0,0,0,0,0,0,0,0,0,0,0,0,0,0,0,0,0,0,0,0,0,0,0,0,0,0,0,0,0,0,0,0],"id":2,"left_children":[1,3,5,7,9,11,13,-1,15,17,19,21,-1,23,25,-1,27,29,31,33,35,37,39,-1,-1,41,43,-1,45,47,-1,49,-1,-1,-1,51,53,-1,55,-1,-1,-1,-1,-1,-1,57,-1,59,-1,-1,-1,-1,61,-1,-1,63,-1,65,-1,-1,-1,-1,-1,-1,-1,-1,-1],"loss_changes":[8.022655E2,6.377281E2,7.7276624E2,1.8058228E2,8.12913E2,6.8242017E2,6.445405E2,0E0,1.0822589E2,1.0785784E3,4.3249902E2,5.787634E2,0E0,4.3856287E2,2.8888837E2,0E0,7.585181E1,9.018529E2,4.431997E2,5.554172E2,2.5210394E2,2.3177373E2,3.7237817E2,0E0,0E0,6.754132E1,2.1399043E2,0E0,6.0392456E1,8.710022E1,0E0,3.8940894E2,0E0,0E0,0E0,2.1938538E1,2.9547324E2,0E0,2.1317632E2,0E0,0E0,0E0,0E0,0E0,0E0,2.2122314E1,0E0,3.967746E1,0E0,0E0,0E0,0E0,9.034706E1,0E0,0E0,7.0504456E0,0E0,9.537231E0,0E0,0E0,0E0,0E0,0E0,0E0,0E0,0E0,0E0],"parents":[2147483647,0,0,1,1,2,2,3,3,4,4,5,5,6,6,8,8,9,9,10,10,11,11,13,13,14,14,16,16,17,17,18,18,19,19,20,20,21,21,22,22,25,25,26,26,28,28,29,29,31,31,35,35,36,36,38,38,45,45,47,47,52,52,55,55,57,57],"right_children":[2,4,6,8,10,12,14,-1,16,18,20,22,-1,24,26,-1,28,30,32,34,36,38,40,-1,-1,42,44,-1,46,48,-1,50,-1,-1,-1,52,54,-1,56,-1,-1,-1,-1,-1,-1,58,-1,60,-1,-1,-1,-1,62,-1,-1,64,-1,66,-1,-1,-1,-1,-1,-1,-1,-1,-1],"split_conditions":[7.560157E-2,7.7310165E1,2.24E2,-8.457897E-1,4.9480447E2,1.94E2,3.8341218E-1,6.306034E-2,3.6970337E1,2.1262165E1,1.095004E6,7.5391E4,4.2726818E-1,6.2957E4,1.27E2,2.2501055E-2,-9.72973E-1,8.3062E4,6.3388973E1,5.5971734E4,4.1E1,2.81E1,5.8898216E1,-2.4595078E-2,3.2198372E-1,5.4E1,5.9496465E4,-0E0,1.01062E5,8.2967E4,2.5390464E-1,5E-1,3.1873886E-2,2.5363952E-1,-8.406607E-2,1.0399997E-1,4.4266666E1,1.6062616E-1,3.9E1,3.751176E-1,3.357258E-2,-2.0896027E-2,-1.3771152E-1,1.6080453E-1,-5.4318413E-2,4E0,-1.0889791E-2,7.3948E4,1.2811209E-2,4.6928072E-1,1.0924341E-1,-1.3291046E-1,4.5275364E-2,1.477967E-1,-1.0324958E-1,1.2462845E7,1.0037413E-1,-7.3945445E-1,-5.048807E-2,-1.4152174E-1,-2.7207626E-2,-1.1699086E-1,1.4606952E-4,-4.0628247E-2,-1.21649966E-1,-6.284248E-2,-1.4162064E-1],"split_indices":[134,56,58,125,172,58,116,0,133,67,48,154,0,5,77,0,84,155,115,138,148,123,127,0,0,72,137,0,5,154,0,103,0,0,0,159,114,0,167,0,0,0,0,0,0,74,0,157,0,0,0,0,174,0,0,70,0,116,0,0,0,0,0,0,0,0,0],"split_type":[0,0,0,0,0,0,0,0,0,0,0,0,0,0,0,0,0,0,0,0,0,0,0,0,0,0,0,0,0,0,0,0,0,0,0,0,0,0,0,0,0,0,0,0,0,0,0,0,0,0,0,0,0,0,0,0,0,0,0,0,0,0,0,0,0,0,0],"sum_hessian":[3.04E2,2.12E2,9.2E1,8.3E1,1.29E2,4.1E1,5.1E1,5E0,7.8E1,5.2E1,7.7E1,3.5E1,6E0,1.1E1,4E1,5E0,7.3E1,3.2E1,2E1,1.4E1,6.3E1,2.3E1,1.2E1,5E0,6E0,2.7E1,1.3E1,5E0,6.8E1,2.5E1,7E0,1.4E1,6E0,7E0,7E0,5E1,1.3E1,5E0,1.8E1,7E0,5E0,7E0,2E1,6E0,7E0,6.3E1,5E0,2E1,5E0,8E0,6E0,2.7E1,2.3E1,7E0,6E0,1.3E1,5E0,5.6E1,7E0,1.5E1,5E0,1.4E1,9E0,5E0,8E0,7E0,4.9E1],"tree_param":{"num_deleted":"0","num_feature":"175","num_nodes":"67","size_leaf_vector":"1"}},{"base_weights":[1.2279427E-2,-2.8315067E-1,2.5627205E-1,8.5203016E-1,-2.3139453E0,4.1750216E0,-4.2726228E-1,-2.8693964E0,1.7012845E0,8.523923E0,9.400596E-1,-1.2463534E0,4.9555106E0,-3.757456E-1,-3.588659E0,-7.065018E-2,2.1243997E-1,1.11259775E1,-2.7083283E-2,-7.9369885E-1,2.1157257E-1,1.6602322E-1,-1.8413727E0,8.273989E0,-0E0,-2.1118176E0,1.3861163E-1,-4.3354907E0,-1.8383105E0,1.2842609E-1,4.3091437E-1,1.0414736E-1,-2.7730026E0,-2.3120487E0,1.3579373E-1,3.0503592E-1,1.1834064E-1,-1.0799426E-1,2.8728638E-2,-6.08477E-2,-1.376261E-1,-3.4007115E0,1.0577686E-1,-1.3399915E-1,3.0999456E-2,2.7324467E0,-2.9576685E0,-3.4410175E-2,-1.279852E-1,-4.9727622E-2,2.3002517E-1,-1.1228365E-1,-2.8984023E-2],"categories":[],"categories_nodes":[],"categories_segments":[],"categories_sizes":[],"default_left":[0,0,0,0,0,0,0,0,0,0,0,0,0,0,0,0,0,0,0,0,0,0,0,0,0,0,0,0,0,0,0,0,0,0,0,0,0,0,0,0,0,0,0,0,0,0,0,0,0,0,0,0,0],"id":3,"left_children":[1,3,-1,5,7,9,11,13,15,17,19,21,23,25,27,-1,-1,29,-1,31,-1,-1,33,35,-1,37,-1,39,41,-1,-1,-1,43,45,-1,-1,-1,-1,-1,-1,-1,47,-1,-1,-1,49,51,-1,-1,-1,-1,-1,-1],"loss_changes":[8.279851E2,7.331549E2,0E0,8.726614E2,2.6459747E2,7.811483E2,6.674363E2,1.7647351E2,3.6306192E2,6.13891E2,3.8523175E2,5.4705457E2,3.3036496E2,2.3510173E2,8.293585E1,0E0,0E0,2.8880176E2,0E0,2.6373022E2,0E0,0E0,3.8548004E2,1.11154785E1,0E0,9.956156E1,0E0,8.903809E0,2.502066E2,0E0,0E0,0E0,1.463244E2,3.9081097E2,0E0,0E0,0E0,0E0,0E0,0E0,0E0,3.0417664E1,0E0,0E0,0E0,3.3173514E2,1.514635E2,0E0,0E0,0E0,0E0,0E0,0E0],"parents":[2147483647,0,0,1,1,3,3,4,4,5,5,6,6,7,7,8,8,9,9,10,10,11,11,12,12,13,13,14,14,17,17,19,19,22,22,23,23,25,25,27,27,28,28,32,32,33,33,41,41,45,45,46,46],"right_children":[2,4,-1,6,8,10,12,14,16,18,20,22,24,26,28,-1,-1,30,-1,32,-1,-1,34,36,-1,38,-1,40,42,-1,-1,-1,44,46,-1,-1,-1,-1,-1,-1,-1,48,-1,-1,-1,50,52,-1,-1,-1,-1,-1,-1],"split_conditions":[1.82E2,3.99E2,2.5627205E-1,3.07E1,1.01062E5,-1.2317E4,6.053028E7,4.8617218E2,6.7702336E4,2.67E2,8.5589E4,-8.282372E-1,1.1E1,4.3533333E1,3.94792E6,-7.065018E-2,2.1243997E-1,3E0,-2.7083283E-2,2.8066668E1,2.1157257E-1,1.6602322E-1,3.38E2,6.846167E1,-0E0,2.429664E0,1.3861163E-1,1.6642E4,8.660254E-1,1.2842609E-1,4.3091437E-1,1.0414736E-1,4.3152332E1,2.317E4,1.3579373E-1,3.0503592E-1,1.1834064E-1,-1.0799426E-1,2.8728638E-2,-6.08477E-2,-1.376261E-1,3.3133335E1,1.0577686E-1,-1.3399915E-1,3.0999456E-2,8E0,2.1704E4,-3.4410175E-2,-1.279852E-1,-4.9727622E-2,2.3002517E-1,-1.1228365E-1,-2.8984023E-2],"split_indices":[143,58,0,132,157,69,6,54,135,58,155,125,143,112,49,0,0,77,0,114,0,0,58,127,0,169,0,154,103,0,0,0,131,155,0,0,0,0,0,0,0,112,0,0,0,141,69,0,0,0,0,0,0],"split_type":[0,0,0,0,0,0,0,0,0,0,0,0,0,0,0,0,0,0,0,0,0,0,0,0,0,0,0,0,0,0,0,0,0,0,0,0,0,0,0,0,0,0,0,0,0,0,0,0,0,0,0,0,0],"sum_hessian":[3.23E2,3.14E2,9E0,2.02E2,1.12E2,5.5E1,1.47E2,9.9E1,1.3E1,2.2E1,3.3E1,1.29E2,1.8E1,2.3E1,7.6E1,8E0,5E0,1.7E1,5E0,2.7E1,6E0,9E0,1.2E2,1E1,8E0,1.8E1,5E0,5.1E1,2.5E1,7E0,1E1,8E0,1.9E1,1.13E2,7E0,5E0,5E0,1.2E1,6E0,7E0,4.4E1,2E1,5E0,1.3E1,6E0,1.2E1,1.01E2,7E0,1.3E1,7E0,5E0,7.1E1,3E1],"tree_param":{"num_deleted":"0","num_feature":"175","num_nodes":"53","size_leaf_vector":"1"}},{"base_weights":[-1.7951201E-1,-5.2542806E-1,5.846969E0,-1.3224735E0,1.3345499E0,-8.3854966E-2,1.0675564E1,4.532846E0,-1.704433E0,-1.6230932E0,4.0713525E0,1.128107E-1,4.3407544E-1,-6.4309426E-2,3.0415884E-1,4.3755877E-1,-2.8401885E0,2.494209E0,-3.1915517E0,1.0101792E1,3.3738074E-1,-1.2982544E0,5.625255E0,6.0857754E-2,-3.0591362E0,-7.2120786E-2,2.0494175E-1,-3.928365E0,2.4199903E-2,4.2175658E-2,3.89128E-1,3.6846983E0,-3.217118E0,-2.3546102E0,2.0545384E-1,-3.688257E-2,9.870385E0,-3.3993347E0,5.39502E-1,-5.08266E-2,-1.3317779E-1,6.2967153E0,-6.4425975E-2,-1.1800003E-1,-2.9961405E-2,-3.2869298E0,6.0981876E-1,4.3232536E-1,7.315157E-2,-3.7183368E0,-6.159419E-1,8.286697E-2,-6.2504284E-2,3.0027354E-1,4.235051E-2,-1.1581623E-1,-0E0,-7.813666E-2,1.391934E-1,-1.2311896E-1,-6.913268E-3,-8.32779E-2,7.722931E-2],"categories":[],"categories_nodes":[],"categories_segments":[],"categories_sizes":[],"default_left":[0,0,0,0,0,0,0,0,0,0,0,0,0,0,0,0,0,0,0,0,0,0,0,0,0,0,0,0,0,0,0,0,0,0,0,0,0,0,0,0,0,0,0,0,0,0,0,0,0,0,0,0,0,0,0,0,0,0,0,0,0,0,0],"id":4,"left_children":[1,3,5,7,9,-1,11,13,15,17,19,-1,-1,-1,-1,21,23,25,27,29,31,33,35,-1,37,-1,-1,39,-1,-1,-1,41,43,45,-1,-1,47,49,51,-1,-1,53,-1,-1,-1,55,57,-1,-1,59,61,-1,-1,-1,-1,-1,-1,-1,-1,-1,-1,-1,-1],"loss_changes":[6.914203E2,4.6902466E2,8.1474854E2,5.0830298E2,7.834166E2,0E0,1.968706E2,5.7144226E2,5.121377E2,3.1978687E2,1.1138387E3,0E0,0E0,0E0,0E0,6.8313E2,1.5896973E2,3.3248297E2,1.1100641E2,4.3038855E2,4.165772E2,5.205363E2,5.814709E2,0E0,1.6669897E2,0E0,0E0,1.6133484E1,0E0,0E0,0E0,3.0332928E2,1.6688004E1,1.4906479E2,0E0,0E0,3.262334E2,1.0068921E2,8.7641716E1,0E0,0E0,2.017879E2,0E0,0E0,0E0,7.457214E1,2.0654E2,0E0,0E0,1.4120471E2,1.1775664E2,0E0,0E0,0E0,0E0,0E0,0E0,0E0,0E0,0E0,0E0,0E0,0E0],"parents":[2147483647,0,0,1,1,2,2,3,3,4,4,6,6,7,7,8,8,9,9,10,10,15,15,16,16,17,17,18,18,19,19,20,20,21,21,22,22,24,24,27,27,31,31,32,32,33,33,36,36,37,37,38,38,41,41,45,45,46,46,49,49,50,50],"right_children":[2,4,6,8,10,-1,12,14,16,18,20,-1,-1,-1,-1,22,24,26,28,30,32,34,36,-1,38,-1,-1,40,-1,-1,-1,42,44,46,-1,-1,48,50,52,-1,-1,54,-1,-1,-1,56,58,-1,-1,60,62,-1,-1,-1,-1,-1,-1,-1,-1,-1,-1,-1,-1],"split_conditions":[1.07E2,1.640632E6,9E0,-8.282372E-1,-2.5E-1,-8.3854966E-2,1.210152E6,2.2333334E1,3.2166668E1,3.9197E4,5.4393274E2,1.128107E-1,4.3407544E-1,-6.4309426E-2,3.0415884E-1,3.05E1,1.2484E4,1.406176E6,8.889202E1,1.3333333E1,6.364067E2,9.3971E4,6E0,6.0857754E-2,1.5556412E3,-7.2120786E-2,2.0494175E-1,2.3086338E1,2.4199903E-2,4.2175658E-2,3.89128E-1,1.3833333E1,7.4232196E2,8.071E4,2.0545384E-1,-3.688257E-2,2.518E3,9.6613E4,1.461544E6,-5.08266E-2,-1.3317779E-1,5.9996934E4,-6.4425975E-2,-1.1800003E-1,-2.9961405E-2,8.2702E4,6.3999996E-2,4.3232536E-1,7.315157E-2,8.083522E1,3.9666668E1,8.286697E-2,-6.2504284E-2,3.0027354E-1,4.235051E-2,-1.1581623E-1,-0E0,-7.813666E-2,1.391934E-1,-1.2311896E-1,-6.913268E-3,-8.32779E-2,7.722931E-2],"split_indices":[168,48,0,125,80,0,48,128,123,158,54,0,0,0,0,123,158,6,171,108,55,155,148,0,67,0,0,171,0,0,0,80,54,157,0,0,47,5,48,0,0,137,0,0,0,155,159,0,0,127,130,0,0,0,0,0,0,0,0,0,0,0,0],"split_type":[0,0,0,0,0,0,0,0,0,0,0,0,0,0,0,0,0,0,0,0,0,0,0,0,0,0,0,0,0,0,0,0,0,0,0,0,0,0,0,0,0,0,0,0,0,0,0,0,0,0,0,0,0,0,0,0,0,0,0,0,0,0,0],"sum_hessian":[3.28E2,3.12E2,1.6E1,2.19E2,9.3E1,6E0,1E1,1.2E1,2.07E2,4.5E1,4.8E1,5E0,5E0,6E0,6E0,7.2E1,1.35E2,1.2E1,3.3E1,1.7E1,3.1E1,5.5E1,1.7E1,5E0,1.3E2,6E0,6E0,2.8E1,5E0,5E0,1.2E1,1.6E1,1.5E1,5E1,5E0,7E0,1E1,1.19E2,1.1E1,7E0,2.1E1,1.1E1,5E0,1E1,5E0,3.8E1,1.2E1,5E0,5E0,1.06E2,1.3E1,6E0,5E0,5E0,6E0,3.2E1,6E0,7E0,5E0,9.5E1,1.1E1,8E0,5E0],"tree_param":{"num_deleted":"0","num_feature":"175","num_nodes":"63","size_leaf_vector":"1"}},{"base_weights":[-6.711503E-2,-2.0510254E0,9.412131E-1,8.204305E-1,-3.3840358E0,3.85396E0,-3.5391176E-1,-2.00956E0,3.4518785E0,-3.9250019E0,-1.1469808E0,3.4870932E-1,6.758429E0,1.3230292E0,-2.6375005E0,-0E0,-1.158455E-1,6.825894E0,-3.711947E-2,-2.3411833E-2,-1.2506911E-1,-8.883912E-2,5.3962495E-2,2.4948229E-1,-2.0193038E0,-4.763006E-2,8.1773615E0,3.1730625E-1,4.042574E-1,-3.3294563E0,1.2223629E-1,2.9693225E-1,5.197083E-2,8.8480055E-2,-1.22347824E-1,2.346642E0,1.059163E1,-3.575388E0,2.4235766E0,-3.7628434E0,-0E0,1.9720718E-1,-7.437989E-2,4.0434352E-1,1.3146661E-1,1.992649E-2,-1.360447E-1,-2.948364E0,4.49443E0,6.6726226E-3,-4.1887856E0,-1.16082184E-1,-1.3668492E-2,1.2514838E0,7.306064E0,-4.4832338E-2,-1.3247018E-1,1.6786464E-1,-4.4653494E-2,3.0763906E-1,7.342677E-2],"categories":[],"categories_nodes":[],"categories_segments":[],"categories_sizes":[],"default_left":[0,0,0,0,0,0,0,0,0,0,0,0,0,0,0,0,0,0,0,0,0,0,0,0,0,0,0,0,0,0,0,0,0,0,0,0,0,0,0,0,0,0,0,0,0,0,0,0,0,0,0,0,0,0,0,0,0,0,0,0,0],"id":5,"left_children":[1,3,5,7,9,11,13,15,17,19,21,23,25,27,29,-1,-1,31,-1,-1,-1,-1,-1,-1,33,-1,35,-1,37,39,-1,-1,-1,-1,-1,41,43,45,47,49,-1,-1,-1,-1,-1,-1,-1,51,53,-1,55,-1,-1,57,59,-1,-1,-1,-1,-1,-1],"loss_changes":[6.6455853E2,4.355348E2,8.3439954E2,2.9013266E2,8.164331E1,6.840336E2,5.973705E2,7.238482E1,3.3611417E2,3.7816833E1,1.0743572E2,6.593391E2,4.6743494E2,7.5115344E2,3.3329233E2,0E0,0E0,1.4765076E2,0E0,0E0,0E0,0E0,0E0,0E0,3.0083658E2,0E0,3.9428296E2,0E0,6.917932E2,8.838342E1,0E0,0E0,0E0,0E0,0E0,2.7943185E2,2.6725586E2,1.25920715E2,6.61372E2,9.551111E1,0E0,0E0,0E0,0E0,0E0,0E0,0E0,3.33423E1,3.6038947E2,0E0,1.3801941E1,0E0,0E0,2.8056094E2,2.586156E2,0E0,0E0,0E0,0E0,0E0,0E0],"parents":[2147483647,0,0,1,1,2,2,3,3,4,4,5,5,6,6,7,7,8,8,9,9,10,10,11,11,12,12,13,13,14,14,17,17,24,24,26,26,28,28,29,29,35,35,36,36,37,37,38,38,39,39,47,47,48,48,50,50,53,53,54,54],"right_children":[2,4,6,8,10,12,14,16,18,20,22,24,26,28,30,-1,-1,32,-1,-1,-1,-1,-1,-1,34,-1,36,-1,38,40,-1,-1,-1,-1,-1,42,44,46,48,50,-1,-1,-1,-1,-1,-1,-1,52,54,-1,56,-1,-1,58,60,-1,-1,-1,-1,-1,-1],"split_conditions":[-6.181818E-1,3.0933332E1,5.251054E2,6.06614E4,4.29085E6,2.6E1,6.3914886E2,4.24E2,6.2738066E4,2.297912E6,1.4E1,2E0,2.7333334E1,3.827751E1,1.49E2,-0E0,-1.158455E-1,3.35E2,-3.711947E-2,-2.3411833E-2,-1.2506911E-1,-8.883912E-2,5.3962495E-2,2.4948229E-1,1.2077527E1,-4.763006E-2,4.1635323E1,3.1730625E-1,4E0,6.3E1,1.2223629E-1,2.9693225E-1,5.197083E-2,8.8480055E-2,-1.22347824E-1,3.4133335E1,4.4E-1,1.3E1,5.109321E1,5.713628E1,-0E0,1.9720718E-1,-7.437989E-2,4.0434352E-1,1.3146661E-1,1.992649E-2,-1.360447E-1,1.2720189E2,6.8297235E2,6.6726226E-3,8.5E0,-1.16082184E-1,-1.3668492E-2,2.4E1,6.1093465E4,-4.4832338E-2,-1.3247018E-1,1.6786464E-1,-4.4653494E-2,3.0763906E-1,7.342677E-2],"split_indices":[82,132,54,137,49,126,55,58,138,49,143,72,132,124,143,0,0,58,0,0,0,0,0,0,120,0,129,0,139,147,0,0,0,0,0,123,163,58,115,56,0,0,0,0,0,0,0,56,54,0,110,0,0,58,137,0,0,0,0,0,0],"split_type":[0,0,0,0,0,0,0,0,0,0,0,0,0,0,0,0,0,0,0,0,0,0,0,0,0,0,0,0,0,0,0,0,0,0,0,0,0,0,0,0,0,0,0,0,0,0,0,0,0,0,0,0,0,0,0,0,0,0,0,0,0],"sum_hessian":[3.28E2,1.1E2,2.18E2,3.5E1,7.5E1,6.6E1,1.52E2,1.7E1,1.8E1,5.9E1,1.6E1,3.1E1,3.5E1,8.8E1,6.4E1,9E0,8E0,1E1,8E0,5E0,5.4E1,1E1,6E0,6E0,2.5E1,5E0,3E1,6E0,8.2E1,5.9E1,5E0,5E0,5E0,7E0,1.8E1,1E1,2E1,2.7E1,5.5E1,5.2E1,7E0,5E0,5E0,1.2E1,8E0,5E0,2.2E1,1.5E1,4E1,5E0,4.7E1,1E1,5E0,2E1,2E1,5E0,4.2E1,7E0,1.3E1,1.1E1,9E0],"tree_param":{"num_deleted":"0","num_feature":"175","num_nodes":"61","size_leaf_vector":"1"}},{"base_weights":[-9.788431E-2,1.2480056E0,-1.2987937E0,5.0337977E0,-4.6211514E-1,4.160177E0,-1.944189E0,1.11920595E1,1.624429E0,2.0621766E-1,-1.229864E0,8.301845E0,-9.089602E-2,-4.5141846E-1,-2.9071958E0,1.8116829E-1,4.431882E-1,-1.9165193E0,5.4361925E0,-2.437093E0,1.5316052E0,4.024688E-2,3.8456225E-1,-1.5743595E0,1.6621359E-1,4.7063578E-2,-3.2702134E0,-1.1047058E-1,5.5171024E-2,-2.8507559E-2,2.5672048E-1,8.8899024E-2,-2.9762638E0,-2.5842862E0,3.8729796E0,-2.6093566E0,1.0043997E-1,-3.5646257E0,2.7460774E-2,-3.534418E0,4.837149E-2,-1.0541208E-1,-2.5351211E-2,2.6836163E-1,3.8546365E-1,-3.6419308E0,7.9554385E-1,-1.2885747E-2,-3.7580912E0,-4.0253077E0,-1.2637959E-2,8.175034E-2,-7.98369E-2,-1.335747E-1,-1.7543075E0,1.3355517E-1,-9.049865E-2,-4.098005E-2,-4.039581E0,-1.266607E-1,-4.78618E-2,2.3239087E-3,-1.10389195E-1,-4.132919E-2,-1.2765336E-1],"categories":[],"categories_nodes":[],"categories_segments":[],"categories_sizes":[],"default_left":[0,0,0,0,0,0,0,0,0,0,0,0,0,0,0,0,0,0,0,0,0,0,0,0,0,0,0,0,0,0,0,0,0,0,0,0,0,0,0,0,0,0,0,0,0,0,0,0,0,0,0,0,0,0,0,0,0,0,0,0,0,0,0,0,0],"id":6,"left_children":[1,3,5,7,9,11,13,15,17,-1,19,21,-1,23,25,-1,-1,27,29,31,33,-1,-1,35,-1,-1,37,-1,-1,-1,-1,-1,39,41,43,45,-1,47,-1,49,-1,-1,-1,-1,51,53,55,-1,57,59,-1,-1,-1,-1,61,-1,-1,-1,63,-1,-1,-1,-1,-1,-1],"loss_changes":[5.0431766E2,9.586401E2,5.963954E2,9.2303625E2,5.942061E2,5.889608E2,2.0989069E2,1.06411255E2,4.5450922E2,0E0,3.2462207E2,3.3579205E2,0E0,4.2590198E2,1.5734857E2,0E0,0E0,1.3383588E2,3.3899637E2,2.1273175E2,3.097674E2,0E0,0E0,2.8711816E2,0E0,0E0,1.11362305E2,0E0,0E0,0E0,0E0,0E0,1.7115143E2,1.1280609E1,3.422404E2,1.6542932E2,0E0,4.2594055E1,0E0,7.996521E1,0E0,0E0,0E0,0E0,1.1432605E2,3.4825623E1,1.948375E2,0E0,3.6088623E1,6.563904E0,0E0,0E0,0E0,0E0,5.1745922E1,0E0,0E0,0E0,2.2752197E1,0E0,0E0,0E0,0E0,0E0,0E0],"parents":[2147483647,0,0,1,1,2,2,3,3,4,4,5,5,6,6,7,7,8,8,10,10,11,11,13,13,14,14,17,17,18,18,19,19,20,20,23,23,26,26,32,32,33,33,34,34,35,35,37,37,39,39,44,44,45,45,46,46,48,48,49,49,54,54,58,58],"right_children":[2,4,6,8,10,12,14,16,18,-1,20,22,-1,24,26,-1,-1,28,30,32,34,-1,-1,36,-1,-1,38,-1,-1,-1,-1,-1,40,42,44,46,-1,48,-1,50,-1,-1,-1,-1,52,54,56,-1,58,60,-1,-1,-1,-1,62,-1,-1,-1,64,-1,-1,-1,-1,-1,-1],"split_conditions":[2.67E2,3.06E1,1.9017E4,-1.2317E4,-8.3366126E-1,9E0,4.9146E4,8.6178E4,7.4199E4,2.0621766E-1,5.196904E1,1.664E4,-9.089602E-2,8.8378E4,7.868379E-1,1.8116829E-1,4.431882E-1,3.7333E4,9E0,-7.5581527E-1,-5.6849325E-1,4.024688E-2,3.8456225E-1,4.4333332E1,1.6621359E-1,4.7063578E-2,4.35E1,-1.1047058E-1,5.5171024E-2,-2.8507559E-2,2.5672048E-1,8.8899024E-2,1.28E2,1.7966832E0,8E0,1.63931E6,1.0043997E-1,2.3414E4,2.7460774E-2,1.530105E2,4.837149E-2,-1.0541208E-1,-2.5351211E-2,2.6836163E-1,5.1933334E1,5.237113E-1,1.1193122E0,-1.2885747E-2,1.5999986E-2,5.3E1,-1.2637959E-2,8.175034E-2,-7.98369E-2,-1.335747E-1,1.5E1,1.3355517E-1,-9.049865E-2,-4.098005E-2,-9.375E-1,-1.266607E-1,-4.78618E-2,2.3239087E-3,-1.10389195E-1,-4.132919E-2,-1.2765336E-1],"split_indices":[58,132,156,69,134,151,158,154,155,0,131,69,0,155,169,0,0,69,143,71,134,0,0,121,0,0,80,0,0,0,0,0,147,169,143,48,0,156,0,56,0,0,0,0,112,174,88,0,162,79,0,0,0,0,151,0,0,0,80,0,0,0,0,0,0],"split_type":[0,0,0,0,0,0,0,0,0,0,0,0,0,0,0,0,0,0,0,0,0,0,0,0,0,0,0,0,0,0,0,0,0,0,0,0,0,0,0,0,0,0,0,0,0,0,0,0,0,0,0,0,0,0,0,0,0,0,0,0,0,0,0,0,0],"sum_hessian":[3.08E2,1.45E2,1.63E2,4.4E1,1.01E2,1.6E1,1.47E2,1.4E1,3E1,8E0,9.3E1,1E1,6E0,5.9E1,8.8E1,8E0,6E0,1.6E1,1.4E1,6.5E1,2.8E1,5E0,5E0,5.1E1,8E0,6E0,8.2E1,1.1E1,5E0,5E0,9E0,5E0,6E1,1E1,1.8E1,4.3E1,8E0,7.7E1,5E0,5.4E1,6E0,5E0,5E0,6E0,1.2E1,3.3E1,1E1,5E0,7.2E1,4.6E1,8E0,7E0,5E0,2.1E1,1.2E1,5E0,5E0,9E0,6.3E1,4.1E1,5E0,7E0,5E0,6E0,5.7E1],"tree_param":{"num_deleted":"0","num_feature":"175","num_nodes":"65","size_leaf_vector":"1"}},{"base_weights":[8.184449E-2,2.2929344E0,-1.0272453E0,2.907718E-1,5.587215E0,2.2108692E-1,-1.4215688E0,-1.6423597E0,4.1536374E0,1.0542799E1,2.5154943E0,-1.7612538E0,1.4902607E-1,1.7447646E0,-3.154397E0,7.8914495E0,-7.822769E-2,3.6942747E-1,1.4785497E-1,-2.2174268E0,6.946349E0,-2.0874023E0,1.2529927E-1,-8.535092E-2,1.800717E-1,5.7786223E-3,-1.2164787E-1,4.0397686E-1,5.4108083E-2,-1.2242456E-1,3.0200507E-2,3.1995618E-1,-8.386367E-3,-2.4765644E0,6.7476004E-1,8.301852E-1,-2.8877769E0,-1.956167E0,1.7526668E-1,-2.4168117E0,1.910215E-1,-1.5522184E0,-3.8942344E0,2.6845021E-2,-1.0717419E-1,-1.1100076E-1,-1.505695E-4,-7.2211795E-2,7.188821E-2,-1.2500565E-1,-1.9226247E-2],"categories":[],"categories_nodes":[],"categories_segments":[],"categories_sizes":[],"default_left":[0,0,0,0,0,0,0,0,0,0,0,0,0,0,0,0,0,0,0,0,0,0,0,0,0,0,0,0,0,0,0,0,0,0,0,0,0,0,0,0,0,0,0,0,0,0,0,0,0,0,0],"id":7,"left_children":[1,3,5,7,9,-1,11,13,15,17,19,21,-1,23,25,27,-1,-1,-1,29,31,33,-1,-1,-1,-1,-1,-1,-1,-1,-1,-1,-1,35,37,39,41,43,-1,45,-1,47,49,-1,-1,-1,-1,-1,-1,-1,-1],"loss_changes":[7.998879E2,7.127415E2,7.364785E2,5.37619E2,5.6453906E2,0E0,4.6948425E2,2.5754218E2,6.503301E2,1.9178955E1,6.203553E2,4.0371918E2,0E0,3.4839874E2,1.05972565E2,4.867729E2,0E0,0E0,0E0,9.986997E1,4.1423657E2,2.0955469E2,0E0,0E0,0E0,0E0,0E0,0E0,0E0,0E0,0E0,0E0,0E0,2.3426599E2,3.6468018E2,3.923381E2,1.8681482E2,9.067799E1,0E0,4.1438187E1,0E0,2.4106407E2,6.675757E1,0E0,0E0,0E0,0E0,0E0,0E0,0E0,0E0],"parents":[2147483647,0,0,1,1,2,2,3,3,4,4,6,6,7,7,8,8,9,9,10,10,11,11,13,13,14,14,15,15,19,19,20,20,21,21,33,33,34,34,35,35,36,36,37,37,39,39,41,41,42,42],"right_children":[2,4,6,8,10,-1,12,14,16,18,20,22,-1,24,26,28,-1,-1,-1,30,32,34,-1,-1,-1,-1,-1,-1,-1,-1,-1,-1,-1,36,38,40,42,44,-1,46,-1,48,50,-1,-1,-1,-1,-1,-1,-1,-1],"split_conditions":[5.251054E2,7.2811E4,2.504339E1,3.2E1,8E0,2.2108692E-1,1.49E2,5.0314E4,8.001E4,3.1342197E1,3.9E1,1.01181E5,1.4902607E-1,3.8690668E4,3E0,5.084271E1,-7.822769E-2,3.6942747E-1,1.4785497E-1,3.3E1,7.774E4,4.75E0,1.2529927E-1,-8.535092E-2,1.800717E-1,5.7786223E-3,-1.2164787E-1,4.0397686E-1,5.4108083E-2,-1.2242456E-1,3.0200507E-2,3.1995618E-1,-8.386367E-3,7.999995E-3,5E0,6.0615887E1,6.3593835E2,3.1366667E1,1.7526668E-1,8.110407E1,1.910215E-1,6.3E1,8.7E1,2.6845021E-2,-1.0717419E-1,-1.1100076E-1,-1.505695E-4,-7.2211795E-2,7.188821E-2,-1.2500565E-1,-1.9226247E-2],"split_indices":[54,156,122,167,167,0,148,135,155,109,142,157,0,135,144,113,0,0,0,143,155,73,0,0,0,0,0,0,0,0,0,0,0,163,77,113,54,132,0,171,0,168,166,0,0,0,0,0,0,0,0],"split_type":[0,0,0,0,0,0,0,0,0,0,0,0,0,0,0,0,0,0,0,0,0,0,0,0,0,0,0,0,0,0,0,0,0,0,0,0,0,0,0,0,0,0,0,0,0,0,0,0,0,0,0],"sum_hessian":[3.22E2,1.07E2,2.15E2,6.8E1,3.9E1,8E0,2.07E2,4.6E1,2.2E1,1.3E1,2.6E1,1.98E2,9E0,1.4E1,3.2E1,1.4E1,8E0,8E0,5E0,1.3E1,1.3E1,1.89E2,9E0,7E0,7E0,7E0,2.5E1,6E0,8E0,8E0,5E0,8E0,5E0,1.66E2,2.3E1,1.8E1,1.48E2,1.6E1,7E0,1.2E1,6E0,6.6E1,8.2E1,6E0,1E1,7E0,5E0,5.5E1,1.1E1,7.5E1,7E0],"tree_param":{"num_deleted":"0","num_feature":"175","num_nodes":"51","size_leaf_vector":"1"}},{"base_weights":[6.83022E-2,-2.5337336E0,9.734586E-1,-3.091603E0,1.300506E-1,5.7822795E0,2.5193304E-1,-8.453369E-1,-3.5916557E0,2.4647708E0,4.3924272E-1,1.0070305E0,-2.473068E0,-8.234201E-2,4.1922037E-2,-1.6090035E-2,-3.9454875E0,-1.0875869E-1,6.374841E0,4.500235E0,6.886345E-2,-3.5656395E0,2.2699827E-1,-5.392106E-2,-4.2182E0,4.9217653E-2,2.891072E-1,1.0534443E1,-5.02041E-1,3.155824E0,-7.3555356E-1,-2.2171812E-2,-4.1205044E0,1.21233284E-1,-7.314838E-2,-4.4143256E-2,-1.3372572E-1,6.281238E-2,4.1834962E-1,1.7188132E-1,-9.5903434E-2,6.7535987E0,3.7888244E-1,-1.6264377E0,3.277436E0,-1.3842247E-1,-5.196707E-2,3.5434982E-1,-4.879033E-3,1.1493995E-1,-1.9442308E0,-2.6901624E0,6.282317E-1,2.2438924E-1,-4.425637E-2,-1.0323861E-1,1.1067376E-3,-1.082609E-1,2.4708423E-3,1.0497502E-1,-6.869949E-2],"categories":[],"categories_nodes":[],"categories_segments":[],"categories_sizes":[],"default_left":[0,0,0,0,0,0,0,0,0,0,0,0,0,0,0,0,0,0,0,0,0,0,0,0,0,0,0,0,0,0,0,0,0,0,0,0,0,0,0,0,0,0,0,0,0,0,0,0,0,0,0,0,0,0,0,0,0,0,0,0,0],"id":8,"left_children":[1,3,5,7,-1,9,11,13,15,17,-1,19,21,-1,-1,-1,23,-1,25,27,29,31,33,-1,35,-1,-1,37,39,41,43,-1,45,-1,-1,-1,-1,-1,-1,-1,-1,47,49,51,53,-1,-1,-1,-1,-1,55,57,59,-1,-1,-1,-1,-1,-1,-1,-1],"loss_changes":[7.5783264E2,3.442276E2,8.233246E2,7.9322815E1,0E0,8.3037024E2,4.3635257E2,8.07621E1,6.1634216E1,6.429102E2,0E0,5.4111237E2,1.389888E2,0E0,0E0,0E0,1.4634827E1,0E0,2.0983594E2,1.0720608E3,3.3611874E2,4.323584E1,1.7299312E2,0E0,1.5471069E1,0E0,0E0,3.9418433E2,3.8799796E2,2.7105884E2,3.923722E2,0E0,1.2668976E1,0E0,0E0,0E0,0E0,0E0,0E0,0E0,0E0,4.294593E2,1.6020929E2,2.1786395E2,4.2450244E2,0E0,0E0,0E0,0E0,0E0,3.754632E1,1.5770377E2,2.679709E2,0E0,0E0,0E0,0E0,0E0,0E0,0E0,0E0],"parents":[2147483647,0,0,1,1,2,2,3,3,5,5,6,6,7,7,8,8,9,9,11,11,12,12,16,16,18,18,19,19,20,20,21,21,22,22,24,24,27,27,28,28,29,29,30,30,32,32,41,41,42,42,43,43,44,44,50,50,51,51,52,52],"right_children":[2,4,6,8,-1,10,12,14,16,18,-1,20,22,-1,-1,-1,24,-1,26,28,30,32,34,-1,36,-1,-1,38,40,42,44,-1,46,-1,-1,-1,-1,-1,-1,-1,-1,48,50,52,54,-1,-1,-1,-1,-1,56,58,60,-1,-1,-1,-1,-1,-1,-1,-1],"split_conditions":[3.7354E4,1.5192839E2,4.7674E4,5.2E1,1.300506E-1,6.26296E4,6.0144547E1,5.2925106E1,1.8933332E1,3.1876E4,4.3924272E-1,2.3999998E-2,1.3692455E2,-8.234201E-2,4.1922037E-2,-1.6090035E-2,2.4284702E1,-1.0875869E-1,8.628575E1,4.3178604E2,5.3509633E4,4.2673663E2,4.1789154E1,-5.392106E-2,4.5193848E1,4.9217653E-2,2.891072E-1,5.760422E-1,8.9E1,1.208998E6,5.3333332E1,-2.2171812E-2,5.9721737E1,1.21233284E-1,-7.314838E-2,-4.4143256E-2,-1.3372572E-1,6.281238E-2,4.1834962E-1,1.7188132E-1,-9.5903434E-2,1.0426407E2,4.24E2,1.653882E6,1.1E0,-1.3842247E-1,-5.196707E-2,3.5434982E-1,-4.879033E-3,1.1493995E-1,1.511027E6,7.2690336E4,1.03999995E-1,2.2438924E-1,-4.425637E-2,-1.0323861E-1,1.1067376E-3,-1.082609E-1,2.4708423E-3,1.0497502E-1,-6.869949E-2],"split_indices":[157,87,157,58,0,138,129,120,121,155,0,163,56,0,0,0,171,0,56,172,138,54,118,0,56,0,0,169,58,48,110,0,122,0,0,0,0,0,0,0,0,56,58,48,85,0,0,0,0,0,48,135,162,0,0,0,0,0,0,0,0],"split_type":[0,0,0,0,0,0,0,0,0,0,0,0,0,0,0,0,0,0,0,0,0,0,0,0,0,0,0,0,0,0,0,0,0,0,0,0,0,0,0,0,0,0,0,0,0,0,0,0,0,0,0,0,0,0,0,0,0,0,0,0,0],"sum_hessian":[3.18E2,8.1E1,2.37E2,7.6E1,5E0,2.9E1,2.08E2,1.5E1,6.1E1,2.3E1,6E0,1.64E2,4.4E1,8E0,7E0,7E0,5.4E1,9E0,1.4E1,3.3E1,1.31E2,3.1E1,1.3E1,8E0,4.6E1,7E0,7E0,1.4E1,1.9E1,2.6E1,1.05E2,6E0,2.5E1,5E0,8E0,5E0,4.1E1,5E0,9E0,5E0,1.4E1,1E1,1.6E1,8.7E1,1.8E1,1.9E1,6E0,5E0,5E0,6E0,1E1,5.9E1,2.8E1,9E0,9E0,5E0,5E0,4.4E1,1.5E1,1.4E1,1.4E1],"tree_param":{"num_deleted":"0","num_feature":"175","num_nodes":"61","size_leaf_vector":"1"}},{"base_weights":[1.7561874E-1,-1.3719711E0,1.5891093E0,2.1175884E-1,-1.8037649E0,4.842256E0,-1.465662E-1,1.2560947E-1,-2.1566064E0,1.0867668E1,1.9430152E0,2.0581064E0,-2.0701015E0,1.033753E-1,-2.4537542E0,7.6550335E-2,4.282437E-1,7.524936E0,-6.8707913E-1,-1.15070656E-1,4.534473E0,-2.9219868E0,1.6160125E-1,-3.7101743E-1,-3.2044396E0,3.5707328E-1,3.6110878E-2,1.757396E-1,-2.4155908E0,-4.044561E-2,6.405817E0,3.2613076E-2,-3.3589032E0,-1.8189021E0,1.6895284E-1,-4.243029E0,-1.8704542E0,-1.2236489E-1,9.578597E-2,9.904819E0,2.9448364E0,-2.0806335E-2,-3.8006256E0,4.6102235E-1,-3.0235028E0,-1.326453E-1,-5.0533343E-2,4.0832117E-2,-2.6988096E0,1.0863823E-1,3.7606177E-1,-4.6806845E-1,2.5539404E-1,-5.404139E-2,-1.2592486E-1,-5.4300014E-2,8.988555E-2,-1.19979575E-1,-3.0079778E-2,-9.7117364E-2,4.0332195E-3,-1.0255158E-1,6.503929E-2],"categories":[],"categories_nodes":[],"categories_segments":[],"categories_sizes":[],"default_left":[0,0,0,0,0,0,0,0,0,0,0,0,0,0,0,0,0,0,0,0,0,0,0,0,0,0,0,0,0,0,0,0,0,0,0,0,0,0,0,0,0,0,0,0,0,0,0,0,0,0,0,0,0,0,0,0,0,0,0,0,0,0,0],"id":9,"left_children":[1,3,5,-1,7,9,11,-1,13,15,17,19,21,-1,23,-1,-1,25,27,-1,29,31,-1,33,35,-1,-1,-1,37,-1,39,-1,41,43,-1,45,47,-1,-1,49,51,-1,53,55,57,-1,-1,-1,59,-1,-1,61,-1,-1,-1,-1,-1,-1,-1,-1,-1,-1,-1],"loss_changes":[7.197827E2,5.943607E2,9.749491E2,0E0,3.362257E2,9.9951E2,4.9197424E2,0E0,2.5613916E2,4.5707568E2,6.4504144E2,8.2327576E2,4.2409293E2,0E0,2.1159479E2,0E0,0E0,3.5219086E2,3.7728973E2,0E0,4.4913202E2,1.08282166E2,0E0,3.5754276E2,1.210022E2,0E0,0E0,0E0,2.6902258E2,0E0,2.985382E2,0E0,5.3703247E1,9.4700195E1,0E0,7.1676025E0,1.3650427E2,0E0,0E0,1.3254431E2,3.540653E2,0E0,1.6789368E1,8.628565E1,3.2862488E1,0E0,0E0,0E0,6.1917267E1,0E0,0E0,1.1655037E2,0E0,0E0,0E0,0E0,0E0,0E0,0E0,0E0,0E0,0E0,0E0],"parents":[2147483647,0,0,1,1,2,2,4,4,5,5,6,6,8,8,9,9,10,10,11,11,12,12,14,14,17,17,18,18,20,20,21,21,23,23,24,24,28,28,30,30,32,32,33,33,35,35,36,36,39,39,40,40,42,42,43,43,44,44,48,48,51,51],"right_children":[2,4,6,-1,8,10,12,-1,14,16,18,20,22,-1,24,-1,-1,26,28,-1,30,32,-1,34,36,-1,-1,-1,38,-1,40,-1,42,44,-1,46,48,-1,-1,50,52,-1,54,56,58,-1,-1,-1,60,-1,-1,62,-1,-1,-1,-1,-1,-1,-1,-1,-1,-1,-1],"split_conditions":[-3.2352942E-1,4.4603336E2,2.0769875E0,2.1175884E-1,7.999981E-3,5.0248E4,2.23E2,1.2560947E-1,-7.990893E-1,5.3831E4,-7.4894585E1,2.7178423E1,9.659258E-1,1.033753E-1,3.1366667E1,7.6550335E-2,4.282437E-1,8.914199E-1,2.08E1,-1.15070656E-1,4E0,1.080444E6,1.6160125E-1,3.1533333E1,3.9066666E1,3.5707328E-1,3.6110878E-2,1.757396E-1,1.7207261E0,-4.044561E-2,4.9637928E1,3.2613076E-2,1.5999978E-2,1.1893495E1,1.6895284E-1,-3.75E-1,4.8666668E1,-1.2236489E-1,9.578597E-2,3.9197E4,3.3E1,-2.0806335E-2,1.5999984E-2,6E0,3.4202163E0,-1.326453E-1,-5.0533343E-2,4.0832117E-2,1.782377E6,1.0863823E-1,3.7606177E-1,1.1707317E0,2.5539404E-1,-5.404139E-2,-1.2592486E-1,-5.4300014E-2,8.988555E-2,-1.19979575E-1,-3.0079778E-2,-9.7117364E-2,4.0332195E-3,-1.0255158E-1,6.503929E-2],"split_indices":[80,55,169,0,68,157,58,0,71,70,86,111,103,0,132,0,0,169,130,0,167,48,0,123,130,0,0,0,169,0,113,0,161,67,0,80,112,0,0,157,164,0,162,142,169,0,0,0,48,0,0,85,0,0,0,0,0,0,0,0,0,0,0],"split_type":[0,0,0,0,0,0,0,0,0,0,0,0,0,0,0,0,0,0,0,0,0,0,0,0,0,0,0,0,0,0,0,0,0,0,0,0,0,0,0,0,0,0,0,0,0,0,0,0,0,0,0,0,0,0,0,0,0,0,0,0,0,0,0],"sum_hessian":[3.25E2,1.55E2,1.7E2,6E0,1.49E2,5.8E1,1.12E2,7E0,1.42E2,1.7E1,4.1E1,5.2E1,6E1,6E0,1.36E2,6E0,1.1E1,1.2E1,2.9E1,1.5E1,3.7E1,5.5E1,5E0,3.7E1,9.9E1,6E0,6E0,5E0,2.4E1,9E0,2.8E1,5E0,5E1,3.1E1,6E0,5.3E1,4.6E1,1.9E1,5E0,1.2E1,1.6E1,8E0,4.2E1,1.1E1,2E1,4.8E1,5E0,9E0,3.7E1,5E0,7E0,1.1E1,5E0,9E0,3.3E1,6E0,5E0,1.2E1,8E0,3.1E1,6E0,5E0,6E0],"tree_param":{"num_deleted":"0","num_feature":"175","num_nodes":"63","size_leaf_vector":"1"}},{"base_weights":[1.3602991E-1,-1.508438E-1,5.5494137E0,1.8681507E0,-1.0878245E0,-2.0881731E-2,3.3933538E-1,1.032141E0,3.066599E-1,-2.1207924E0,8.4067607E-1,2.7639036E0,-2.2227216E0,-3.2293985E0,6.2171936E-1,2.7251723E-1,-2.2087942E-1,5.0769997E0,-1.3971272E0,-3.4541821E0,2.8041879E-2,-3.5406013E0,-7.095248E-1,2.6739058E-1,-9.2518944E-1,4.6207123E0,-1.6916884E0,6.3530583E0,-8.594193E-2,-3.4131334E0,1.02770045E-1,-3.6712375E-2,-1.15932494E-1,-2.3604805E-2,-3.8175561E0,3.5700407E-2,-9.061487E-2,-2.072685E0,1.4032032E-1,-2.5701925E-2,2.3428896E-1,-2.6040907E0,1.6103177E-1,4.487977E-3,7.8228865E0,-3.8544007E-2,-1.1986799E-1,-4.185242E-2,-3.9997852E0,3.3122655E-2,-2.8789375E0,-3.3880587E0,5.2553177E-2,2.8085798E-1,6.800391E-2,-1.2646723E-1,-6.850873E-2,1.6503582E-2,-1.1193021E-1,1.0817176E-2,-1.1699891E-1],"categories":[],"categories_nodes":[],"categories_segments":[],"categories_sizes":[],"default_left":[0,0,0,0,0,0,0,0,0,0,0,0,0,0,0,0,0,0,0,0,0,0,0,0,0,0,0,0,0,0,0,0,0,0,0,0,0,0,0,0,0,0,0,0,0,0,0,0,0,0,0,0,0,0,0,0,0,0,0,0,0],"id":10,"left_children":[1,3,5,7,9,-1,-1,11,-1,13,15,17,19,21,23,-1,25,27,29,31,-1,33,35,-1,37,39,41,43,-1,45,-1,-1,-1,-1,47,-1,-1,49,-1,-1,-1,51,-1,-1,53,-1,-1,-1,55,-1,57,59,-1,-1,-1,-1,-1,-1,-1,-1,-1],"loss_changes":[5.246142E2,6.090371E2,6.32798E2,6.856294E2,4.4246332E2,0E0,0E0,5.4803906E2,0E0,4.4313202E2,6.90995E2,6.2239276E2,1.3991858E2,7.3622314E1,5.719993E2,0E0,5.197641E2,4.5364246E2,2.567251E2,1.0872833E1,0E0,6.1093384E1,6.956099E1,0E0,2.623845E2,3.1379916E2,3.8727173E2,3.2192188E2,0E0,9.406998E0,0E0,0E0,0E0,0E0,2.2341064E1,0E0,0E0,9.176692E1,0E0,0E0,0E0,1.868461E2,0E0,0E0,1.9972375E2,0E0,0E0,0E0,5.2714844E0,0E0,8.458386E1,8.9015656E1,0E0,0E0,0E0,0E0,0E0,0E0,0E0,0E0,0E0],"parents":[2147483647,0,0,1,1,2,2,3,3,4,4,7,7,9,9,10,10,11,11,12,12,13,13,14,14,16,16,17,17,18,18,19,19,21,21,22,22,24,24,25,25,26,26,27,27,29,29,34,34,37,37,41,41,44,44,48,48,50,50,51,51],"right_children":[2,4,6,8,10,-1,-1,12,-1,14,16,18,20,22,24,-1,26,28,30,32,-1,34,36,-1,38,40,42,44,-1,46,-1,-1,-1,-1,48,-1,-1,50,-1,-1,-1,52,-1,-1,54,-1,-1,-1,56,-1,58,60,-1,-1,-1,-1,-1,-1,-1,-1,-1],"split_conditions":[1.07E2,3.2033333E1,1.2E1,3.1533333E1,4.911751E1,-2.0881731E-2,3.3933538E-1,3.98E2,3.066599E-1,3.1199998E-1,1.6861E4,1.9E1,3.0618E4,2.0721811E2,4.117593E1,2.7251723E-1,4.51E1,3.2833332E1,9.2356316E1,4.49E2,2.8041879E-2,2.2363E4,3.5566666E1,2.6739058E-1,5.8E1,-4.347826E-1,9.8333336E1,5.13742E4,-8.594193E-2,2.85E1,1.02770045E-1,-3.6712375E-2,-1.15932494E-1,-2.3604805E-2,-1.7758278E2,3.5700407E-2,-9.061487E-2,4.673247E1,1.4032032E-1,-2.5701925E-2,2.3428896E-1,9.2446E4,1.6103177E-1,4.487977E-3,4.9652122E1,-3.8544007E-2,-1.1986799E-1,-4.185242E-2,9.4003E4,3.3122655E-2,7.8E1,3.2145503E0,5.2553177E-2,2.8085798E-1,6.800391E-2,-1.2646723E-1,-6.850873E-2,1.6503582E-2,-1.1193021E-1,1.0817176E-2,-1.1699891E-1],"split_indices":[168,123,3,123,133,0,0,58,0,162,156,166,69,86,131,0,114,114,86,58,0,5,123,0,3,84,117,137,0,114,0,0,0,0,86,0,0,122,0,0,0,158,0,0,109,0,0,0,158,0,58,109,0,0,0,0,0,0,0,0,0],"split_type":[0,0,0,0,0,0,0,0,0,0,0,0,0,0,0,0,0,0,0,0,0,0,0,0,0,0,0,0,0,0,0,0,0,0,0,0,0,0,0,0,0,0,0,0,0,0,0,0,0,0,0,0,0,0,0,0,0,0,0,0,0],"sum_hessian":[3.33E2,3.18E2,1.5E1,1E2,2.18E2,8E0,7E0,9.3E1,7E0,1.42E2,7.6E1,6.1E1,3.2E1,1.01E2,4.1E1,7E0,6.9E1,3.9E1,2.2E1,2.3E1,9E0,8.9E1,1.2E1,5E0,3.6E1,1.5E1,5.4E1,3.4E1,5E0,1.6E1,6E0,5E0,1.8E1,9E0,8E1,7E0,5E0,3.1E1,5E0,6E0,9E0,4.9E1,5E0,7E0,2.7E1,5E0,1.1E1,7E0,7.3E1,6E0,2.5E1,4.2E1,7E0,2E1,7E0,6.2E1,1.1E1,5E0,2E1,5E0,3.7E1],"tree_param":{"num_deleted":"0","num_feature":"175","num_nodes":"61","size_leaf_vector":"1"}},{"base_weights":[8.2027204E-2,2.5636923E-1,-1.9803987E-1,-1.1637156E0,1.9479421E0,1.3794123E-1,-1.4113809E0,6.002361E0,-3.302212E-1,-4.3339148E-1,-3.084568E0,1.8617226E0,9.448293E0,3.4665964E0,-1.9297566E0,-1.0297576E0,5.0538664E0,-3.6684601E0,5.676265E-2,2.027886E-1,-1.0235643E0,2.470282E-2,3.7801215E-1,2.3239313E-1,-5.6536462E-2,1.0182384E-1,-3.1022685E0,-2.8512971E0,2.7498168E-1,-2.9045587E-2,2.7366588E-1,3.470521E-3,-4.052661E0,-9.704537E-2,5.173898E-2,3.3009965E-2,-3.8208642E0,-3.3308914E0,2.9251093E-2,2.731427E0,-2.544175E0,-1.2908767E-1,-4.7848348E-2,-1.2895836E-1,-3.5722468E-2,-1.096944E-1,-3.4812886E-2,-6.2758983E-3,2.604996E-1,2.8274916E-3,-9.761133E-2],"categories":[],"categories_nodes":[],"categories_segments":[],"categories_sizes":[],"default_left":[0,0,0,0,0,0,0,0,0,0,0,0,0,0,0,0,0,0,0,0,0,0,0,0,0,0,0,0,0,0,0,0,0,0,0,0,0,0,0,0,0,0,0,0,0,0,0,0,0,0,0],"id":11,"left_children":[1,-1,3,5,7,-1,9,11,13,15,17,19,21,23,25,27,29,31,-1,-1,33,-1,-1,-1,-1,-1,35,37,39,-1,-1,-1,41,-1,-1,-1,43,45,-1,47,49,-1,-1,-1,-1,-1,-1,-1,-1,-1,-1],"loss_changes":[7.400058E2,0E0,6.279107E2,3.0962604E2,8.750434E2,0E0,3.2611197E2,4.4428894E2,3.8914587E2,4.338104E2,2.2980176E2,2.7107898E2,4.6189502E2,4.6726703E2,3.0181732E2,2.8567572E2,3.4023703E2,1.0031537E2,0E0,0E0,9.091443E1,0E0,0E0,0E0,0E0,0E0,1.2452765E2,9.9427795E1,5.0567444E2,0E0,0E0,0E0,2.0844666E1,0E0,0E0,0E0,2.8483734E1,2.0905853E1,0E0,6.9045886E2,6.5843E1,0E0,0E0,0E0,0E0,0E0,0E0,0E0,0E0,0E0,0E0],"parents":[2147483647,0,0,2,2,3,3,4,4,6,6,7,7,8,8,9,9,10,10,11,11,12,12,13,13,14,14,15,15,16,16,17,17,20,20,26,26,27,27,28,28,32,32,36,36,37,37,39,39,40,40],"right_children":[2,-1,4,6,8,-1,10,12,14,16,18,20,22,24,26,28,30,32,-1,-1,34,-1,-1,-1,-1,-1,36,38,40,-1,-1,-1,42,-1,-1,-1,44,46,-1,48,50,-1,-1,-1,-1,-1,-1,-1,-1,-1,-1],"split_conditions":[2.504339E1,2.5636923E-1,5.5921074E-2,-1.5396666E2,5.318309E2,1.3794123E-1,3.8433334E1,1.434568E6,3.883727E1,3.7466667E1,1.473913E2,5E-1,2.9E1,-1.4993976E-1,3.9749E4,5.5133E4,-9E0,5E0,5.676265E-2,2.027886E-1,-6.195275E0,2.470282E-2,3.7801215E-1,2.3239313E-1,-5.6536462E-2,1.0182384E-1,2E0,4.0266666E1,2.3666666E1,-2.9045587E-2,2.7366588E-1,3.470521E-3,4.75E0,-9.704537E-2,5.173898E-2,3.3009965E-2,1.669159E3,1.653882E6,2.9251093E-2,7.4875E4,7.0218E4,-1.2908767E-1,-4.7848348E-2,-1.2895836E-1,-3.5722468E-2,-1.096944E-1,-3.4812886E-2,-6.2758983E-3,2.604996E-1,2.8274916E-3,-9.761133E-2],"split_indices":[122,0,125,87,54,0,132,48,109,132,56,102,119,71,158,5,79,117,0,0,87,0,0,0,0,0,143,130,117,0,0,0,73,0,0,0,67,48,0,157,5,0,0,0,0,0,0,0,0,0,0],"split_type":[0,0,0,0,0,0,0,0,0,0,0,0,0,0,0,0,0,0,0,0,0,0,0,0,0,0,0,0,0,0,0,0,0,0,0,0,0,0,0,0,0,0,0,0,0,0,0,0,0,0,0],"sum_hessian":[3.07E2,8E0,2.99E2,2.07E2,9.2E1,7E0,2E2,3.2E1,6E1,1.28E2,7.2E1,1.6E1,1.6E1,1.7E1,4.3E1,1.17E2,1.1E1,6.5E1,7E0,5E0,1.1E1,5E0,1.1E1,9E0,8E0,7E0,3.6E1,4.8E1,6.9E1,5E0,6E0,6E0,5.9E1,6E0,5E0,5E0,3.1E1,4.3E1,5E0,3.7E1,3.2E1,5.2E1,7E0,2.5E1,6E0,3.6E1,7E0,2.6E1,1.1E1,7E0,2.5E1],"tree_param":{"num_deleted":"0","num_feature":"175","num_nodes":"51","size_leaf_vector":"1"}},{"base_weights":[7.8846216E-2,-4.259369E-1,3.5221827E0,1.4924508E0,-1.4038668E0,5.729015E0,-1.5165675E0,6.037507E-1,6.966752E0,-1.6690997E0,1.7351918E-1,-6.102273E-2,7.5366697E0,-8.271204E-2,1.3207144E-2,-4.6333233E-1,6.541409E0,2.8812867E-1,5.6714833E-2,1.7879341E0,-2.1483095E0,9.828455E0,4.4321157E-2,1.9216621E-1,-1.513518E0,3.0111805E-1,5.3540397E-2,-8.176326E-2,5.1144533E0,-2.441325E0,9.764401E-2,3.7955272E-1,6.326844E-2,-2.9092503E0,6.4782745E-1,2.6592806E-1,-3.2897465E-2,-3.3583834E0,-1.2203153E0,-3.3833754E0,6.6348575E-3,2.4130533E0,-8.357001E-2,-3.825098E0,1.15540385E-1,2.1241858E0,-2.319568E0,-4.341407E-2,-1.176919E-1,2.3063947E-1,-1.600257E-2,-1.2038101E-1,-3.494406E-2,-9.164066E-2,9.97256E-2,-1.5273989E-2,1.6816851E-1,-8.675514E-2,6.587623E-2],"categories":[],"categories_nodes":[],"categories_segments":[],"categories_sizes":[],"default_left":[0,0,0,0,0,0,0,0,0,0,0,0,0,0,0,0,0,0,0,0,0,0,0,0,0,0,0,0,0,0,0,0,0,0,0,0,0,0,0,0,0,0,0,0,0,0,0,0,0,0,0,0,0,0,0,0,0,0,0],"id":12,"left_children":[1,3,5,7,9,11,13,15,17,19,-1,-1,21,-1,-1,23,25,-1,-1,27,29,31,-1,-1,33,-1,-1,-1,35,37,-1,-1,-1,39,41,-1,-1,43,45,47,-1,49,-1,51,53,55,57,-1,-1,-1,-1,-1,-1,-1,-1,-1,-1,-1,-1],"loss_changes":[5.572765E2,5.275637E2,4.7538986E2,4.4997855E2,3.718506E2,4.4036926E2,3.75698E1,5.413226E2,1.3199353E2,3.077149E2,0E0,0E0,2.9858508E2,0E0,0E0,5.43536E2,1.7443744E2,0E0,0E0,3.7439096E2,2.6879663E2,3.0976257E2,0E0,0E0,2.0098296E2,0E0,0E0,0E0,3.4938797E2,1.608338E2,0E0,0E0,0E0,6.2445923E1,1.7690175E2,0E0,0E0,1.421731E2,2.6362726E2,2.2534271E1,0E0,3.0708536E2,0E0,2.5993164E1,1.4250917E2,1.732752E2,1.5000299E2,0E0,0E0,0E0,0E0,0E0,0E0,0E0,0E0,0E0,0E0,0E0,0E0],"parents":[2147483647,0,0,1,1,2,2,3,3,4,4,5,5,6,6,7,7,8,8,9,9,12,12,15,15,16,16,19,19,20,20,21,21,24,24,28,28,29,29,33,33,34,34,37,37,38,38,39,39,41,41,43,43,44,44,45,45,46,46],"right_children":[2,4,6,8,10,12,14,16,18,20,-1,-1,22,-1,-1,24,26,-1,-1,28,30,32,-1,-1,34,-1,-1,-1,36,38,-1,-1,-1,40,42,-1,-1,44,46,48,-1,50,-1,52,54,56,58,-1,-1,-1,-1,-1,-1,-1,-1,-1,-1,-1,-1],"split_conditions":[5.814448E1,3.06E1,6.809718E2,9.3971E4,7.1780734E4,5.198984E1,3.5E1,2.9233334E1,5.042355E1,2E0,1.7351918E-1,-6.102273E-2,9E-1,-8.271204E-2,1.3207144E-2,2.4749796E1,5.084271E1,2.8812867E-1,5.6714833E-2,1E1,4.7E1,6.5666664E1,4.4321157E-2,1.9216621E-1,7.20818E2,3.0111805E-1,5.3540397E-2,-8.176326E-2,5.5199E4,5.1456455E1,9.764401E-2,3.7955272E-1,6.326844E-2,4.9E1,1.2653061E0,2.6592806E-1,-3.2897465E-2,6.5E1,5.4693386E1,2.5055052E2,6.6348575E-3,5E0,-8.357001E-2,7.6217164E4,1.375E0,7E0,5.6340958E1,-4.341407E-2,-1.176919E-1,2.3063947E-1,-1.600257E-2,-1.2038101E-1,-3.494406E-2,-9.164066E-2,9.97256E-2,-1.5273989E-2,1.6816851E-1,-8.675514E-2,6.587623E-2],"split_indices":[131,132,55,155,138,133,151,132,115,143,0,0,90,0,0,113,113,0,0,140,82,114,0,0,172,0,0,0,135,129,0,0,0,77,85,0,0,142,129,172,0,151,0,136,85,57,124,0,0,0,0,0,0,0,0,0,0,0,0],"split_type":[0,0,0,0,0,0,0,0,0,0,0,0,0,0,0,0,0,0,0,0,0,0,0,0,0,0,0,0,0,0,0,0,0,0,0,0,0,0,0,0,0,0,0,0,0,0,0,0,0,0,0,0,0,0,0,0,0,0,0],"sum_hessian":[3.16E2,2.77E2,3.9E1,9.3E1,1.84E2,2.7E1,1.2E1,8.2E1,1.1E1,1.79E2,5E0,5E0,2.2E1,7E0,5E0,7.1E1,1.1E1,6E0,5E0,2.1E1,1.58E2,1.5E1,7E0,8E0,6.3E1,5E0,6E0,9E0,1.2E1,1.51E2,7E0,1E1,5E0,3.8E1,2.5E1,7E0,5E0,8.4E1,6.7E1,3.3E1,5E0,1.7E1,8E0,7.4E1,1E1,1.6E1,5.1E1,9E0,2.4E1,5E0,1.2E1,6.8E1,6E0,5E0,5E0,1E1,6E0,4.6E1,5E0],"tree_param":{"num_deleted":"0","num_feature":"175","num_nodes":"59","size_leaf_vector":"1"}},{"base_weights":[2.7936676E-1,6.4475923E0,-5.424925E-2,3.0894515E-1,-0E0,-3.7211612E-1,6.365943E0,2.1949519E-1,-5.6414527E-1,-5.7700966E-3,3.9151815E-1,-7.463543E-1,1.7196825E-1,-1.559509E0,1.0522382E0,3.259822E0,-1.8679613E0,-7.769174E-1,4.2031207E0,2.1515217E-1,-4.536133E-2,-2.140173E0,1.8987694E0,3.9063652E0,-2.8580487E0,-1.0535761E-1,6.272893E0,-1.9277425E-2,-8.559875E-2,1.9356474E-1,-7.492916E-2,2.1447834E-1,-9.48259E-2,-1.19872786E-1,-2.9872855E-2,-5.391858E-2,2.516803E-1],"categories":[],"categories_nodes":[],"categories_segments":[],"categories_sizes":[],"default_left":[0,0,0,0,0,0,0,0,0,0,0,0,0,0,0,0,0,0,0,0,0,0,0,0,0,0,0,0,0,0,0,0,0,0,0,0,0],"id":13,"left_children":[1,3,5,-1,-1,7,9,-1,11,-1,-1,13,-1,15,17,19,21,23,25,-1,-1,27,29,31,33,-1,35,-1,-1,-1,-1,-1,-1,-1,-1,-1,-1],"loss_changes":[6.4182E2,3.953803E2,6.0580774E2,0E0,0E0,4.2418774E2,6.252076E2,0E0,3.2615054E2,0E0,0E0,4.0280734E2,0E0,2.9243735E2,5.0390106E2,2.4852356E2,1.9178546E2,5.676105E2,5.5642847E2,0E0,0E0,1.7400256E2,2.944488E2,4.5972128E2,7.429636E1,0E0,4.7753577E2,0E0,0E0,0E0,0E0,0E0,0E0,0E0,0E0,0E0,0E0],"parents":[2147483647,0,0,1,1,2,2,5,5,6,6,8,8,11,11,13,13,14,14,15,15,16,16,17,17,18,18,21,21,22,22,23,23,24,24,26,26],"right_children":[2,4,6,-1,-1,8,10,-1,12,-1,-1,14,-1,16,18,20,22,24,26,-1,-1,28,30,32,34,-1,36,-1,-1,-1,-1,-1,-1,-1,-1,-1,-1],"split_conditions":[2.5019611E1,8.000938E1,1.82E2,3.0894515E-1,-0E0,1.2484E4,2.6923077E0,2.1949519E-1,1.5331831E2,-5.7700966E-3,3.9151815E-1,7.7279E4,1.7196825E-1,-9.659258E-1,4.011877E6,7.3846E4,9E0,5.9211668E4,8E-3,2.1515217E-1,-4.536133E-2,4.3178604E2,8.676938E1,1.1247741E2,7.3469336E4,-1.0535761E-1,-7.314022E-1,-1.9277425E-2,-8.559875E-2,1.9356474E-1,-7.492916E-2,2.1447834E-1,-9.48259E-2,-1.19872786E-1,-2.9872855E-2,-5.391858E-2,2.516803E-1],"split_indices":[131,171,143,0,0,154,73,0,171,0,0,154,0,103,49,155,74,135,161,0,0,172,91,56,135,0,134,0,0,0,0,0,0,0,0,0,0],"split_type":[0,0,0,0,0,0,0,0,0,0,0,0,0,0,0,0,0,0,0,0,0,0,0,0,0,0,0,0,0,0,0,0,0,0,0,0,0],"sum_hessian":[3.08E2,1.4E1,2.94E2,8E0,6E0,2.82E2,1.2E1,5E0,2.77E2,7E0,5E0,2.71E2,6E0,1.87E2,8.4E1,1E1,1.77E2,5.4E1,3E1,5E0,5E0,1.66E2,1.1E1,1.6E1,3.8E1,6E0,2.4E1,5.5E1,1.11E2,5E0,6E0,1.1E1,5E0,2.2E1,1.6E1,5E0,1.9E1],"tree_param":{"num_deleted":"0","num_feature":"175","num_nodes":"37","size_leaf_vector":"1"}},{"base_weights":[1.4612918E-1,3.327072E0,-3.4155214E-1,3.3672392E-1,3.936712E-2,-1.9447623E0,6.233725E-1,-3.1642141E0,3.911749E0,1.0059665E-1,-2.295766E0,-1.5709072E-1,4.917217E0,-1.1920094E-1,-2.0580493E-2,2.4616078E-1,-2.1555467E-2,-3.4014517E-1,-3.0439034E0,1.7618304E0,-1.5756494E0,-0E0,7.9635115E0,2.4905744E0,-2.118479E0,-3.278822E0,-0E0,4.207968E-1,6.7132964E0,3.442397E0,-2.3535583E0,8.706555E-2,-8.521644E-2,3.279214E-1,2.862143E-2,2.0283312E-1,-7.260358E-2,-8.783431E-2,1.0210541E-3,-3.5771127E0,-1.6667672E0,4.973807E0,-1.5573046E0,3.1003425E-1,1.7558774E-2,2.1814151E-1,-3.8961086E-2,-2.7947366E0,5.7670396E-2,-1.19452395E-1,-1.5230411E0,5.824961E-4,-7.990219E-2,2.7032772E-1,-3.3913723E-3,-2.765427E0,8.280848E-2,1.4656341E-2,-3.1362975E0,-7.5904116E-2,-2.8085435E-4,-1.1497579E-1,3.1941827E-2,3.686509E-3,-1.0693985E-1],"categories":[],"categories_nodes":[],"categories_segments":[],"categories_sizes":[],"default_left":[0,0,0,0,0,0,0,0,0,0,0,0,0,0,0,0,0,0,0,0,0,0,0,0,0,0,0,0,0,0,0,0,0,0,0,0,0,0,0,0,0,0,0,0,0,0,0,0,0,0,0,0,0,0,0,0,0,0,0,0,0,0,0,0,0],"id":14,"left_children":[1,3,5,-1,7,9,11,13,15,-1,17,19,21,-1,-1,-1,-1,23,25,27,29,31,33,35,37,39,-1,41,43,45,47,-1,-1,-1,-1,-1,-1,-1,-1,49,51,53,55,-1,-1,-1,-1,57,-1,-1,59,-1,-1,-1,-1,61,-1,-1,63,-1,-1,-1,-1,-1,-1],"loss_changes":[4.784591E2,1.0579757E3,4.1612817E2,0E0,4.096992E2,2.0268857E2,5.6692444E2,2.8312927E1,3.13743E2,0E0,1.3669226E2,3.974417E2,3.8602563E2,0E0,0E0,0E0,0E0,1.5635136E2,4.873407E1,4.0246826E2,3.435603E2,1.15439735E2,3.0597668E2,2.8655103E2,3.474604E1,1.6228699E1,0E0,4.765218E2,2.7092047E2,2.3971635E2,1.5077744E2,0E0,0E0,0E0,0E0,0E0,0E0,0E0,0E0,2.8338562E1,2.495266E1,3.3506573E2,2.0826778E2,0E0,0E0,0E0,0E0,8.064624E1,0E0,0E0,1.6975924E1,0E0,0E0,0E0,0E0,1.3215973E2,0E0,0E0,8.915631E1,0E0,0E0,0E0,0E0,0E0,0E0],"parents":[2147483647,0,0,1,1,2,2,4,4,5,5,6,6,7,7,8,8,10,10,11,11,12,12,17,17,18,18,19,19,20,20,21,21,22,22,23,23,24,24,25,25,27,27,28,28,29,29,30,30,39,39,40,40,41,41,42,42,47,47,50,50,55,55,58,58],"right_children":[2,4,6,-1,8,10,12,14,16,-1,18,20,22,-1,-1,-1,-1,24,26,28,30,32,34,36,38,40,-1,42,44,46,48,-1,-1,-1,-1,-1,-1,-1,-1,50,52,54,56,-1,-1,-1,-1,58,-1,-1,60,-1,-1,-1,-1,62,-1,-1,64,-1,-1,-1,-1,-1,-1],"split_conditions":[8.156177E-1,-3.9968938E-1,-4.1379312E-1,3.3672392E-1,5.7519867E4,-1.387946E2,8.7724E4,3.8266666E1,6.5065133E4,1.0059665E-1,3.1366667E1,2.23E2,4.3294888E1,-1.1920094E-1,-2.0580493E-2,2.4616078E-1,-2.1555467E-2,-9.0909094E-1,8.7E1,1.4624649E0,-1.521563E6,6.270201E-1,1.1E1,6E0,2.1E1,1.0199407E2,-0E0,3.0333334E1,8.7E1,5.0248E4,4.8333335E0,8.706555E-2,-8.521644E-2,3.279214E-1,2.862143E-2,2.0283312E-1,-7.260358E-2,-8.783431E-2,1.0210541E-3,1.6403673E2,-2.5864E4,2.490761E0,6.0271503E1,3.1003425E-1,1.7558774E-2,2.1814151E-1,-3.8961086E-2,2.3414E4,5.7670396E-2,-1.19452395E-1,7.361651E0,5.824961E-4,-7.990219E-2,2.7032772E-1,-3.3913723E-3,3E0,8.280848E-2,1.4656341E-2,2.4392E4,-7.5904116E-2,-2.8085435E-4,-1.1497579E-1,3.1941827E-2,3.686509E-3,-1.0693985E-1],"split_indices":[169,71,84,0,137,87,157,130,137,0,132,58,133,0,0,0,0,84,167,134,70,174,141,140,143,171,0,132,76,158,73,0,0,0,0,0,0,0,0,56,69,169,124,0,0,0,0,156,0,0,87,0,0,0,0,75,0,0,158,0,0,0,0,0,0],"split_type":[0,0,0,0,0,0,0,0,0,0,0,0,0,0,0,0,0,0,0,0,0,0,0,0,0,0,0,0,0,0,0,0,0,0,0,0,0,0,0,0,0,0,0,0,0,0,0,0,0,0,0,0,0,0,0,0,0,0,0,0,0,0,0,0,0],"sum_hessian":[3.04E2,3.9E1,2.65E2,1E1,2.9E1,9.9E1,1.66E2,1.6E1,1.3E1,5E0,9.4E1,1.42E2,2.4E1,1.1E1,5E0,6E0,7E0,2.7E1,6.7E1,6E1,8.2E1,1E1,1.4E1,1E1,1.7E1,6.2E1,5E0,4.9E1,1.1E1,1E1,7.2E1,5E0,5E0,9E0,5E0,5E0,5E0,1.2E1,5E0,5E1,1.2E1,1.4E1,3.5E1,6E0,5E0,5E0,5E0,6.6E1,6E0,4E1,1E1,5E0,7E0,7E0,7E0,2.8E1,7E0,6E0,6E1,5E0,5E0,2.2E1,6E0,7E0,5.3E1],"tree_param":{"num_deleted":"0","num_feature":"175","num_nodes":"65","size_leaf_vector":"1"}},{"base_weights":[5.2656844E-2,7.6284466E0,-2.4411295E-1,3.3146963E-1,5.8707632E-2,1.5616766E0,-1.2524816E0,3.7769705E-1,6.826815E0,2.4096282E0,-1.7432569E0,3.420708E0,-1.1237113E0,2.391632E-2,3.4709176E-1,-7.352682E-2,6.2672715E0,-2.0367086E0,1.2199029E-1,-2.8766704E-1,8.638099E0,-2.2395265E0,2.7121677E0,3.316192E-1,-4.8188433E-2,-2.6536057E0,1.2705936E-1,-2.65615E0,1.4395247E-1,6.556863E-2,3.6185974E-1,-2.9867616E0,2.7220618E-2,2.0890981E-1,-8.058909E-2,-3.0042875E0,5.0183747E-2,4.067027E0,-1.9067801E0,-2.7552174E-2,-9.874022E-2,-3.5658853E0,6.932872E-3,-3.318621E0,-2.8622532E-1,2.6555833E-1,-1.5084124E-2,3.5427276E-2,-3.357482E0,-1.1681645E-1,-3.2097995E-2,-1.04625426E-1,2.0219504E-3,1.3120928E-1,-1.0622663E-1,-1.134659E-1,-4.432029E-2],"categories":[],"categories_nodes":[],"categories_segments":[],"categories_sizes":[],"default_left":[0,0,0,0,0,0,0,0,0,0,0,0,0,0,0,0,0,0,0,0,0,0,0,0,0,0,0,0,0,0,0,0,0,0,0,0,0,0,0,0,0,0,0,0,0,0,0,0,0,0,0,0,0,0,0,0,0],"id":15,"left_children":[1,3,5,-1,-1,7,9,11,13,15,17,19,21,-1,-1,-1,23,25,-1,27,29,31,33,-1,-1,35,37,39,-1,-1,-1,41,-1,-1,-1,43,-1,45,47,-1,-1,49,-1,51,53,-1,-1,-1,55,-1,-1,-1,-1,-1,-1,-1,-1],"loss_changes":[7.1562024E2,1.8304926E2,5.591323E2,0E0,0E0,6.7696063E2,3.6213077E2,4.2916605E2,5.4732697E2,4.8263293E2,3.1389563E2,6.089342E2,2.8155997E2,0E0,0E0,0E0,5.6787256E2,2.2618774E2,0E0,2.653455E2,2.2735413E2,1.2403276E2,3.8382507E2,0E0,0E0,2.0946844E2,3.2910718E2,8.406532E0,0E0,0E0,0E0,7.972058E1,0E0,0E0,0E0,1.0053198E2,0E0,3.192039E2,1.299596E2,0E0,0E0,1.7838959E1,0E0,6.451453E1,2.5805124E2,0E0,0E0,0E0,1.3669739E0,0E0,0E0,0E0,0E0,0E0,0E0,0E0,0E0],"parents":[2147483647,0,0,1,1,2,2,5,5,6,6,7,7,8,8,9,9,10,10,11,11,12,12,16,16,17,17,19,19,20,20,21,21,22,22,25,25,26,26,27,27,31,31,35,35,37,37,38,38,41,41,43,43,44,44,48,48],"right_children":[2,4,6,-1,-1,8,10,12,14,16,18,20,22,-1,-1,-1,24,26,-1,28,30,32,34,-1,-1,36,38,40,-1,-1,-1,42,-1,-1,-1,44,-1,46,48,-1,-1,50,-1,52,54,-1,-1,-1,56,-1,-1,-1,-1,-1,-1,-1,-1],"split_conditions":[2.4607973E1,5.473E4,5.318309E2,3.3146963E-1,5.8707632E-2,5.833385E1,7.9999985E-3,3.0666666E1,-6.298701E-1,3.3333332E1,1.46E2,7.4199E4,5.4E1,2.391632E-2,3.4709176E-1,-7.352682E-2,5.766339E1,7.2816E4,1.2199029E-1,2.81E1,-1.296321E6,6.947413E4,1.730437E6,3.316192E-1,-4.8188433E-2,6.523317E1,2.371E3,2.85E1,1.4395247E-1,6.556863E-2,3.6185974E-1,7.673982E1,2.7220618E-2,2.0890981E-1,-8.058909E-2,4.75E0,5.0183747E-2,2.6501572E1,7.7667336E4,-2.7552174E-2,-9.874022E-2,1.3477689E2,6.932872E-3,1.912331E6,4E0,2.6555833E-1,-1.5084124E-2,3.5427276E-2,7.6913E4,-1.1681645E-1,-3.2097995E-2,-1.04625426E-1,2.0219504E-3,1.3120928E-1,-1.0622663E-1,-1.134659E-1,-4.432029E-2],"split_indices":[131,156,54,0,0,122,163,132,78,112,148,156,167,0,0,0,111,135,0,132,70,138,48,0,0,129,47,114,0,0,0,118,0,0,0,73,0,109,135,0,0,56,0,48,140,0,0,0,157,0,0,0,0,0,0,0,0],"split_type":[0,0,0,0,0,0,0,0,0,0,0,0,0,0,0,0,0,0,0,0,0,0,0,0,0,0,0,0,0,0,0,0,0,0,0,0,0,0,0,0,0,0,0,0,0,0,0,0,0,0,0,0,0,0,0,0,0],"sum_hessian":[3.13E2,1E1,3.03E2,5E0,5E0,1.08E2,1.95E2,9E1,1.8E1,2.2E1,1.73E2,2.9E1,6.1E1,9E0,9E0,1E1,1.2E1,1.66E2,7E0,1.8E1,1.1E1,4.8E1,1.3E1,7E0,5E0,1.29E2,3.7E1,1.3E1,5E0,5E0,6E0,3.9E1,9E0,7E0,6E0,1.2E2,9E0,1.2E1,2.5E1,5E0,8E0,3.3E1,6E0,1.07E2,1.3E1,5E0,7E0,8E0,1.7E1,2.8E1,5E0,1.02E2,5E0,5E0,8E0,1.2E1,5E0],"tree_param":{"num_deleted":"0","num_feature":"175","num_nodes":"57","size_leaf_vector":"1"}},{"base_weights":[7.786655E-2,2.8574405E0,-6.27174E-1,7.0671024E0,1.0752343E-1,1.2318503E0,-1.5067444E0,8.971969E0,-1.5298176E-3,1.8980241E-1,-1.3915322E0,-1.3140358E-1,5.8184075E0,-1.9561875E0,3.1852152E0,3.7000182E-1,1.0290023E-1,-2.991145E0,8.507418E-2,2.6924303E0,-2.0697424E0,-1.9534674E-2,8.445341E0,-2.219693E0,1.2081792E-1,2.4919775E-1,-2.960375E-2,-1.1146202E-1,-0E0,-2.1578784E0,6.5703735E0,-3.0474818E0,5.107243E-2,5.042386E-2,3.657145E-1,-3.3095577E0,-1.2052618E0,-1.6396856E-2,-9.9342525E-2,3.6571825E-1,-3.9974492E-2,-1.10628314E-1,3.8825918E-3,-3.5889914E0,3.5827425E-3,2.9853182E0,-1.9063696E0,-3.295654E-2,-3.754332E0,2.0496504E-1,-4.9291532E-2,9.356227E-1,-2.9559207E0,-1.1765855E-1,-3.9515145E-2,1.8881045E-1,-4.9686637E-2,-1.0808956E-1,1.1029256E-2],"categories":[],"categories_nodes":[],"categories_segments":[],"categories_sizes":[],"default_left":[0,0,0,0,0,0,0,0,0,0,0,0,0,0,0,0,0,0,0,0,0,0,0,0,0,0,0,0,0,0,0,0,0,0,0,0,0,0,0,0,0,0,0,0,0,0,0,0,0,0,0,0,0,0,0,0,0,0,0],"id":16,"left_children":[1,3,5,7,9,11,13,15,-1,-1,17,19,21,23,25,-1,-1,27,-1,29,31,-1,33,35,-1,-1,-1,-1,-1,37,39,41,-1,-1,-1,43,45,-1,-1,-1,-1,-1,-1,47,-1,49,51,-1,53,-1,-1,55,57,-1,-1,-1,-1,-1,-1],"loss_changes":[5.906534E2,7.010424E2,3.9628384E2,3.307921E2,3.8367084E2,4.920787E2,3.5768527E2,2.6145984E2,0E0,0E0,2.4019171E2,3.5019382E2,3.208075E2,2.5505225E2,3.4054996E2,0E0,0E0,5.2410355E1,0E0,5.196021E2,1.5119977E2,0E0,2.8142932E2,1.511814E2,0E0,0E0,0E0,0E0,0E0,1.861454E1,7.041553E2,6.5776E1,0E0,0E0,0E0,6.870599E1,2.4294858E2,0E0,0E0,0E0,0E0,0E0,0E0,1.5678223E1,0E0,2.3870142E2,2.1235571E2,0E0,1.1151123E1,0E0,0E0,3.0091125E2,1.13945435E2,0E0,0E0,0E0,0E0,0E0,0E0],"parents":[2147483647,0,0,1,1,2,2,3,3,4,4,5,5,6,6,7,7,10,10,11,11,12,12,13,13,14,14,17,17,19,19,20,20,22,22,23,23,29,29,30,30,31,31,35,35,36,36,43,43,45,45,46,46,48,48,51,51,52,52],"right_children":[2,4,6,8,10,12,14,16,-1,-1,18,20,22,24,26,-1,-1,28,-1,30,32,-1,34,36,-1,-1,-1,-1,-1,38,40,42,-1,-1,-1,44,46,-1,-1,-1,-1,-1,-1,48,-1,50,52,-1,54,-1,-1,56,58,-1,-1,-1,-1,-1,-1],"split_conditions":[1.04E2,3.3966667E1,5.251054E2,2.946E3,-5.1705E4,5.796362E1,9.7228E4,2.5358455E0,-1.5298176E-3,1.8980241E-1,6.9E1,3.2E1,5.7043133E4,1.5046956E2,2.371E3,3.7000182E-1,1.0290023E-1,3.4236898E0,8.507418E-2,5.9931E4,1.05E2,-1.9534674E-2,-2.910423E6,5.98956E4,1.2081792E-1,2.4919775E-1,-2.960375E-2,-1.1146202E-1,-0E0,-4.32E3,8.1424E4,1.3692455E2,5.107243E-2,5.042386E-2,3.657145E-1,1.792559E6,6.1224066E4,-1.6396856E-2,-9.9342525E-2,3.6571825E-1,-3.9974492E-2,-1.10628314E-1,3.8825918E-3,3.7815342E0,3.5827425E-3,3.883727E1,-8.717949E-1,-3.295654E-2,2.5E0,2.0496504E-1,-4.9291532E-2,6.3882E4,4.7027025E0,-1.1765855E-1,-3.9515145E-2,1.8881045E-1,-4.9686637E-2,-1.0808956E-1,1.1029256E-2],"split_indices":[58,123,54,47,69,122,155,169,0,0,142,123,137,171,47,0,0,169,0,5,145,0,70,137,0,0,0,0,0,69,5,56,0,0,0,48,137,0,0,0,0,0,0,111,0,109,80,0,85,0,0,135,73,0,0,0,0,0,0],"split_type":[0,0,0,0,0,0,0,0,0,0,0,0,0,0,0,0,0,0,0,0,0,0,0,0,0,0,0,0,0,0,0,0,0,0,0,0,0,0,0,0,0,0,0,0,0,0,0,0,0,0,0,0,0,0,0,0,0,0,0],"sum_hessian":[2.97E2,5.9E1,2.38E2,2.2E1,3.7E1,7.6E1,1.62E2,1.7E1,5E0,6E0,3.1E1,6E1,1.6E1,1.49E2,1.3E1,9E0,8E0,2.3E1,8E0,2.4E1,3.6E1,5E0,1.1E1,1.44E2,5E0,5E0,8E0,1.8E1,5E0,1.1E1,1.3E1,2.9E1,7E0,5E0,6E0,6.7E1,7.7E1,6E0,5E0,7E0,6E0,2.4E1,5E0,6.2E1,5E0,1E1,6.7E1,5E0,5.7E1,5E0,5E0,1.8E1,4.9E1,5.2E1,5E0,5E0,1.3E1,4.1E1,8E0],"tree_param":{"num_deleted":"0","num_feature":"175","num_nodes":"59","size_leaf_vector":"1"}},{"base_weights":[2.4433196E-1,2.9851568E0,-5.743069E-1,7.9994316E0,8.919055E-1,-1.3784533E0,2.30811E0,-5.3698402E-2,3.74589E-1,-1.703676E0,3.3438058E0,2.8845806E0,-1.7710226E0,2.6264542E-1,8.731814E-1,-2.7728791E0,5.757809E-2,2.3065238E-1,2.8945655E-1,-9.220459E-2,2.9020557E-1,-2.3161356E0,-6.7036144E-2,-9.563232E-1,5.4214344E0,-1.04961224E-1,-1.9686943E-2,1.1092018E-1,-7.5179555E-2,-2.5713494E0,8.166598E-2,2.497232E0,-2.3260176E0,2.66392E0,-2.7837262E0,3.0863446E-1,-4.853089E-2,3.1776156E-2,-2.7488809E0,6.52599E0,-6.919093E-2,-1.1308009E-1,5.8805465E-4,1.880301E-1,-4.888565E-2,-1.8053921E-2,-1.0360822E-1,-4.3394762E-1,-3.1020596E0,3.414661E-2,2.9933286E-1,-6.2516466E-2,6.260824E-2,-9.914425E-2,-7.1867686E-3],"categories":[],"categories_nodes":[],"categories_segments":[],"categories_sizes":[],"default_left":[0,0,0,0,0,0,0,0,0,0,0,0,0,0,0,0,0,0,0,0,0,0,0,0,0,0,0,0,0,0,0,0,0,0,0,0,0,0,0,0,0,0,0,0,0,0,0,0,0,0,0,0,0,0,0],"id":17,"left_children":[1,3,5,7,9,11,13,-1,-1,15,17,19,21,-1,23,25,-1,-1,27,-1,-1,29,31,33,35,-1,-1,-1,-1,37,-1,39,41,43,45,-1,-1,-1,47,49,-1,-1,-1,-1,-1,-1,-1,51,53,-1,-1,-1,-1,-1,-1],"loss_changes":[6.732704E2,7.055184E2,5.413299E2,9.28521E2,3.3678302E2,3.1424405E2,4.516779E2,0E0,0E0,1.117859E2,3.498487E2,7.0994617E2,1.545473E2,0E0,3.7872806E2,2.5593384E1,0E0,0E0,1.9060432E2,0E0,0E0,1.7722723E2,2.6061487E2,2.3320735E2,4.8293637E2,0E0,0E0,0E0,0E0,8.53017E1,0E0,4.3861548E2,8.327406E1,2.0841559E2,2.7433105E1,0E0,0E0,0E0,9.1197205E1,1.9489651E2,0E0,0E0,0E0,0E0,0E0,0E0,0E0,8.35638E1,5.5261597E1,0E0,0E0,0E0,0E0,0E0,0E0],"parents":[2147483647,0,0,1,1,2,2,3,3,4,4,5,5,6,6,9,9,10,10,11,11,12,12,14,14,15,15,18,18,21,21,22,22,23,23,24,24,29,29,31,31,32,32,33,33,34,34,38,38,39,39,47,47,48,48],"right_children":[2,4,6,8,10,12,14,-1,-1,16,18,20,22,-1,24,26,-1,-1,28,-1,-1,30,32,34,36,-1,-1,-1,-1,38,-1,40,42,44,46,-1,-1,-1,48,50,-1,-1,-1,-1,-1,-1,-1,52,54,-1,-1,-1,-1,-1,-1],"split_conditions":[1.14E2,4.165994E1,4.2733334E1,-1E0,5.2925106E1,1.55E4,4.3922096E1,-5.3698402E-2,3.74589E-1,2.748E3,4.0851E4,-2.5881904E-1,8.3756E4,2.6264542E-1,5.4E1,1.18123825E2,5.757809E-2,2.3065238E-1,5.7284906E2,-9.220459E-2,2.9020557E-1,3.261E3,3.3733334E1,5.599993E-2,5.4E2,-1.04961224E-1,-1.9686943E-2,1.1092018E-1,-7.5179555E-2,1.8632536E1,8.166598E-2,1.1199992E-1,2.4E1,6.7307755E1,4.94E1,3.0863446E-1,-4.853089E-2,3.1776156E-2,9.230769E-1,9E0,-6.919093E-2,-1.1308009E-1,5.8805465E-4,1.880301E-1,-4.888565E-2,-1.8053921E-2,-1.0360822E-1,6.8914E4,9E0,3.414661E-2,2.9933286E-1,-6.2516466E-2,6.260824E-2,-9.914425E-2,-7.1867686E-3],"split_indices":[58,133,130,77,120,156,133,0,0,47,5,103,155,0,166,56,0,0,54,0,0,47,121,161,58,0,0,0,0,113,0,162,147,118,121,0,0,0,85,108,0,0,0,0,0,0,0,157,57,0,0,0,0,0,0],"split_type":[0,0,0,0,0,0,0,0,0,0,0,0,0,0,0,0,0,0,0,0,0,0,0,0,0,0,0,0,0,0,0,0,0,0,0,0,0,0,0,0,0,0,0,0,0,0,0,0,0,0,0,0,0,0,0],"sum_hessian":[2.96E2,6.7E1,2.29E2,1.8E1,4.9E1,1.8E2,4.9E1,6E0,1.2E1,2.4E1,2.5E1,1.4E1,1.66E2,7E0,4.2E1,1.9E1,5E0,9E0,1.6E1,8E0,6E0,1.25E2,4.1E1,3.1E1,1.1E1,1.3E1,6E0,7E0,9E0,1.2E2,5E0,1.9E1,2.2E1,1E1,2.1E1,6E0,5E0,5E0,1.15E2,1E1,9E0,1.3E1,9E0,5E0,5E0,6E0,1.5E1,1.6E1,9.9E1,5E0,5E0,1E1,6E0,9.2E1,7E0],"tree_param":{"num_deleted":"0","num_feature":"175","num_nodes":"55","size_leaf_vector":"1"}},{"base_weights":[1.6143441E-1,2.4907565E0,-5.639934E-1,5.8939543E0,-3.1818512E-1,-9.0367866E-1,5.650908E0,1.1588371E1,1.4528556E0,-1.5543396E0,1.24368235E-1,-2.1834714E0,1.16513796E-1,2.7783588E-1,-5.4755685E-4,1.5136608E-1,4.1402045E-1,-8.695324E-2,4.389088E0,7.570457E-2,-2.9175386E0,-2.7043529E0,9.76732E-2,5.6862507E0,-5.774786E-1,1.969858E-1,7.934986E-3,-9.987766E-2,-1.9792298E-2,-3.2412167E0,9.057981E-1,-9.061069E-3,3.8063195E-1,-1.4621786E0,2.1574333E0,8.6112495E-4,-3.4525542E0,-5.6992896E-2,1.064223E-1,1.0043753E-1,-2.0704522E0,-9.9703693E-1,5.9406905E0,-1.1191888E-1,-1.8426746E0,1.2837933E0,-2.6255116E0,5.8784254E-2,-7.422229E-2,3.3670333E-1,1.3685177E-2,-9.864848E-2,2.6521359E-2,1.1109888E-1,-5.3301662E-2,-8.9993775E-2,3.1685542E-2],"categories":[],"categories_nodes":[],"categories_segments":[],"categories_sizes":[],"default_left":[0,0,0,0,0,0,0,0,0,0,0,0,0,0,0,0,0,0,0,0,0,0,0,0,0,0,0,0,0,0,0,0,0,0,0,0,0,0,0,0,0,0,0,0,0,0,0,0,0,0,0,0,0,0,0,0,0],"id":18,"left_children":[1,3,5,7,9,11,13,15,17,19,-1,21,23,-1,-1,-1,-1,-1,25,-1,27,29,-1,31,33,-1,-1,-1,-1,35,37,-1,-1,39,41,-1,43,-1,-1,-1,45,47,49,-1,51,53,55,-1,-1,-1,-1,-1,-1,-1,-1,-1,-1],"loss_changes":[5.4787396E2,7.426112E2,5.292839E2,8.449381E2,2.5438103E2,3.0967212E2,2.7103442E2,6.8434814E1,3.072696E2,2.1504172E2,0E0,3.1481998E2,5.23214E2,0E0,0E0,0E0,0E0,0E0,1.18826416E2,0E0,1.964064E1,1.950409E2,0E0,6.4276025E2,2.9631064E2,0E0,0E0,0E0,0E0,6.0650024E1,1.18059166E2,0E0,0E0,2.8240326E2,3.7234317E2,0E0,1.9278076E1,0E0,0E0,0E0,1.6194202E2,8.855701E1,3.8954758E2,0E0,7.008441E1,1.10386765E2,1.0652368E2,0E0,0E0,0E0,0E0,0E0,0E0,0E0,0E0,0E0,0E0],"parents":[2147483647,0,0,1,1,2,2,3,3,4,4,5,5,6,6,7,7,8,8,9,9,11,11,12,12,18,18,20,20,21,21,23,23,24,24,29,29,30,30,33,33,34,34,36,36,40,40,41,41,42,42,44,44,45,45,46,46],"right_children":[2,4,6,8,10,12,14,16,18,20,-1,22,24,-1,-1,-1,-1,-1,26,-1,28,30,-1,32,34,-1,-1,-1,-1,36,38,-1,-1,40,42,-1,44,-1,-1,-1,46,48,50,-1,52,54,56,-1,-1,-1,-1,-1,-1,-1,-1,-1,-1],"split_conditions":[1.9E-1,2.7666666E1,7.2333336E1,2.0136442E0,9.8420155E-1,5.5832E4,-1.3254E4,1.048972E6,2.5333334E1,-2.8677E4,1.24368235E-1,1.75E1,1.2553884E1,2.7783588E-1,-5.4755685E-4,1.5136608E-1,4.1402045E-1,-8.695324E-2,7.1906E4,7.570457E-2,8.8911E4,1.1204444E2,9.76732E-2,6.123234E-17,4.18E1,1.969858E-1,7.934986E-3,-9.987766E-2,-1.9792298E-2,-9.444444E-1,4.7417442E1,-9.061069E-3,3.8063195E-1,6.1193E4,4.8248866E-1,8.6112495E-4,1.704957E6,-5.6992896E-2,1.064223E-1,1.0043753E-1,9.6955985E-1,5.14E1,4.2691E4,-1.1191888E-1,3.9133335E1,3.38E1,4.5E0,5.8784254E-2,-7.422229E-2,3.3670333E-1,1.3685177E-2,-9.864848E-2,2.6521359E-2,1.1109888E-1,-5.3301662E-2,-8.9993775E-2,3.1685542E-2],"split_indices":[90,108,119,169,125,5,69,6,119,69,0,82,111,0,0,0,0,0,5,0,157,171,0,103,130,0,0,0,0,82,124,0,0,5,71,0,48,0,0,0,169,112,69,0,112,112,73,0,0,0,0,0,0,0,0,0,0],"split_type":[0,0,0,0,0,0,0,0,0,0,0,0,0,0,0,0,0,0,0,0,0,0,0,0,0,0,0,0,0,0,0,0,0,0,0,0,0,0,0,0,0,0,0,0,0,0,0,0,0,0,0,0,0,0,0,0,0],"sum_hessian":[3.2E2,7.5E1,2.45E2,3.3E1,4.2E1,2.34E2,1.1E1,1.3E1,2E1,3.4E1,8E0,1.03E2,1.31E2,6E0,5E0,5E0,8E0,8E0,1.2E1,8E0,2.6E1,9.5E1,8E0,1.3E1,1.18E2,7E0,5E0,2.1E1,5E0,8.3E1,1.2E1,8E0,5E0,9E1,2.8E1,5E0,7.8E1,6E0,6E0,9E0,8.1E1,1.6E1,1.2E1,6.4E1,1.4E1,1.1E1,7E1,5E0,1.1E1,5E0,7E0,9E0,5E0,6E0,5E0,6.4E1,6E0],"tree_param":{"num_deleted":"0","num_feature":"175","num_nodes":"57","size_leaf_vector":"1"}},{"base_weights":[8.0552466E-2,-1.12754E-1,2.276813E-1,4.6485E0,-3.8899827E-1,2.6077935E-1,-6.035472E-2,1.037485E0,-1.1488417E0,-2.1185143E0,2.1646671E0,-1.6876978E0,8.56936E-1,-3.3063946E0,6.955145E-2,3.8090432E0,-1.3346124E0,8.9627504E-1,-2.2347517E0,4.635196E0,-1.1391941E0,-3.0221747E-2,-1.1415888E-1,-7.166096E-1,5.646359E0,-2.782762E0,9.959177E-2,2.0651108E-1,-9.8218346E-1,-2.5453224E0,7.041742E-2,2.1763314E-1,-1.0784765E-2,8.332803E-2,-2.207493E0,-2.3499951E0,6.650391E-2,7.4145894E0,-2.2128116E-2,-1.0346125E-1,-1.1822847E-2,1.0923168E-1,-9.2150584E-2,4.356497E-1,-2.9203124E0,-1.0081385E-1,-4.52781E-1,-2.4961013E-2,-9.3753025E-2,4.214023E-2,3.2159513E-1,-9.490961E-2,1.0781324E-1,-2.538372E-2,-9.551539E-2,1.9520171E-2,-4.494891E-2],"categories":[],"categories_nodes":[],"categories_segments":[],"categories_sizes":[],"default_left":[0,0,0,0,0,0,0,0,0,0,0,0,0,0,0,0,0,0,0,0,0,0,0,0,0,0,0,0,0,0,0,0,0,0,0,0,0,0,0,0,0,0,0,0,0,0,0,0,0,0,0,0,0,0,0,0,0],"id":19,"left_children":[1,3,-1,5,7,-1,-1,9,11,13,15,17,19,21,-1,23,25,27,29,31,33,-1,-1,35,37,39,-1,-1,41,43,-1,-1,-1,-1,45,47,-1,49,-1,-1,-1,-1,-1,51,53,-1,55,-1,-1,-1,-1,-1,-1,-1,-1,-1,-1],"loss_changes":[4.626736E2,4.079049E2,0E0,4.9621692E2,3.2110727E2,0E0,0E0,3.7560556E2,2.1190721E2,1.6339902E2,4.5447256E2,2.2095169E2,3.2906848E2,1.6307281E1,0E0,4.5125513E2,1.9345215E2,3.3139264E2,1.9277344E2,2.0489786E2,1.3332297E2,0E0,0E0,9.193906E1,4.4323254E2,2.876558E1,0E0,0E0,2.4426993E2,1.3792706E2,0E0,0E0,0E0,0E0,4.3605324E1,6.9400177E0,0E0,5.597499E2,0E0,0E0,0E0,0E0,0E0,1.9345975E2,5.108539E1,0E0,1.621775E1,0E0,0E0,0E0,0E0,0E0,0E0,0E0,0E0,0E0,0E0],"parents":[2147483647,0,0,1,1,3,3,4,4,7,7,8,8,9,9,10,10,11,11,12,12,13,13,15,15,16,16,17,17,18,18,19,19,20,20,23,23,24,24,25,25,28,28,29,29,34,34,35,35,37,37,43,43,44,44,46,46],"right_children":[2,4,-1,6,8,-1,-1,10,12,14,16,18,20,22,-1,24,26,28,30,32,34,-1,-1,36,38,40,-1,-1,42,44,-1,-1,-1,-1,46,48,-1,50,-1,-1,-1,-1,-1,52,54,-1,56,-1,-1,-1,-1,-1,-1,-1,-1,-1,-1],"split_conditions":[1.49E2,2.5019611E1,2.276813E-1,6.488044E2,5.251054E2,2.6077935E-1,-6.035472E-2,5.442577E2,7.2694664E4,8.6E1,5.09E2,2.3414E4,6.54925E4,4.2673663E2,6.955145E-2,5E0,6.65E2,1.5562614E0,1.5556412E3,6.3914886E2,4.107461E1,-3.0221747E-2,-1.1415888E-1,6.6613E4,6.1153633E1,1.1650993E2,9.959177E-2,2.0651108E-1,1.04E2,1.8543E4,7.041742E-2,2.1763314E-1,-1.0784765E-2,8.332803E-2,7.6968336E4,2.501437E6,6.650391E-2,3.681E4,-2.2128116E-2,-1.0346125E-1,-1.1822847E-2,1.0923168E-1,-9.2150584E-2,1.296167E6,2.89E1,-1.0081385E-1,1.4E1,-2.4961013E-2,-9.3753025E-2,4.214023E-2,3.2159513E-1,-9.490961E-2,1.0781324E-1,-2.538372E-2,-9.551539E-2,1.9520171E-2,-4.494891E-2],"split_indices":[168,131,0,55,54,0,0,55,135,142,58,5,136,54,0,57,58,169,67,55,122,0,0,157,111,56,0,0,58,154,0,0,0,0,136,6,0,157,0,0,0,0,0,48,123,0,2,0,0,0,0,0,0,0,0,0,0],"split_type":[0,0,0,0,0,0,0,0,0,0,0,0,0,0,0,0,0,0,0,0,0,0,0,0,0,0,0,0,0,0,0,0,0,0,0,0,0,0,0,0,0,0,0,0,0,0,0,0,0,0,0,0,0,0,0,0,0],"sum_hessian":[3.13E2,3.07E2,6E0,1.5E1,2.92E2,9E0,6E0,1.01E2,1.91E2,2.6E1,7.5E1,1.51E2,4E1,2.1E1,5E0,5.1E1,2.4E1,2.6E1,1.25E2,1.3E1,2.7E1,5E0,1.6E1,1.5E1,3.6E1,1.9E1,5E0,5E0,2.1E1,1.18E2,7E0,8E0,5E0,5E0,2.2E1,1E1,5E0,2.8E1,8E0,1.4E1,5E0,6E0,1.5E1,1.3E1,1.05E2,1.2E1,1E1,5E0,5E0,1.1E1,1.7E1,6E0,7E0,1.3E1,9.2E1,5E0,5E0],"tree_param":{"num_deleted":"0","num_feature":"175","num_nodes":"57","size_leaf_vector":"1"}},{"base_weights":[2.864836E-1,9.469996E-1,-1.5793613E0,-1.3733022E0,1.8091923E0,-2.1650915E0,8.127612E-2,2.0268679E0,-2.7432356E0,7.3041377E0,1.3512974E0,-2.524476E0,6.081794E-2,-1.8835896E0,2.1841341E-1,-3.5596988E0,-9.591636E-1,3.1092536E-1,4.94587E-2,7.148867E0,8.4109604E-1,-2.8915133E0,-0E0,-2.3652563E-2,-6.9253996E-2,-5.1495098E-2,-1.17554195E-1,-6.682648E-2,4.7970835E-2,4.3438982E-2,3.0862314E-1,-1.4678061E-1,2.8517795E0,-3.2497463E0,8.294826E-3,-7.03744E-1,3.864613E0,-1.3217068E0,5.2234817E0,-2.2373479E-2,-3.6255825E0,9.506321E-1,-1.6380993E0,2.4337572E-1,-6.068666E-2,-8.575872E-2,6.833669E-2,7.609055E0,-8.320181E-2,-1.1366005E-1,-4.5493815E-2,-4.6374265E-2,1.2418895E-1,8.433799E-2,-6.434085E-2,6.882908E-2,3.183821E-1],"categories":[],"categories_nodes":[],"categories_segments":[],"categories_sizes":[],"default_left":[0,0,0,0,0,0,0,0,0,0,0,0,0,0,0,0,0,0,0,0,0,0,0,0,0,0,0,0,0,0,0,0,0,0,0,0,0,0,0,0,0,0,0,0,0,0,0,0,0,0,0,0,0,0,0,0,0],"id":20,"left_children":[1,3,5,7,9,11,-1,13,15,17,19,21,-1,23,-1,25,27,-1,-1,29,31,33,-1,-1,-1,-1,-1,-1,-1,-1,-1,35,37,39,-1,41,43,45,47,-1,49,51,53,-1,-1,-1,-1,55,-1,-1,-1,-1,-1,-1,-1,-1,-1],"loss_changes":[4.0074695E2,4.8531845E2,2.2497435E2,3.1890698E2,4.1876715E2,1.24991E2,0E0,4.4100317E2,6.083008E1,1.8479962E2,4.7203732E2,6.589111E1,0E0,8.605499E-1,0E0,4.891693E0,6.584401E1,0E0,0E0,1.969455E2,3.0808093E2,7.3646545E1,0E0,0E0,0E0,0E0,0E0,0E0,0E0,0E0,0E0,2.3844989E2,5.205703E2,4.5106934E1,0E0,1.4876105E2,3.6099084E2,1.2395929E2,6.741691E2,0E0,2.3672485E0,2.9273532E2,1.4922115E2,0E0,0E0,0E0,0E0,3.5990833E2,0E0,0E0,0E0,0E0,0E0,0E0,0E0,0E0,0E0],"parents":[2147483647,0,0,1,1,2,2,3,3,4,4,5,5,7,7,8,8,9,9,10,10,11,11,13,13,15,15,16,16,19,19,20,20,21,21,31,31,32,32,33,33,35,35,36,36,37,37,38,38,40,40,41,41,42,42,47,47],"right_children":[2,4,6,8,10,12,-1,14,16,18,20,22,-1,24,-1,26,28,-1,-1,30,32,34,-1,-1,-1,-1,-1,-1,-1,-1,-1,36,38,40,-1,42,44,46,48,-1,50,52,54,-1,-1,-1,-1,56,-1,-1,-1,-1,-1,-1,-1,-1,-1],"split_conditions":[5.789876E1,3.7114E4,1.07E2,6.686076E1,7.9999985E-3,9.8333336E1,8.127612E-2,-1.2340424E-1,8.6900894E1,2.7199998E-1,4.0851E4,1.53E2,6.081794E-2,4.0255966E1,2.1841341E-1,-3.7079E4,4.9E1,3.1092536E-1,4.94587E-2,8.104712E1,1.618173E6,9.5882E4,-0E0,-2.3652563E-2,-6.9253996E-2,-5.1495098E-2,-1.17554195E-1,-6.682648E-2,4.7970835E-2,4.3438982E-2,3.0862314E-1,8E0,3.999999E-2,-1.4212383E2,8.294826E-3,3.1366667E1,5.75825E2,7.0274536E1,3E0,-2.2373479E-2,1.27E2,3.814053E1,-8.163065E-1,2.4337572E-1,-6.068666E-2,-8.575872E-2,6.833669E-2,7.2811E4,-8.320181E-2,-1.1366005E-1,-4.5493815E-2,-4.6374265E-2,1.2418895E-1,8.433799E-2,-6.434085E-2,6.882908E-2,3.183821E-1],"split_indices":[120,157,168,56,163,117,0,125,171,159,157,147,0,122,0,69,143,0,0,56,48,158,0,0,0,0,0,0,0,0,0,74,68,86,0,132,55,171,74,0,77,133,125,0,0,0,0,157,0,0,0,0,0,0,0,0,0],"split_type":[0,0,0,0,0,0,0,0,0,0,0,0,0,0,0,0,0,0,0,0,0,0,0,0,0,0,0,0,0,0,0,0,0,0,0,0,0,0,0,0,0,0,0,0,0,0,0,0,0,0,0,0,0,0,0,0,0],"sum_hessian":[3.21E2,2.38E2,8.3E1,6.4E1,1.74E2,7.4E1,9E0,1.8E1,4.6E1,1.1E1,1.63E2,6.9E1,5E0,1.1E1,7E0,3E1,1.6E1,6E0,5E0,1.1E1,1.52E2,6E1,9E0,5E0,6E0,7E0,2.3E1,1.1E1,5E0,5E0,6E0,1.03E2,4.9E1,5.4E1,6E0,9.2E1,1.1E1,1.8E1,3.1E1,8E0,4.6E1,3.3E1,5.9E1,6E0,5E0,1.3E1,5E0,2.4E1,7E0,4.1E1,5E0,1.9E1,1.4E1,5E0,5.4E1,1E1,1.4E1],"tree_param":{"num_deleted":"0","num_feature":"175","num_nodes":"57","size_leaf_vector":"1"}},{"base_weights":[-7.484981E-2,1.7417898E0,-9.549633E-1,3.599415E0,-1.2306881E0,-3.0793266E0,-1.7332643E-1,5.952571E0,6.94277E-1,2.2414806E0,-3.0207293E0,-1.0803188E-1,-5.919836E-3,2.267698E0,-1.1298434E0,9.3031945E-3,7.862646E0,-9.763067E-1,2.0317097E-1,-5.7740644E-2,2.2872466E-1,-1.772019E-2,-1.0821141E-1,-8.071119E-2,4.6965284E0,-2.1215353E0,1.1503437E0,9.710754E0,6.474822E-2,9.395982E-2,-2.2765682E0,9.273911E0,3.3242816E-1,-2.5656095E0,9.7036935E-2,3.934866E0,-1.4457607E0,3.5066298E-1,8.7264016E-2,-9.810952E-2,-1.4381413E-2,3.9199308E-1,3.4047086E-2,1.02458686E-1,-6.6147E-2,-8.781813E-1,-3.1279702E0,-5.4176234E-2,6.4591312E0,3.1276736E-2,-2.4475415E0,-2.4818804E0,5.8027398E-2,-2.700863E-2,-3.5055993E0,2.8743824E-1,6.1499175E-2,-2.9043874E-2,-9.489363E-2,-8.7122284E-2,-3.2946195E-2,-1.11620024E-1,-3.4264795E-2],"categories":[],"categories_nodes":[],"categories_segments":[],"categories_sizes":[],"default_left":[0,0,0,0,0,0,0,0,0,0,0,0,0,0,0,0,0,0,0,0,0,0,0,0,0,0,0,0,0,0,0,0,0,0,0,0,0,0,0,0,0,0,0,0,0,0,0,0,0,0,0,0,0,0,0,0,0,0,0,0,0,0,0],"id":21,"left_children":[1,3,5,7,9,11,13,15,17,19,21,-1,-1,23,25,-1,27,29,-1,-1,-1,-1,-1,-1,31,33,35,37,-1,-1,39,41,43,45,-1,47,49,-1,-1,-1,-1,-1,-1,-1,-1,51,53,-1,55,-1,57,59,-1,-1,61,-1,-1,-1,-1,-1,-1,-1,-1],"loss_changes":[5.0497186E2,5.787842E2,3.509886E2,4.259306E2,2.6875977E2,8.238733E1,3.734666E2,3.6825085E2,3.308945E2,3.6857498E2,3.353398E1,0E0,0E0,5.6817804E2,2.6540955E2,0E0,2.2624829E2,1.5272119E2,0E0,0E0,0E0,0E0,0E0,0E0,6.08292E2,2.0892172E2,2.728631E2,1.8033313E2,0E0,0E0,3.2494728E1,4.262517E2,1.564661E2,6.462274E1,0E0,2.8649615E2,5.5660896E1,0E0,0E0,0E0,0E0,0E0,0E0,0E0,0E0,1.091013E2,3.85943E1,0E0,1.3386005E2,0E0,7.689308E0,3.8302612E-1,0E0,0E0,1.2959534E1,0E0,0E0,0E0,0E0,0E0,0E0,0E0,0E0],"parents":[2147483647,0,0,1,1,2,2,3,3,4,4,5,5,6,6,7,7,8,8,9,9,10,10,13,13,14,14,16,16,17,17,24,24,25,25,26,26,27,27,30,30,31,31,32,32,33,33,35,35,36,36,45,45,46,46,48,48,50,50,51,51,54,54],"right_children":[2,4,6,8,10,12,14,16,18,20,22,-1,-1,24,26,-1,28,30,-1,-1,-1,-1,-1,-1,32,34,36,38,-1,-1,40,42,44,46,-1,48,50,-1,-1,-1,-1,-1,-1,-1,-1,52,54,-1,56,-1,58,60,-1,-1,62,-1,-1,-1,-1,-1,-1,-1,-1],"split_conditions":[3.0733334E1,6.6333336E-1,2.8582035E1,1.4E1,1.956272E1,1.5304068E2,4.3178604E2,2.540969E2,4.4166668E1,2.5779E4,-9.285714E-1,-1.0803188E-1,-5.919836E-3,7.4392715E1,4.4E1,9.3031945E-3,3.3614476E0,2.78E1,2.0317097E-1,-5.7740644E-2,2.2872466E-1,-1.772019E-2,-1.0821141E-1,-8.071119E-2,3.7E1,8.8E1,5.7743036E2,8.2967E4,6.474822E-2,9.395982E-2,4.278128E1,6.136173E2,5.1160016E2,5.525654E2,9.7036935E-2,2.9074976E-1,-8.660254E-1,3.5066298E-1,8.7264016E-2,-9.810952E-2,-1.4381413E-2,3.9199308E-1,3.4047086E-2,1.02458686E-1,-6.6147E-2,3.4333332E1,6.21423E1,-5.4176234E-2,5.9052332E4,3.1276736E-2,5.2568E4,1.3E1,5.8027398E-2,-2.700863E-2,1.34482E3,2.8743824E-1,6.1499175E-2,-2.9043874E-2,-9.489363E-2,-8.7122284E-2,-3.2946195E-2,-1.11620024E-1,-3.4264795E-2],"split_indices":[132,90,67,141,111,56,172,172,119,69,82,0,0,56,142,0,169,114,0,0,0,0,0,0,0,166,54,157,0,0,113,55,54,55,0,174,103,0,0,0,0,0,0,0,0,130,67,0,135,0,158,139,0,0,172,0,0,0,0,0,0,0,0],"split_type":[0,0,0,0,0,0,0,0,0,0,0,0,0,0,0,0,0,0,0,0,0,0,0,0,0,0,0,0,0,0,0,0,0,0,0,0,0,0,0,0,0,0,0,0,0,0,0,0,0,0,0,0,0,0,0,0,0,0,0,0,0,0,0],"sum_hessian":[3.12E2,1.01E2,2.11E2,6.2E1,3.9E1,5.5E1,1.56E2,3.3E1,2.9E1,1.3E1,2.6E1,4.6E1,9E0,4.3E1,1.13E2,9E0,2.4E1,2.4E1,5E0,8E0,5E0,6E0,2E1,1.4E1,2.9E1,7.9E1,3.4E1,1.7E1,7E0,5E0,1.9E1,1.3E1,1.6E1,7.4E1,5E0,1.6E1,1.8E1,1.2E1,5E0,1.1E1,8E0,8E0,5E0,7E0,9E0,2E1,5.4E1,5E0,1.1E1,5E0,1.3E1,1.3E1,7E0,9E0,4.5E1,5E0,6E0,6E0,7E0,8E0,5E0,4E1,5E0],"tree_param":{"num_deleted":"0","num_feature":"175","num_nodes":"63","size_leaf_vector":"1"}},{"base_weights":[2.5640482E-1,1.9229172E0,-5.927839E-1,6.0575285E0,7.666161E-1,3.854591E0,-9.279365E-1,8.043386E0,-2.1247728E-2,3.1145577E0,-1.1232402E0,2.6891768E-1,-4.4641726E-2,-1.5564987E-1,-2.4142942E0,1.9391872E-2,3.225143E-1,5.873817E0,-1.1178739E0,-2.7782142E0,2.9651294E0,-1.9611486E0,1.060703E0,-3.0161235E0,2.5922018E-1,8.089139E0,-5.2380133E-2,-9.518012E-2,5.7733204E-2,-1.2226168E-2,-1.0225748E-1,-2.8875902E-2,2.0114891E-1,-2.3780167E0,2.9035388E-2,2.0490111E-1,1.2994137E-1,-3.4107652E0,2.7776223E-3,1.0866352E-1,-7.0752464E-2,5.57449E-2,3.4117544E-1,1.2556558E-2,-2.8093622E0,-6.957815E-1,1.606802E-1,-2.9048847E-2,-3.6329415E0,-1.04989566E-1,-1.6750778E0,-1.6917644E0,2.6835988E0,-4.083141E-2,-1.15247756E-1,-1.8369978E-4,-8.982054E-2,-7.184728E-2,2.6770389E-2,1.8549266E-1,-5.5851813E-2],"categories":[],"categories_nodes":[],"categories_segments":[],"categories_sizes":[],"default_left":[0,0,0,0,0,0,0,0,0,0,0,0,0,0,0,0,0,0,0,0,0,0,0,0,0,0,0,0,0,0,0,0,0,0,0,0,0,0,0,0,0,0,0,0,0,0,0,0,0,0,0,0,0,0,0,0,0,0,0,0,0],"id":22,"left_children":[1,3,5,7,9,11,13,15,-1,17,19,-1,-1,21,23,-1,-1,25,27,29,31,33,35,37,39,41,-1,-1,-1,-1,-1,-1,-1,43,-1,-1,45,47,-1,-1,-1,-1,-1,-1,49,51,-1,-1,53,-1,55,57,59,-1,-1,-1,-1,-1,-1,-1,-1],"loss_changes":[4.4872766E2,4.9885193E2,3.1870563E2,3.240866E2,3.895979E2,4.3987607E2,2.2409857E2,3.4084106E2,0E0,4.7096704E2,3.4792322E2,0E0,0E0,2.9449896E2,1.1074512E2,0E0,0E0,4.365475E2,1.1910808E2,4.911206E1,2.361106E2,7.124242E1,4.2433502E2,6.976614E1,1.4095651E2,3.398346E2,0E0,0E0,0E0,0E0,0E0,0E0,0E0,6.1448944E1,0E0,0E0,3.1616837E2,1.725415E1,0E0,0E0,0E0,0E0,0E0,0E0,1.8573639E1,2.2062982E2,0E0,0E0,7.79895E0,0E0,4.248829E1,9.587569E1,2.6377795E2,0E0,0E0,0E0,0E0,0E0,0E0,0E0,0E0],"parents":[2147483647,0,0,1,1,2,2,3,3,4,4,5,5,6,6,7,7,9,9,10,10,13,13,14,14,17,17,18,18,19,19,20,20,21,21,22,22,23,23,24,24,25,25,33,33,36,36,37,37,44,44,45,45,48,48,50,50,51,51,52,52],"right_children":[2,4,6,8,10,12,14,16,-1,18,20,-1,-1,22,24,-1,-1,26,28,30,32,34,36,38,40,42,-1,-1,-1,-1,-1,-1,-1,44,-1,-1,46,48,-1,-1,-1,-1,-1,-1,50,52,-1,-1,54,-1,56,58,60,-1,-1,-1,-1,-1,-1,-1,-1],"split_conditions":[5.318309E2,9.6955985E-1,1.6734E4,7.637408E1,9E0,1.5562614E0,6.3914886E2,6E0,-2.1247728E-2,1.02526794E2,9.659258E-1,2.6891768E-1,-4.4641726E-2,-4.054054E-1,7.519284E2,1.9391872E-2,3.225143E-1,5.271982E1,5.2955326E1,4.2241724E2,1.0050089E2,7.8785504E2,3.6970337E1,6.523317E1,5E0,2.9633333E1,-5.2380133E-2,-9.518012E-2,5.7733204E-2,-1.2226168E-2,-1.0225748E-1,-2.8875902E-2,2.0114891E-1,-1.26E2,2.9035388E-2,2.0490111E-1,1.24E2,2.2533333E1,2.7776223E-3,1.0866352E-1,-7.0752464E-2,5.57449E-2,3.4117544E-1,1.2556558E-2,3.8866665E1,8.660254E-1,1.606802E-1,-2.9048847E-2,-1.14E2,-1.04989566E-1,4.3166668E1,6.579247E4,4.538229E1,-4.083141E-2,-1.15247756E-1,-1.8369978E-4,-8.982054E-2,-7.184728E-2,2.6770389E-2,1.8549266E-1,-5.5851813E-2],"split_indices":[54,169,5,118,165,169,55,139,0,56,102,0,0,82,55,0,0,124,129,54,56,54,133,129,141,123,0,0,0,0,0,0,0,81,0,0,141,112,0,0,0,0,0,0,130,103,0,0,79,0,110,137,131,0,0,0,0,0,0,0,0],"split_type":[0,0,0,0,0,0,0,0,0,0,0,0,0,0,0,0,0,0,0,0,0,0,0,0,0,0,0,0,0,0,0,0,0,0,0,0,0,0,0,0,0,0,0,0,0,0,0,0,0,0,0,0,0,0,0,0,0,0,0,0,0],"sum_hessian":[3.13E2,1.05E2,2.08E2,2.1E1,8.4E1,1.3E1,1.95E2,1.6E1,5E0,3.7E1,4.7E1,6E0,7E0,1.3E2,6.5E1,5E0,1.1E1,2.2E1,1.5E1,3.4E1,1.3E1,5.2E1,7.8E1,5.3E1,1.2E1,1.7E1,5E0,9E0,6E0,8E0,2.6E1,7E0,6E0,4.6E1,6E0,9E0,6.9E1,4.7E1,6E0,5E0,7E0,7E0,1E1,6E0,4E1,6.1E1,8E0,5E0,4.2E1,2.2E1,1.8E1,4.8E1,1.3E1,5E0,3.7E1,9E0,9E0,3.8E1,1E1,7E0,6E0],"tree_param":{"num_deleted":"0","num_feature":"175","num_nodes":"61","size_leaf_vector":"1"}},{"base_weights":[2.3260896E-1,-2.0359278E0,7.182544E-1,-1.3753068E-2,-3.0863485E0,4.5098495E0,3.450223E-1,1.5393986E-1,-2.1601098E0,-9.97831E-2,-3.0084971E-2,-4.8298992E-2,7.8022537E0,1.8894757E0,-8.4184724E-1,-1.6102E-3,-8.961538E-2,5.631353E-2,3.2795733E-1,-5.1973466E-2,5.000929E0,1.4674968E0,-1.7496085E0,1.8188293E-1,-9.4598466E-1,2.957561E-1,2.8511434E0,4.986831E0,-7.082195E-1,-2.2235248E0,2.1731772E0,-1.8250338E0,1.3741934E-1,-1.7054479E-1,7.3321557E0,-5.1811084E-2,2.8231674E-1,6.50051E-2,-2.1731734E0,-2.5659747E0,5.982E-2,1.9580927E-1,-8.190303E-2,-2.5173519E0,5.231604E-2,-1.5425578E0,8.828351E-2,8.7635465E-2,3.0620816E-1,-9.307626E-2,7.0512462E-3,-2.7272632E0,-0E0,-9.979573E-2,1.0664648E-2,3.7559706E-3,-7.854755E-2,-8.779866E-2,-1.2129745E-2],"categories":[],"categories_nodes":[],"categories_segments":[],"categories_sizes":[],"default_left":[0,0,0,0,0,0,0,0,0,0,0,0,0,0,0,0,0,0,0,0,0,0,0,0,0,0,0,0,0,0,0,0,0,0,0,0,0,0,0,0,0,0,0,0,0,0,0,0,0,0,0,0,0,0,0,0,0,0,0],"id":23,"left_children":[1,3,5,7,9,11,13,-1,15,-1,-1,-1,17,19,21,-1,-1,-1,-1,23,25,27,29,-1,31,-1,33,35,37,39,41,43,-1,45,47,-1,-1,-1,49,51,-1,-1,-1,53,-1,55,-1,-1,-1,-1,-1,57,-1,-1,-1,-1,-1,-1,-1],"loss_changes":[3.6252316E2,1.21564835E2,3.779649E2,2.6363284E2,1.01467285E1,5.117926E2,4.601382E2,0E0,2.7775787E1,0E0,0E0,0E0,2.4925305E2,6.614337E2,3.0295544E2,0E0,0E0,0E0,0E0,3.8611066E2,3.7602722E2,3.2314282E2,2.011738E2,0E0,3.1654892E2,0E0,4.393688E2,5.115516E2,1.2314027E2,1.448382E2,2.937117E2,1.4506145E2,0E0,9.8080795E1,9.865094E1,0E0,0E0,0E0,4.5416473E1,3.708539E1,0E0,0E0,0E0,1.1310785E2,0E0,3.0606064E1,0E0,0E0,0E0,0E0,0E0,3.3942017E1,0E0,0E0,0E0,0E0,0E0,0E0,0E0],"parents":[2147483647,0,0,1,1,2,2,3,3,4,4,5,5,6,6,8,8,12,12,13,13,14,14,19,19,20,20,21,21,22,22,24,24,26,26,27,27,28,28,29,29,30,30,31,31,33,33,34,34,38,38,39,39,43,43,45,45,51,51],"right_children":[2,4,6,8,10,12,14,-1,16,-1,-1,-1,18,20,22,-1,-1,-1,-1,24,26,28,30,-1,32,-1,34,36,38,40,42,44,-1,46,48,-1,-1,-1,50,52,-1,-1,-1,54,-1,56,-1,-1,-1,-1,-1,58,-1,-1,-1,-1,-1,-1,-1],"split_conditions":[5.13742E4,-5.493473E1,1.9445E4,2.8325E4,8E0,1.47E2,2.28E2,1.5393986E-1,4.7365168E4,-9.97831E-2,-3.0084971E-2,-4.8298992E-2,-2.5881904E-1,1.3293645E-2,3.5618115E2,-1.6102E-3,-8.961538E-2,5.631353E-2,3.2795733E-1,-7.926508E-1,3.5697E4,2.4921879E1,9.659258E-1,1.8188293E-1,8.8E1,2.957561E-1,6.47965E4,5.4141668E4,3.729107E6,8.12563E0,1.1434706E2,1.530105E2,1.3741934E-1,1.669159E3,1.04E2,-5.1811084E-2,2.8231674E-1,6.50051E-2,3.5E1,1.6068657E2,5.982E-2,1.9580927E-1,-8.190303E-2,8.672787E2,5.231604E-2,2.2596571E0,8.828351E-2,8.7635465E-2,3.0620816E-1,-9.307626E-2,7.0512462E-3,1.3475053E2,-0E0,-9.979573E-2,1.0664648E-2,3.7559706E-3,-7.854755E-2,-8.779866E-2,-1.2129745E-2],"split_indices":[137,86,156,155,57,58,58,0,136,0,0,0,103,134,172,0,0,0,0,116,5,129,103,0,167,0,136,135,49,169,56,56,0,67,58,0,0,0,141,56,0,0,0,172,0,86,0,0,0,0,0,171,0,0,0,0,0,0,0],"split_type":[0,0,0,0,0,0,0,0,0,0,0,0,0,0,0,0,0,0,0,0,0,0,0,0,0,0,0,0,0,0,0,0,0,0,0,0,0,0,0,0,0,0,0,0,0,0,0,0,0,0,0,0,0,0,0,0,0,0,0],"sum_hessian":[3.25E2,5.6E1,2.69E2,2E1,3.6E1,2.2E1,2.47E2,5E0,1.5E1,3.1E1,5E0,8E0,1.4E1,1.07E2,1.4E2,5E0,1E1,6E0,8E0,6.7E1,4E1,3.9E1,1.01E2,7E0,6E1,1E1,3E1,1.4E1,2.5E1,9.1E1,1E1,5.3E1,7E0,1.9E1,1.1E1,6E0,8E0,8E0,1.7E1,8.5E1,6E0,5E0,5E0,4.5E1,8E0,1.4E1,5E0,6E0,5E0,1.2E1,5E0,8E1,5E0,3.5E1,1E1,6E0,8E0,7.3E1,7E0],"tree_param":{"num_deleted":"0","num_feature":"175","num_nodes":"59","size_leaf_vector":"1"}},{"base_weights":[1.6614138E-1,-6.206055E-2,5.3126645E0,1.3306772E0,-8.1434095E-1,2.650105E-1,-1.9825088E-2,2.563697E0,-5.8058304E-1,2.57048E0,-1.2290555E0,2.329661E-1,5.858815E0,-2.140496E0,2.2110968E0,-9.4483334E-1,2.2138064E-1,1.13179885E-1,-1.5005758E0,-1.4454236E0,3.831949E0,9.7622385E0,1.1408827E0,3.7019432E-3,-8.9930266E-2,1.7726289E-1,-4.5270666E-2,4.22465E-2,-7.359004E-2,-2.021179E0,4.9695596E-1,-2.9316E0,1.2611696E-1,2.054528E-1,-3.209381E-2,3.859842E-1,7.402363E-2,-6.654817E-2,1.4091635E-1,-2.4302278E0,2.739468E0,3.7292132E0,-1.2624868E0,-3.660916E-2,-9.95172E-2,-2.652185E0,4.74873E-2,2.1444495E-1,-7.141517E-2,1.7326385E-1,-0E0,5.2963234E-2,-3.1026182E0,-3.5019387E-2,-9.154755E-2,-1.08475335E-1,-3.794733E-2],"categories":[],"categories_nodes":[],"categories_segments":[],"categories_sizes":[],"default_left":[0,0,0,0,0,0,0,0,0,0,0,0,0,0,0,0,0,0,0,0,0,0,0,0,0,0,0,0,0,0,0,0,0,0,0,0,0,0,0,0,0,0,0,0,0,0,0,0,0,0,0,0,0,0,0,0,0],"id":24,"left_children":[1,3,5,7,9,-1,-1,11,13,15,17,19,21,23,25,27,-1,-1,29,31,33,35,37,-1,-1,-1,-1,-1,-1,39,41,43,-1,-1,-1,-1,-1,-1,-1,45,47,49,51,-1,-1,53,-1,-1,-1,-1,-1,-1,55,-1,-1,-1,-1],"loss_changes":[3.873287E2,3.3194382E2,3.1022104E2,2.6555344E2,2.948172E2,0E0,0E0,5.164666E2,2.053954E2,4.0596985E2,2.6142877E2,2.6597165E2,4.879237E2,6.039386E1,2.5388066E2,6.066304E1,0E0,0E0,1.868371E2,2.7588885E2,2.2454607E2,2.6847437E2,2.0127277E2,0E0,0E0,0E0,0E0,0E0,0E0,2.87735E2,2.2675447E2,6.133713E0,0E0,0E0,0E0,0E0,0E0,0E0,0E0,1.2561859E2,3.072853E2,1.0550517E2,1.5648999E2,0E0,0E0,6.48985E1,0E0,0E0,0E0,0E0,0E0,0E0,4.4458923E0,0E0,0E0,0E0,0E0],"parents":[2147483647,0,0,1,1,2,2,3,3,4,4,7,7,8,8,9,9,10,10,11,11,12,12,13,13,14,14,15,15,18,18,19,19,20,20,21,21,22,22,29,29,30,30,31,31,39,39,40,40,41,41,42,42,45,45,52,52],"right_children":[2,4,6,8,10,-1,-1,12,14,16,18,20,22,24,26,28,-1,-1,30,32,34,36,38,-1,-1,-1,-1,-1,-1,40,42,44,-1,-1,-1,-1,-1,-1,-1,46,48,50,52,-1,-1,54,-1,-1,-1,-1,-1,-1,56,-1,-1,-1,-1],"split_conditions":[1.82E2,5.251054E2,6.2025832E4,6.9708E4,7.9999985E-3,2.650105E-1,-1.9825088E-2,5.9996934E4,5.0799137E1,6.2124332E4,2.504339E1,7.4375145E1,3.4933334E1,3.6872E4,2.8E0,5.525654E2,2.2138064E-1,1.13179885E-1,7.2694664E4,7.932423E1,3.5254865E0,1.1997437E7,7E0,3.7019432E-3,-8.9930266E-2,1.7726289E-1,-4.5270666E-2,4.22465E-2,-7.359004E-2,1.5636302E3,7.7667336E4,1.88E3,1.2611696E-1,2.054528E-1,-3.209381E-2,3.859842E-1,7.402363E-2,-6.654817E-2,1.4091635E-1,1.87321E6,3.38E2,2.3E1,6.0903864E2,-3.660916E-2,-9.95172E-2,5.41651E4,4.74873E-2,2.1444495E-1,-7.141517E-2,1.7326385E-1,-0E0,5.2963234E-2,7.4232196E2,-3.5019387E-2,-9.154755E-2,-1.08475335E-1,-3.794733E-2],"split_indices":[143,54,136,158,163,0,0,137,122,137,122,171,121,155,73,55,0,0,135,109,169,6,143,0,0,0,0,0,0,67,135,47,0,0,0,0,0,0,0,48,58,143,54,0,0,138,0,0,0,0,0,0,54,0,0,0,0],"split_type":[0,0,0,0,0,0,0,0,0,0,0,0,0,0,0,0,0,0,0,0,0,0,0,0,0,0,0,0,0,0,0,0,0,0,0,0,0,0,0,0,0,0,0,0,0,0,0,0,0,0,0,0,0,0,0,0,0],"sum_hessian":[3.25E2,3.13E2,1.2E1,1.09E2,2.04E2,7E0,5E0,6.6E1,4.3E1,2.1E1,1.83E2,4E1,2.6E1,2.8E1,1.5E1,1.3E1,8E0,8E0,1.75E2,2.8E1,1.2E1,1.3E1,1.3E1,8E0,2E1,7E0,8E0,5E0,8E0,1.39E2,3.6E1,2.3E1,5E0,7E0,5E0,8E0,5E0,7E0,6E0,1.29E2,1E1,1.2E1,2.4E1,6E0,1.7E1,1.23E2,6E0,5E0,5E0,7E0,5E0,9E0,1.5E1,2.8E1,9.5E1,1E1,5E0],"tree_param":{"num_deleted":"0","num_feature":"175","num_nodes":"57","size_leaf_vector":"1"}},{"base_weights":[2.0696878E-1,-8.787495E-2,4.493321E0,4.8138695E0,-3.763367E-1,-9.953742E-3,8.209121E0,3.0834413E-1,-3.0502396E-2,9.4549024E-1,-1.0846192E0,3.176359E-1,1.024046E-1,2.400878E0,-1.6188934E0,1.3777671E0,-1.5124717E0,-1.0754906E0,4.1993117E0,-2.7059243E0,1.16903804E-1,-1.7970616E0,3.8596532E0,-2.1262095E0,6.0515004E-1,-2.7514415E0,6.8209104E-2,9.123977E0,1.989637E0,-3.0768423E0,-2.9325334E-2,-8.7910295E-2,3.0609758E-3,-3.5536144E-2,2.0615567E-1,5.4219E-2,-2.6665933E0,3.8544753E0,-1.3728571E0,-9.642515E-2,-3.301904E-2,3.457178E-1,1.4041582E-1,-1.5451564E0,5.527696E0,-4.01689E-2,-1.0317928E-1,-1.8668972E0,1.1230488E-1,-3.0605328E0,-8.3182305E-1,1.9813628E-1,-3.3121273E-2,5.248633E-2,-2.353412E0,-8.325797E-2,3.3281326E-2,-1.4917531E-2,2.4487898E-1,-9.729029E-2,-0E0,-1.0049866E-1,-3.3594392E-2,4.2736944E-2,-5.8729604E-2,1.394013E-3,-9.578701E-2],"categories":[],"categories_nodes":[],"categories_segments":[],"categories_sizes":[],"default_left":[0,0,0,0,0,0,0,0,0,0,0,0,0,0,0,0,0,0,0,0,0,0,0,0,0,0,0,0,0,0,0,0,0,0,0,0,0,0,0,0,0,0,0,0,0,0,0,0,0,0,0,0,0,0,0,0,0,0,0,0,0,0,0,0,0,0,0],"id":25,"left_children":[1,3,5,7,9,-1,11,-1,-1,13,15,-1,-1,17,19,21,23,25,27,29,-1,31,33,35,37,39,-1,41,43,45,-1,-1,-1,-1,-1,47,49,51,53,-1,-1,-1,-1,55,57,-1,-1,59,-1,61,63,-1,-1,-1,65,-1,-1,-1,-1,-1,-1,-1,-1,-1,-1,-1,-1],"loss_changes":[4.12465E2,4.3266406E2,3.8589825E2,5.671521E2,2.7362634E2,0E0,5.7607178E1,0E0,0E0,3.8884613E2,2.044073E2,0E0,0E0,4.232278E2,2.4833087E2,2.4341069E2,2.1517917E2,1.4746182E2,4.3694037E2,1.3113815E1,0E0,3.2143047E1,2.774237E2,1.5123529E2,2.5605725E2,3.7532654E0,0E0,2.2654419E1,4.317818E2,4.7786865E0,0E0,0E0,0E0,0E0,0E0,2.0627905E2,6.6686646E1,2.2187749E2,8.507887E1,0E0,0E0,0E0,0E0,6.57672E1,2.8183148E2,0E0,0E0,4.9467438E1,0E0,3.688263E1,5.919067E1,0E0,0E0,0E0,4.2163376E1,0E0,0E0,0E0,0E0,0E0,0E0,0E0,0E0,0E0,0E0,0E0,0E0],"parents":[2147483647,0,0,1,1,2,2,3,3,4,4,6,6,9,9,10,10,13,13,14,14,15,15,16,16,17,17,18,18,19,19,21,21,22,22,23,23,24,24,25,25,27,27,28,28,29,29,35,35,36,36,37,37,38,38,43,43,44,44,47,47,49,49,50,50,54,54],"right_children":[2,4,6,8,10,-1,12,-1,-1,14,16,-1,-1,18,20,22,24,26,28,30,-1,32,34,36,38,40,-1,42,44,46,-1,-1,-1,-1,-1,48,50,52,54,-1,-1,-1,-1,56,58,-1,-1,60,-1,62,64,-1,-1,-1,66,-1,-1,-1,-1,-1,-1,-1,-1,-1,-1,-1,-1],"split_conditions":[7.7833336E1,2.5019611E1,6.586881E1,8.000938E1,-6.816914E1,-9.953742E-3,7.26892E1,3.0834413E-1,-3.0502396E-2,1.4117647E0,2E0,3.176359E-1,1.024046E-1,-1.8193874E2,4.827586E0,6.7382E4,7.2816E4,4.8E1,4.5945E4,7.9E1,1.16903804E-1,2.147757E1,2.84E1,6.2E1,7.7465E4,1.2228E4,6.8209104E-2,2.1E1,7.3948E4,-1.8805502E2,-2.9325334E-2,-8.7910295E-2,3.0609758E-3,-3.5536144E-2,2.0615567E-1,5.9791535E4,4.22E1,4.26E1,2.4866667E1,-9.642515E-2,-3.301904E-2,3.457178E-1,1.4041582E-1,6.368935E1,6.944445E-2,-4.01689E-2,-1.0317928E-1,2.1E1,1.1230488E-1,5.4267073E0,-3.9E1,1.9813628E-1,-3.3121273E-2,5.248633E-2,2.177E3,-8.325797E-2,3.3281326E-2,-1.4917531E-2,2.4487898E-1,-9.729029E-2,-0E0,-1.0049866E-1,-3.3594392E-2,4.2736944E-2,-5.8729604E-2,1.394013E-3,-9.578701E-2],"split_indices":[110,131,120,171,86,0,115,0,0,85,143,0,0,86,73,157,135,110,154,144,0,91,130,58,154,69,0,72,156,86,0,0,0,0,0,138,130,114,130,0,0,0,0,109,78,0,0,166,0,169,79,0,0,0,47,0,0,0,0,0,0,0,0,0,0,0,0],"split_type":[0,0,0,0,0,0,0,0,0,0,0,0,0,0,0,0,0,0,0,0,0,0,0,0,0,0,0,0,0,0,0,0,0,0,0,0,0,0,0,0,0,0,0,0,0,0,0,0,0,0,0,0,0,0,0,0,0,0,0,0,0,0,0,0,0,0,0],"sum_hessian":[3.22E2,3.03E2,1.9E1,1.5E1,2.88E2,9E0,1E1,7E0,8E0,1E2,1.88E2,5E0,5E0,6.4E1,3.6E1,2.7E1,1.61E2,2.2E1,4.2E1,3.1E1,5E0,1.2E1,1.5E1,1.25E2,3.6E1,1.5E1,7E0,1.1E1,3.1E1,2.4E1,7E0,7E0,5E0,6E0,9E0,2.5E1,1E2,1.3E1,2.3E1,1E1,5E0,5E0,6E0,1.6E1,1.5E1,6E0,1.8E1,1.7E1,8E0,8.1E1,1.9E1,8E0,5E0,5E0,1.8E1,1.1E1,5E0,5E0,1E1,9E0,8E0,6.9E1,1.2E1,6E0,1.3E1,5E0,1.3E1],"tree_param":{"num_deleted":"0","num_feature":"175","num_nodes":"67","size_leaf_vector":"1"}},{"base_weights":[7.50588E-2,1.7781159E0,-5.0335336E-1,-2.707978E-1,6.245433E0,-7.204073E-1,1.7075278E-1,-3.103817E0,1.8766894E0,8.441529E0,-5.2263286E-2,-1.048195E0,3.4033587E0,-1.5422667E-2,-1.10245205E-1,6.0518956E0,-1.4173841E0,3.4499386E-1,2.7500449E-2,-1.7504375E0,3.4920186E-1,6.1443043E0,-6.589096E-2,2.5397524E-1,2.4085794E-2,4.0087085E-2,-7.640267E-2,-2.5550368E0,-7.464969E-2,2.060411E0,-1.6698209E0,3.012463E-1,1.2603659E-2,-3.1858888E0,-2.814231E-1,-1.4928143E0,1.4764519E-1,5.595865E0,1.2765488E-1,4.167881E-2,-2.7371864E0,-3.352671E0,-1.6806327E-2,1.0535154E0,-9.330935E-2,-2.286541E0,6.2760346E-2,2.5833416E-1,5.8547113E-2,-1.4509108E0,2.2107553E0,-9.436438E-2,-1.976477E-2,-6.2498216E-2,-1.0692063E-1,-1.1426164E-2,9.848669E-2,-9.005119E-2,1.9088324E-2,-6.869544E-2,9.911542E-3,1.2956478E-1,-3.719861E-3],"categories":[],"categories_nodes":[],"categories_segments":[],"categories_sizes":[],"default_left":[0,0,0,0,0,0,0,0,0,0,0,0,0,0,0,0,0,0,0,0,0,0,0,0,0,0,0,0,0,0,0,0,0,0,0,0,0,0,0,0,0,0,0,0,0,0,0,0,0,0,0,0,0,0,0,0,0,0,0,0,0,0,0],"id":26,"left_children":[1,3,5,7,9,11,-1,13,15,17,-1,19,21,-1,-1,23,25,-1,-1,27,29,31,-1,-1,-1,-1,-1,33,35,37,39,-1,-1,41,43,45,-1,47,49,-1,51,53,-1,55,-1,57,-1,-1,-1,59,61,-1,-1,-1,-1,-1,-1,-1,-1,-1,-1,-1,-1],"loss_changes":[3.0681372E2,7.2946844E2,3.1767944E2,3.529602E2,4.7129724E2,3.1144586E2,0E0,3.1097015E1,4.7333636E2,4.3296826E2,0E0,2.0897983E2,2.8988947E2,0E0,0E0,1.718352E2,6.9608604E1,0E0,0E0,1.8841928E2,2.558342E2,2.5403384E2,0E0,0E0,0E0,0E0,0E0,1.3273297E2,3.5307727E2,2.6903638E2,1.19296036E2,0E0,0E0,2.6692993E1,9.443894E1,1.2063371E2,0E0,1.14947754E2,9.886784E1,0E0,1.6016281E1,8.38501E-1,0E0,5.8314102E1,0E0,7.398239E1,0E0,0E0,0E0,2.7897514E1,6.71521E1,0E0,0E0,0E0,0E0,0E0,0E0,0E0,0E0,0E0,0E0,0E0,0E0],"parents":[2147483647,0,0,1,1,2,2,3,3,4,4,5,5,7,7,8,8,9,9,11,11,12,12,15,15,16,16,19,19,20,20,21,21,27,27,28,28,29,29,30,30,33,33,34,34,35,35,37,37,38,38,40,40,41,41,43,43,45,45,49,49,50,50],"right_children":[2,4,6,8,10,12,-1,14,16,18,-1,20,22,-1,-1,24,26,-1,-1,28,30,32,-1,-1,-1,-1,-1,34,36,38,40,-1,-1,42,44,46,-1,48,50,-1,52,54,-1,56,-1,58,-1,-1,-1,60,62,-1,-1,-1,-1,-1,-1,-1,-1,-1,-1,-1,-1],"split_conditions":[3.4787735E2,6.666667E-1,9.6666664E1,5.75515E4,7.096718E2,9.659258E-1,1.7075278E-1,2E0,3.3333332E1,1.3E1,-5.2263286E-2,2.3E1,4.7166668E1,-1.5422667E-2,-1.10245205E-1,6.0225964E2,6E0,3.4499386E-1,2.7500449E-2,7.7492E4,3.7866665E1,3.18E1,-6.589096E-2,2.5397524E-1,2.4085794E-2,4.0087085E-2,-7.640267E-2,1.675371E6,5.4E1,8E0,3.32E4,3.012463E-1,1.2603659E-2,9.6681E4,6.3592668E4,1.8E1,1.4764519E-1,1.24E2,3.8E1,4.167881E-2,5.5374296E7,1.5999991E-2,-1.6806327E-2,9E0,-9.330935E-2,7.1631E1,6.2760346E-2,2.5833416E-1,5.8547113E-2,2.2E1,-2.0807502E-1,-9.436438E-2,-1.976477E-2,-6.2498216E-2,-1.0692063E-1,-1.1426164E-2,9.848669E-2,-9.005119E-2,1.9088324E-2,-6.869544E-2,9.911542E-3,1.2956478E-1,-3.719861E-3],"split_indices":[172,84,117,138,54,103,0,168,121,84,0,167,110,0,0,54,141,0,0,158,132,130,0,0,0,0,0,48,140,141,158,0,0,157,136,167,0,58,112,0,6,162,0,140,0,109,0,0,0,144,71,0,0,0,0,0,0,0,0,0,0,0,0],"split_type":[0,0,0,0,0,0,0,0,0,0,0,0,0,0,0,0,0,0,0,0,0,0,0,0,0,0,0,0,0,0,0,0,0,0,0,0,0,0,0,0,0,0,0,0,0,0,0,0,0,0,0,0,0,0,0,0,0,0,0,0,0,0,0],"sum_hessian":[3.07E2,7.7E1,2.3E2,5.4E1,2.3E1,2.24E2,6E0,2.3E1,3.1E1,1.8E1,5E0,2.09E2,1.5E1,5E0,1.8E1,1.3E1,1.8E1,1.2E1,6E0,1.39E2,7E1,1E1,5E0,8E0,5E0,5E0,1.3E1,9.3E1,4.6E1,3.8E1,3.2E1,5E0,5E0,7.2E1,2.1E1,3.7E1,9E0,1.2E1,2.6E1,8E0,2.4E1,6.7E1,5E0,1.5E1,6E0,3.1E1,6E0,5E0,7E0,1.5E1,1.1E1,1.9E1,5E0,1.3E1,5.4E1,1E1,5E0,2.5E1,6E0,1E1,5E0,5E0,6E0],"tree_param":{"num_deleted":"0","num_feature":"175","num_nodes":"63","size_leaf_vector":"1"}},{"base_weights":[2.9946208E-1,1.0634053E0,-1.2650471E0,1.2912942E-1,2.9215698E0,1.4614405E-1,-1.7310078E0,1.9309114E0,-1.004149E0,6.925872E0,7.92556E-1,2.633752E-1,-2.5100417E0,-5.938723E-1,5.3311357E0,1.1428844E-1,-3.0258574E0,2.5088077E0,3.3753666E-1,-9.4433206E-1,5.429458E0,-1.1569583E0,1.5996522E-1,-2.86121E0,2.988017E-2,-2.4229233E0,2.1345856E0,8.304221E0,-0E0,-5.843065E-1,1.7225467E-1,-3.621952E-2,-9.7395085E-2,1.8447357E-1,-3.6869455E-2,-2.2280483E0,1.3092346E-1,2.8328648E-1,3.1374138E-2,-2.5812345E0,7.3573105E-2,-0E0,-3.0925767E0,-9.837756E-2,8.327021E-3,1.4365448E-1,-3.966586E-2,7.886187E-2,3.3401313E-1,-1.6001842E0,1.9050817E0,-2.9894044E0,-7.8638977E-1,-9.3030654E-2,-3.0863142E-2,-2.6306212E-2,-9.8691836E-2,3.21089E-2,-2.3275914E0,-3.677425E-1,1.5985413E-1,-2.7465101E-2,-1.0575913E-1,3.9053556E-2,-6.873985E-2,-1.9800868E-3,-8.736518E-2,5.172139E-2,-7.277672E-2],"categories":[],"categories_nodes":[],"categories_segments":[],"categories_sizes":[],"default_left":[0,0,0,0,0,0,0,0,0,0,0,0,0,0,0,0,0,0,0,0,0,0,0,0,0,0,0,0,0,0,0,0,0,0,0,0,0,0,0,0,0,0,0,0,0,0,0,0,0,0,0,0,0,0,0,0,0,0,0,0,0,0,0,0,0,0,0,0,0],"id":27,"left_children":[1,3,5,7,9,-1,11,13,15,17,19,21,23,25,27,29,31,33,-1,35,37,39,-1,41,-1,43,45,47,-1,49,-1,-1,-1,-1,-1,51,-1,-1,-1,53,-1,-1,55,-1,-1,-1,-1,-1,-1,57,59,61,63,-1,-1,-1,-1,-1,65,67,-1,-1,-1,-1,-1,-1,-1,-1,-1],"loss_changes":[3.8983322E2,3.7791248E2,3.21248E2,3.0654547E2,6.075032E2,0E0,1.5936841E2,5.066208E2,2.1017368E2,4.1429944E2,4.15186E2,2.3040736E2,9.651071E1,1.8515514E2,3.9283643E2,2.491021E2,3.1752625E0,2.2167514E2,0E0,2.7733145E2,2.2131326E2,1.4124442E2,0E0,4.44729E1,0E0,5.419644E1,1.5200488E2,1.9152881E2,0E0,1.4756369E2,0E0,0E0,0E0,0E0,0E0,2.8534134E1,0E0,0E0,0E0,6.8866806E0,0E0,0E0,1.9230652E1,0E0,0E0,0E0,0E0,0E0,0E0,8.5254684E1,1.3867235E2,1.3552795E1,5.045645E1,0E0,0E0,0E0,0E0,0E0,4.175522E1,6.0378155E1,0E0,0E0,0E0,0E0,0E0,0E0,0E0,0E0,0E0],"parents":[2147483647,0,0,1,1,2,2,3,3,4,4,6,6,7,7,8,8,9,9,10,10,11,11,12,12,13,13,14,14,15,15,16,16,17,17,19,19,20,20,21,21,23,23,25,25,26,26,27,27,29,29,35,35,39,39,42,42,49,49,50,50,51,51,52,52,58,58,59,59],"right_children":[2,4,6,8,10,-1,12,14,16,18,20,22,24,26,28,30,32,34,-1,36,38,40,-1,42,-1,44,46,48,-1,50,-1,-1,-1,-1,-1,52,-1,-1,-1,54,-1,-1,56,-1,-1,-1,-1,-1,-1,58,60,62,64,-1,-1,-1,-1,-1,66,68,-1,-1,-1,-1,-1,-1,-1,-1,-1],"split_conditions":[4.1E2,7.0172374E-4,1.6861E4,4.9480447E2,5.2067E4,1.4614405E-1,2.4921879E1,2.6359082E2,3.9766666E1,5.9340133E4,1.6410257E0,1.6943043E1,9.527E4,7.6913E4,2.8666666E1,7.03038E4,-2.0220046E7,9E0,3.3753666E-1,7.232335E1,1.2228E4,7.8783E4,1.5996522E-1,3.2809E4,2.988017E-2,7.134E4,4.6804016E1,-6.5864277E-1,-0E0,7E0,1.7225467E-1,-3.621952E-2,-9.7395085E-2,1.8447357E-1,-3.6869455E-2,1.8E1,1.3092346E-1,2.8328648E-1,3.1374138E-2,5.503E4,7.3573105E-2,-0E0,-1.32E2,-9.837756E-2,8.327021E-3,1.4365448E-1,-3.966586E-2,7.886187E-2,3.3401313E-1,4E0,7.664E4,5.5471168E4,6.3999996E-2,-9.3030654E-2,-3.0863142E-2,-2.6306212E-2,-9.8691836E-2,3.21089E-2,8.1E1,7.6055E4,1.5985413E-1,-2.7465101E-2,-1.0575913E-1,3.9053556E-2,-6.873985E-2,-1.9800868E-3,-8.736518E-2,5.172139E-2,-7.277672E-2],"split_indices":[58,134,158,172,135,0,129,172,123,137,85,129,155,158,108,137,70,139,0,111,69,5,0,135,0,155,124,116,0,57,0,0,0,0,0,145,0,0,0,154,0,0,79,0,0,0,0,0,0,141,156,138,162,0,0,0,0,0,58,157,0,0,0,0,0,0,0,0,0],"split_type":[0,0,0,0,0,0,0,0,0,0,0,0,0,0,0,0,0,0,0,0,0,0,0,0,0,0,0,0,0,0,0,0,0,0,0,0,0,0,0,0,0,0,0,0,0,0,0,0,0,0,0,0,0,0,0,0,0,0,0,0,0,0,0,0,0,0,0,0,0],"sum_hessian":[3.22E2,2.17E2,1.05E2,1.46E2,7.1E1,6E0,9.9E1,5.6E1,9E1,2.3E1,4.8E1,2.8E1,7.1E1,3.3E1,2.3E1,5.9E1,3.1E1,1.3E1,1E1,3.6E1,1.2E1,2.3E1,5E0,6.5E1,6E0,2E1,1.3E1,1.4E1,9E0,5.4E1,5E0,5E0,2.6E1,6E0,7E0,3E1,6E0,5E0,7E0,1.7E1,6E0,5E0,6E1,1.5E1,5E0,7E0,6E0,6E0,8E0,3.9E1,1.5E1,1.8E1,1.2E1,1.1E1,6E0,6E0,5.4E1,8E0,3.1E1,1E1,5E0,5E0,1.3E1,5E0,7E0,7E0,2.4E1,5E0,5E0],"tree_param":{"num_deleted":"0","num_feature":"175","num_nodes":"69","size_leaf_vector":"1"}},{"base_weights":[1.8802752E-1,-1.6190693E0,6.787135E-1,-2.1385727E0,1.01202264E-1,1.8474486E0,-3.977242E-1,-2.6381621E0,2.8107716E-2,1.2085037E0,6.832922E0,2.6983294E0,-9.15685E-1,-3.1289208E0,4.4384457E-2,2.1817157E-1,7.6807475E-1,3.254188E-1,4.6488468E-2,2.3058128E-1,-7.4769884E-1,2.247031E0,-1.6080858E0,-3.2967324E0,-3.3260975E-2,1.573807E-1,2.7527854E-1,-6.3715436E-2,2.9017277E-2,-6.483007E-1,1.5127434E-1,1.0773313E0,-2.6195364E0,-4.6793703E-2,-1.0427203E-1,-1.0736953E0,2.5596354E0,-6.698326E-2,3.1499222E-2,-1.5485574E0,3.7725933E0,-0E0,-3.0064714E0,1.1683564E0,-2.2365673E0,2.1202989E-1,5.1491034E-1,4.745315E-3,-7.4506804E-2,-2.6504729E-2,1.9833581E-1,-3.485482E-2,-3.159142E0,-2.3624405E-2,1.6967574E-1,-9.024752E-2,2.641294E-3,1.1715671E-1,-4.7591466E-2,-1.0015622E-1,-4.3940887E-2],"categories":[],"categories_nodes":[],"categories_segments":[],"categories_sizes":[],"default_left":[0,0,0,0,0,0,0,0,0,0,0,0,0,0,0,0,0,0,0,0,0,0,0,0,0,0,0,0,0,0,0,0,0,0,0,0,0,0,0,0,0,0,0,0,0,0,0,0,0,0,0,0,0,0,0,0,0,0,0,0,0],"id":28,"left_children":[1,3,5,7,-1,9,11,13,-1,15,17,19,21,23,-1,-1,25,-1,-1,-1,27,29,31,33,-1,-1,35,-1,-1,37,-1,39,41,-1,-1,43,45,-1,-1,47,49,-1,51,53,55,-1,57,-1,-1,-1,-1,-1,59,-1,-1,-1,-1,-1,-1,-1,-1],"loss_changes":[2.7838333E2,1.8758295E2,3.1293784E2,1.0105621E2,0E0,3.5853177E2,2.125228E2,1.1920471E2,0E0,2.7324487E2,2.3590228E2,3.415311E2,2.5436234E2,7.098877E0,0E0,0E0,2.2164288E2,0E0,0E0,0E0,3.536705E1,1.7870384E2,2.61735E2,3.1976318E-1,0E0,0E0,2.9898557E2,0E0,0E0,3.7570595E1,0E0,2.0388753E2,6.885629E1,0E0,0E0,1.6480067E2,3.2076666E2,0E0,0E0,2.5885395E1,1.9958041E2,0E0,7.396118E0,2.0443198E2,7.553822E1,0E0,2.0589888E2,0E0,0E0,0E0,0E0,0E0,4.2335205E0,0E0,0E0,0E0,0E0,0E0,0E0,0E0,0E0],"parents":[2147483647,0,0,1,1,2,2,3,3,5,5,6,6,7,7,9,9,10,10,11,11,12,12,13,13,16,16,20,20,21,21,22,22,23,23,26,26,29,29,31,31,32,32,35,35,36,36,39,39,40,40,42,42,43,43,44,44,46,46,52,52],"right_children":[2,4,6,8,-1,10,12,14,-1,16,18,20,22,24,-1,-1,26,-1,-1,-1,28,30,32,34,-1,-1,36,-1,-1,38,-1,40,42,-1,-1,44,46,-1,-1,48,50,-1,52,54,56,-1,58,-1,-1,-1,-1,-1,60,-1,-1,-1,-1,-1,-1,-1,-1],"split_conditions":[8.666667E0,6.9136734E4,3.962743E1,5.2446404E0,1.01202264E-1,7E1,1.5999995E-2,3.119E3,2.8107716E-2,1.0333333E1,8E0,3.15E1,4.42631E2,3.6066666E1,4.4384457E-2,2.1817157E-1,7.999994E-3,3.254188E-1,4.6488468E-2,2.3058128E-1,9.43298E-1,1.2E1,3.9749E4,1.812E4,-3.3260975E-2,1.573807E-1,3.7E1,-6.3715436E-2,2.9017277E-2,7.897929E2,1.5127434E-1,-5.688773E-1,2.7666666E1,-4.6793703E-2,-1.0427203E-1,4E-2,2.368E3,-6.698326E-2,3.1499222E-2,-8.8E1,5E0,-0E0,3.6333332E1,3E0,7.056266E2,2.1202989E-1,1.1E0,4.745315E-3,-7.4506804E-2,-2.6504729E-2,1.9833581E-1,-3.485482E-2,6.588443E4,-2.3624405E-2,1.6967574E-1,-9.024752E-2,2.641294E-3,1.1715671E-1,-4.7591466E-2,-1.0015622E-1,-4.3940887E-2],"split_indices":[117,137,109,169,0,140,163,47,0,108,142,128,54,130,0,0,162,0,0,0,89,141,158,158,0,0,142,0,0,172,0,116,130,0,0,163,47,0,0,81,142,0,108,143,54,0,85,0,0,0,0,0,138,0,0,0,0,0,0,0,0],"split_type":[0,0,0,0,0,0,0,0,0,0,0,0,0,0,0,0,0,0,0,0,0,0,0,0,0,0,0,0,0,0,0,0,0,0,0,0,0,0,0,0,0,0,0,0,0,0,0,0,0,0,0,0,0,0,0,0,0,0,0,0,0],